{"layers":[{"x":{},"b":{}},{"0":{"bias":0.04799864349707982,"weights":{"x":0.03995919211444298,"b":-0.02800067882444024}},"1":{"bias":-0.1573396478977408,"weights":{"x":-0.04711355569943968,"b":0.1020530984689568}},"2":{"bias":0.1485838385380093,"weights":{"x":-0.0644803698506597,"b":0.03805777960208909}},"3":{"bias":-0.01645522070265329,"weights":{"x":-0.037249640213476425,"b":0.17725262175223602}},"4":{"bias":0.1868351927352425,"weights":{"x":0.021524498807913788,"b":0.12587626261756307}},"5":{"bias":-0.05944639690465008,"weights":{"x":-0.045068903501167025,"b":-0.07623258923544099}},"6":{"bias":0.0642425528981846,"weights":{"x":0.1906547798838361,"b":0.1685931218494382}},"7":{"bias":0.10381109456932283,"weights":{"x":0.19672262160722345,"b":-0.07885866716605705}},"8":{"bias":0.11626917862258658,"weights":{"x":-0.1314897227482674,"b":-0.07549288651632967}},"9":{"bias":0.17792035664327896,"weights":{"x":-0.09026161197250572,"b":-0.1462109173305974}},"10":{"bias":-0.09299873269251155,"weights":{"x":-0.07737606820759096,"b":-0.1589127379334974}},"11":{"bias":0.04652847097489997,"weights":{"x":0.1298257538588408,"b":0.12272733251904809}},"12":{"bias":-0.02126235230127191,"weights":{"x":0.019677484134360584,"b":0.18244158750593814}},"13":{"bias":0.08028557791507906,"weights":{"x":0.0864365909062817,"b":-0.12335414362458341}},"14":{"bias":-0.16833972246040946,"weights":{"x":-0.09733756464176947,"b":0.1819101224538086}},"15":{"bias":0.13293569416244375,"weights":{"x":-0.05796519762105216,"b":-0.16815753553743265}},"16":{"bias":-0.1420397090920855,"weights":{"x":-0.05139159753463173,"b":0.1488229244264731}},"17":{"bias":0.07698646508273915,"weights":{"x":0.0037653908055988155,"b":0.0094018163337221}},"18":{"bias":-0.023703734695504672,"weights":{"x":0.0967412483419008,"b":-0.1821936660722549}},"19":{"bias":-0.033629750051921696,"weights":{"x":0.18392099722951846,"b":-0.03547839124840426}},"20":{"bias":-0.06118816450461804,"weights":{"x":-0.13088372097351986,"b":0.14730021738461052}},"21":{"bias":-0.03382916959688595,"weights":{"x":0.08153178500240575,"b":0.01782798133270431}},"22":{"bias":0.13746978162164059,"weights":{"x":-0.125580007085437,"b":0.08829031264310816}},"23":{"bias":0.17790791665739106,"weights":{"x":0.1287503862650558,"b":-0.19858818111408322}},"24":{"bias":-0.19317552377974706,"weights":{"x":-0.10435813337113646,"b":-0.09363061157674879}},"25":{"bias":0.11923262463744189,"weights":{"x":-0.008344977912142141,"b":0.17846838202111548}},"26":{"bias":0.00628040022883473,"weights":{"x":-0.0909466336160731,"b":0.11207138357896067}},"27":{"bias":0.00037614927199670575,"weights":{"x":0.19739553969112109,"b":-0.09296174682687271}},"28":{"bias":0.021434491202748606,"weights":{"x":-0.01365304822309913,"b":0.0022397641670177507}},"29":{"bias":0.12345988724431223,"weights":{"x":0.007722728307677864,"b":0.08040549995376249}},"30":{"bias":0.06553035894945236,"weights":{"x":-0.1756688954343154,"b":-0.19840540613129803}},"31":{"bias":0.19019999819200217,"weights":{"x":-0.08369637105755194,"b":0.1254264012294175}},"32":{"bias":-0.016739287044888078,"weights":{"x":0.06720396808835508,"b":-0.08691639482465763}},"33":{"bias":0.03229336381063066,"weights":{"x":0.14860381378842344,"b":-0.18717171939181945}},"34":{"bias":0.13795794306660025,"weights":{"x":-0.09074325185654496,"b":0.164348996492472}},"35":{"bias":-0.13781414177728263,"weights":{"x":-0.17241417864479008,"b":0.022888795602654975}},"36":{"bias":0.1423858365933547,"weights":{"x":0.13070784168416927,"b":-0.028871123865871446}},"37":{"bias":0.17096218661262458,"weights":{"x":0.06779586826984373,"b":0.09787859731940517}},"38":{"bias":-0.0767123264177415,"weights":{"x":-0.05213237755952835,"b":0.17013798622892337}},"39":{"bias":-0.17680500517982445,"weights":{"x":0.0424468156619748,"b":0.17240785847042361}},"40":{"bias":0.0913323572765994,"weights":{"x":0.19448196046469304,"b":0.10318760448935779}},"41":{"bias":-0.07625135082256314,"weights":{"x":-0.0264879173496965,"b":0.18961793460715712}},"42":{"bias":-0.17328423622512112,"weights":{"x":0.12263132726488565,"b":-0.04479030408777532}},"43":{"bias":-0.1379330213678302,"weights":{"x":0.14961483460266228,"b":-0.011684466594801698}},"44":{"bias":-0.03483987379260872,"weights":{"x":-0.043292661547759265,"b":0.1560912812420511}},"45":{"bias":-0.1849920290213878,"weights":{"x":0.13665232605354177,"b":0.0743357181703287}},"46":{"bias":-0.11387912667654397,"weights":{"x":-0.14007533465273125,"b":0.025635076739353856}},"47":{"bias":0.1190745471170996,"weights":{"x":-0.07399159610732674,"b":-0.029196244510196128}},"48":{"bias":0.035210558846103156,"weights":{"x":-0.04140739596425957,"b":-0.039818628590432635}},"49":{"bias":-0.04968970772816899,"weights":{"x":0.06173027935151197,"b":-0.16066656666798032}},"50":{"bias":0.16444542881797622,"weights":{"x":0.186225746856247,"b":0.1726533810706464}},"51":{"bias":0.19913610001488338,"weights":{"x":0.015338367025695398,"b":0.09000479716448626}},"52":{"bias":0.17398855577133523,"weights":{"x":-0.06815276197674694,"b":0.13970402705218948}},"53":{"bias":0.04947164367734165,"weights":{"x":0.1414654080759354,"b":-0.0735126189789232}},"54":{"bias":-0.08668023903723474,"weights":{"x":-0.17972645810708363,"b":0.042016651526726824}},"55":{"bias":-0.0025533016985653965,"weights":{"x":0.1346752281253834,"b":0.021899692135470973}},"56":{"bias":-0.16394947050434594,"weights":{"x":-0.03432830961826754,"b":0.08320341908594024}},"57":{"bias":0.1284878843526492,"weights":{"x":-0.05559290046005614,"b":0.1937930610399754}},"58":{"bias":-0.0023064066253623344,"weights":{"x":-0.18219905103354012,"b":-0.06596327202693333}},"59":{"bias":-0.1432770619931014,"weights":{"x":0.03925904852680213,"b":0.004939406061783868}},"60":{"bias":-0.049098232892157624,"weights":{"x":0.0658718239128064,"b":-0.162894096867192}},"61":{"bias":-0.10887035165702075,"weights":{"x":0.032992900783973815,"b":0.02730447530391349}},"62":{"bias":-0.11614134782158639,"weights":{"x":0.17325010405737898,"b":0.0007818555061352696}},"63":{"bias":-0.02051651998891537,"weights":{"x":0.11567208781500402,"b":0.18182708939557116}},"64":{"bias":0.04618243718273573,"weights":{"x":0.0542804725563005,"b":0.13867848635554367}},"65":{"bias":-0.04075369538251044,"weights":{"x":-0.18438968090383778,"b":0.015952058991507645}},"66":{"bias":0.06459559827966861,"weights":{"x":-0.10096531193256311,"b":-0.1239622511496147}},"67":{"bias":0.07578115602362154,"weights":{"x":-0.024475197074840582,"b":0.1495393016027981}},"68":{"bias":-0.04452487112490844,"weights":{"x":0.027081640087331584,"b":-0.05461402025894272}},"69":{"bias":0.12277411785995178,"weights":{"x":0.09736894659713238,"b":-0.06684308443851449}},"70":{"bias":-0.13525904070814487,"weights":{"x":-0.08594795187385126,"b":-0.06423866668512415}},"71":{"bias":0.008106473721465729,"weights":{"x":0.02434520759972072,"b":-0.07892855498165444}},"72":{"bias":-0.17057211661711702,"weights":{"x":-0.03943862902414488,"b":0.18788137164474383}},"73":{"bias":-0.020094670823689733,"weights":{"x":0.19291722446934806,"b":-0.01635826867399151}},"74":{"bias":-0.03166748329514956,"weights":{"x":-0.06655370113257511,"b":0.03136695491206339}},"75":{"bias":-0.11291936050057304,"weights":{"x":0.06211212155591549,"b":-0.197692499594439}},"76":{"bias":0.07955202145050742,"weights":{"x":-0.07421314675270113,"b":0.18439734416625092}},"77":{"bias":0.01145644386748747,"weights":{"x":0.011271044911541043,"b":0.045438557830478156}},"78":{"bias":0.0023359006829729344,"weights":{"x":0.02643544279973819,"b":0.09001523114003283}},"79":{"bias":0.10844961207332325,"weights":{"x":-0.13731031482495062,"b":0.11087587804092991}},"80":{"bias":-0.025782354279851066,"weights":{"x":-0.018246983315956367,"b":-0.05633112381611657}},"81":{"bias":-0.12148910664331859,"weights":{"x":0.1686563950901601,"b":0.12890426594579607}},"82":{"bias":0.1989464292429026,"weights":{"x":0.05237478756736271,"b":0.15152733061395396}},"83":{"bias":-0.1830934711049608,"weights":{"x":-0.18703669978341544,"b":-0.03117513760165951}},"84":{"bias":0.07121849110625025,"weights":{"x":0.16354903368964915,"b":0.04453255285843675}},"85":{"bias":0.023004314343498183,"weights":{"x":-0.0977706279320671,"b":0.03245003609229516}},"86":{"bias":-0.08435062037284832,"weights":{"x":0.12346268414048321,"b":-0.1787090132369475}},"87":{"bias":-0.20038114680754235,"weights":{"x":0.04757718092464414,"b":-0.07484206662520387}},"88":{"bias":-0.031976128201439406,"weights":{"x":0.15012519115886863,"b":-0.09771417907437728}},"89":{"bias":0.15533474866130104,"weights":{"x":0.04232914045145431,"b":-0.03156174697038893}},"90":{"bias":-0.11339402059417454,"weights":{"x":-0.10070944637675958,"b":0.14827172198439867}},"91":{"bias":-0.016344524894525796,"weights":{"x":0.1864336638505206,"b":-0.06975075110594427}},"92":{"bias":0.08988850901839203,"weights":{"x":-0.02149859260523817,"b":0.10190165849981384}},"93":{"bias":0.18774540915109114,"weights":{"x":0.05597329944668341,"b":-0.04581787073220947}},"94":{"bias":-0.09069041909727713,"weights":{"x":-0.025030387611141142,"b":0.10690388681204052}},"95":{"bias":0.16930288787329636,"weights":{"x":0.17187531287407157,"b":-0.01824680225858149}},"96":{"bias":-0.11407152184386442,"weights":{"x":-0.009936141772809408,"b":0.023007391385163195}},"97":{"bias":-0.10590929698030668,"weights":{"x":-0.030824625174417444,"b":-0.12620328086587487}},"98":{"bias":-0.10152612939602142,"weights":{"x":-0.04856952258817089,"b":-0.04155101524502635}},"99":{"bias":-0.0943574785189319,"weights":{"x":0.03135409119195902,"b":0.17339367544769796}},"100":{"bias":-0.1657900860750546,"weights":{"x":0.04685674192364654,"b":-0.008327166356156934}},"101":{"bias":-0.03556183919984401,"weights":{"x":0.1302109783917388,"b":0.09700458866404689}},"102":{"bias":-0.1850968172988254,"weights":{"x":0.08980300173517407,"b":0.16668057354103147}},"103":{"bias":-0.04833913677325516,"weights":{"x":-0.0840059414564605,"b":-0.04917788978789139}},"104":{"bias":-0.11244302834151827,"weights":{"x":0.19848756855388422,"b":-0.17060543239104645}},"105":{"bias":-0.12943621088829574,"weights":{"x":0.09852993828990884,"b":-0.1666581271257675}},"106":{"bias":0.13949894818080438,"weights":{"x":-0.1763482657884332,"b":0.042808413575138905}},"107":{"bias":0.07980927865415961,"weights":{"x":-0.1445682167986541,"b":-0.0967748750559796}},"108":{"bias":-0.13275054337156947,"weights":{"x":0.19672431174236166,"b":-0.09992543367776227}},"109":{"bias":0.08852438993337426,"weights":{"x":0.1459209204085612,"b":-0.17596988277763242}},"110":{"bias":-0.1430532235534375,"weights":{"x":0.08911410675946664,"b":0.06264269651696076}},"111":{"bias":0.13421056894461217,"weights":{"x":-0.09129256007084788,"b":-0.049784846958976336}},"112":{"bias":-0.12086863330127096,"weights":{"x":0.05687807422335502,"b":-0.20017775991931913}},"113":{"bias":0.08913710812248535,"weights":{"x":-0.19704315557439114,"b":0.18995970975938326}},"114":{"bias":0.07376957796423354,"weights":{"x":-0.006423413934294258,"b":0.16580569957410496}},"115":{"bias":0.10629799723977601,"weights":{"x":-0.05851153554275726,"b":0.07637969186490448}},"116":{"bias":0.15580409890351785,"weights":{"x":-0.12707196126081327,"b":-0.16108230791081987}},"117":{"bias":0.040728915327582854,"weights":{"x":-0.06294172062138052,"b":0.1781804690700631}},"118":{"bias":-0.1727815492148602,"weights":{"x":0.022739412500397634,"b":0.10530883244272325}},"119":{"bias":0.12326869565429795,"weights":{"x":0.1741026348403861,"b":0.09364998196960393}},"120":{"bias":0.08761639253315005,"weights":{"x":0.17656680512731399,"b":-0.09693077826560505}},"121":{"bias":0.002899113681010693,"weights":{"x":-0.03802114908356774,"b":-0.0032775857939179595}},"122":{"bias":-0.13558946057833393,"weights":{"x":0.16759300411026729,"b":0.02126350126277539}},"123":{"bias":0.061867697481446424,"weights":{"x":-0.05004643165458225,"b":-0.17079701968104744}},"124":{"bias":0.1269086808593011,"weights":{"x":0.11430574912254861,"b":-0.09791450689501005}},"125":{"bias":-0.05231252646958906,"weights":{"x":-0.18752943133912098,"b":-0.11594690577741106}},"126":{"bias":0.0745860961746348,"weights":{"x":0.04734745344584182,"b":0.0338535510072198}},"127":{"bias":0.10467447789508498,"weights":{"x":0.11483567481243982,"b":-0.03836998968276043}},"128":{"bias":-0.03207127950229754,"weights":{"x":-0.19214892119685467,"b":0.11611914954615601}},"129":{"bias":0.040808840976728385,"weights":{"x":0.061401581641056496,"b":0.05566624553644511}},"130":{"bias":0.05276705087571403,"weights":{"x":0.10138783660117014,"b":0.0425396898786993}},"131":{"bias":0.17745793236924706,"weights":{"x":0.18922259473715267,"b":-0.12921433058386186}},"132":{"bias":-0.1676788958388632,"weights":{"x":0.10988713137624326,"b":0.1363714852054}},"133":{"bias":0.1107651429199012,"weights":{"x":0.11905943545276026,"b":0.11333848127165225}},"134":{"bias":0.07433480674561437,"weights":{"x":-0.02979120802928058,"b":0.1745284726298459}},"135":{"bias":-0.041471649851616436,"weights":{"x":-0.19353247044495248,"b":0.1011890082434686}},"136":{"bias":0.052845786656465686,"weights":{"x":0.16521885126029084,"b":-0.05689778039594973}},"137":{"bias":-0.04748757586706508,"weights":{"x":0.06918815581895539,"b":-0.016017594288635122}},"138":{"bias":0.06619864252325929,"weights":{"x":0.15281285519968255,"b":-0.03702157429291988}},"139":{"bias":0.0013802406372610911,"weights":{"x":-0.1769171683040924,"b":-0.09249924503650692}},"140":{"bias":0.057587384237831274,"weights":{"x":0.09138050768679921,"b":0.12796748547480377}},"141":{"bias":-0.18602447950677864,"weights":{"x":-0.042576963677078895,"b":0.1254484467130893}},"142":{"bias":-0.19763631694537362,"weights":{"x":-0.07721595634711347,"b":0.06409005059965596}},"143":{"bias":-0.06785570327910001,"weights":{"x":0.06391472482218598,"b":-0.05505261613054514}},"144":{"bias":0.011340815971544677,"weights":{"x":0.11540566079884351,"b":0.026066090871890612}},"145":{"bias":-0.1443863940187085,"weights":{"x":-0.08459748759334405,"b":-0.04841336403057322}},"146":{"bias":0.016306716518038455,"weights":{"x":0.017749407801896693,"b":-0.014519840794438662}},"147":{"bias":0.12089081840539496,"weights":{"x":0.12954811806021052,"b":0.10642644665675764}},"148":{"bias":-0.16707201811135108,"weights":{"x":0.15439199302938325,"b":-0.051977606427720036}},"149":{"bias":-0.14706368148137697,"weights":{"x":0.15560562790898624,"b":0.1247263191782464}},"150":{"bias":0.10107230667432292,"weights":{"x":0.05520385947864013,"b":-0.012213067191997554}},"151":{"bias":-0.07720767458702309,"weights":{"x":0.05259675993797888,"b":0.14444911330759863}},"152":{"bias":-0.14053246283343737,"weights":{"x":0.09484767540137028,"b":-0.09008123453712029}},"153":{"bias":-0.19875078999101248,"weights":{"x":-0.08487771143396278,"b":0.05215014014646743}},"154":{"bias":-0.03428186695545672,"weights":{"x":-0.14654628490880056,"b":-0.08687070180572362}},"155":{"bias":-0.09382050645365024,"weights":{"x":0.004879385456415924,"b":0.026591286890547884}},"156":{"bias":0.09589615460584693,"weights":{"x":-0.10509144042281485,"b":-0.05729750348933011}},"157":{"bias":-0.13110350728565606,"weights":{"x":-0.0692520165846783,"b":0.16329457418831722}},"158":{"bias":-0.15399962836165418,"weights":{"x":0.14612886620642868,"b":0.1512641736889369}},"159":{"bias":0.0413719468410057,"weights":{"x":-0.06458657369598633,"b":0.17176631764391945}},"160":{"bias":-0.10024433705148567,"weights":{"x":0.19558546866091203,"b":-0.19371990137415038}},"161":{"bias":0.16595669094425314,"weights":{"x":0.016624434816186813,"b":-0.11702813590837842}},"162":{"bias":0.015218690053361494,"weights":{"x":0.0209553340046061,"b":0.10077190293401267}},"163":{"bias":-0.0067927246458219775,"weights":{"x":-0.18071492219729002,"b":0.04975286719582845}},"164":{"bias":-0.18319525404001558,"weights":{"x":-0.049720747581894854,"b":-0.04976885112685967}},"165":{"bias":0.164700655936011,"weights":{"x":0.02126816351247982,"b":0.13833353452359823}},"166":{"bias":0.054893159686281584,"weights":{"x":-0.0926635332544535,"b":-0.18660926698359984}},"167":{"bias":0.07010473973944141,"weights":{"x":-0.05918869174874432,"b":-0.200089527132966}},"168":{"bias":-0.08675727186796227,"weights":{"x":0.17661406264357965,"b":0.10274622144685865}},"169":{"bias":0.19209771261896502,"weights":{"x":-0.06922353612800791,"b":-0.1868017089552256}},"170":{"bias":0.1364890990244654,"weights":{"x":-0.13632265501164356,"b":-0.1560421898403135}},"171":{"bias":-0.044062150961348245,"weights":{"x":-0.14435542158278933,"b":0.04331828002395639}},"172":{"bias":-0.04586912084049732,"weights":{"x":-0.1958782333055579,"b":0.007131289047386917}},"173":{"bias":0.07545475913007794,"weights":{"x":-0.028405892009474853,"b":-0.17733059657662942}},"174":{"bias":0.15467406559700972,"weights":{"x":0.1626952739524487,"b":0.045093730216471326}},"175":{"bias":-0.19007399489841853,"weights":{"x":0.04296449079244643,"b":0.11369826038821117}},"176":{"bias":-0.12061149706293403,"weights":{"x":0.003978359189450357,"b":-0.14228223233732562}},"177":{"bias":-0.14497885307467626,"weights":{"x":0.1660898688807331,"b":-0.1677607793530211}},"178":{"bias":0.012646699042027703,"weights":{"x":0.18071145018020027,"b":-0.17595848303966602}},"179":{"bias":0.14519403037359316,"weights":{"x":0.1829936251682443,"b":-0.160405546628878}},"180":{"bias":0.09607900817772862,"weights":{"x":0.0006250718952212908,"b":0.0781733735797097}},"181":{"bias":-0.1501504833635879,"weights":{"x":0.08004085457993182,"b":0.09226322592485518}},"182":{"bias":0.1897797630575464,"weights":{"x":0.10411464865792416,"b":0.05351236765556579}},"183":{"bias":0.04272079450680745,"weights":{"x":-0.1923709851305555,"b":0.16007088012513676}},"184":{"bias":0.1994663796886738,"weights":{"x":-0.15890586390083347,"b":0.08400918694904477}},"185":{"bias":-0.10167807680545983,"weights":{"x":0.14042235660180416,"b":0.07039022044162829}},"186":{"bias":0.007230226803057975,"weights":{"x":0.05430148838343498,"b":-0.08792025558123746}},"187":{"bias":0.130918275198392,"weights":{"x":-0.034699871121330286,"b":0.16935726711129398}},"188":{"bias":-0.19339257580368832,"weights":{"x":-0.13560754660686405,"b":0.10626876705433941}},"189":{"bias":-0.17975094855136545,"weights":{"x":-0.16110390962126234,"b":0.18534047084075259}},"190":{"bias":-0.01980133720591354,"weights":{"x":0.1280022335780071,"b":-0.12752615020658242}},"191":{"bias":-0.11306390207900786,"weights":{"x":-0.12696819114001792,"b":0.16318108722167027}},"192":{"bias":0.186331012003325,"weights":{"x":0.008890832221501522,"b":0.10131263076788498}},"193":{"bias":-0.03772568289983257,"weights":{"x":-0.10359940503313711,"b":0.005708290694722931}},"194":{"bias":-0.18684874524608794,"weights":{"x":-0.12367026838482875,"b":-0.14505135507752}},"195":{"bias":0.07285845535421337,"weights":{"x":0.03459308116500329,"b":-0.15120476204468303}},"196":{"bias":-0.0015749213528859834,"weights":{"x":-0.06199378552089915,"b":0.11649180977122527}},"197":{"bias":-0.16329242076311198,"weights":{"x":-0.005387437523505359,"b":-0.1942625670428029}},"198":{"bias":-0.11960654235600116,"weights":{"x":-0.0942093869331,"b":-0.05959179483119707}},"199":{"bias":0.09744117735765682,"weights":{"x":0.1512323827203967,"b":-0.006994313910161677}},"200":{"bias":0.10157234616592078,"weights":{"x":0.07429999983394642,"b":-0.13950107037906503}},"201":{"bias":0.07995922911266916,"weights":{"x":-0.12074828308829494,"b":0.016707560387193666}},"202":{"bias":-0.026798641391943948,"weights":{"x":-0.07787475176727816,"b":-0.0846142817574698}},"203":{"bias":0.1794972413814612,"weights":{"x":0.14676658356716485,"b":0.11574873210797743}},"204":{"bias":-0.13832923516697918,"weights":{"x":-0.1695523666925876,"b":-0.1922611556246925}},"205":{"bias":-0.11235959672135713,"weights":{"x":0.09218801531693425,"b":-0.029376918008772603}},"206":{"bias":0.16947560150826674,"weights":{"x":0.18199667820807125,"b":0.09573327507430436}},"207":{"bias":0.061020874196189755,"weights":{"x":-0.1942905875547232,"b":-0.13244680938319436}},"208":{"bias":0.14674335335956962,"weights":{"x":0.15008939462758494,"b":-0.1137169929279627}},"209":{"bias":0.10804860379004402,"weights":{"x":0.17574981567383366,"b":-0.024387689787485938}},"210":{"bias":0.1693334714554499,"weights":{"x":-0.1203829362950078,"b":-0.14848890700348674}},"211":{"bias":0.13348274617917621,"weights":{"x":-0.08958635875764764,"b":-0.1519675281389108}},"212":{"bias":0.1872707522658502,"weights":{"x":0.14096364867677402,"b":0.12001427208641587}},"213":{"bias":0.10857592933864416,"weights":{"x":-0.15333576994816583,"b":-0.1622329508006392}},"214":{"bias":-0.04093201811584017,"weights":{"x":0.12176830931248715,"b":-0.13464095639430135}},"215":{"bias":0.09306554263298904,"weights":{"x":0.1673841290895591,"b":0.16577406254379393}},"216":{"bias":0.1687016207559699,"weights":{"x":0.1980793233126771,"b":0.09351949870394693}},"217":{"bias":0.12559539708103856,"weights":{"x":0.10937787709591673,"b":-0.02579550755787345}},"218":{"bias":-0.020957639981220393,"weights":{"x":0.13808568308847766,"b":-0.027975025548955944}},"219":{"bias":-0.14931244227151422,"weights":{"x":-0.010802132888349128,"b":-0.1910173299724385}},"220":{"bias":-0.026991989764995734,"weights":{"x":0.15458461350628638,"b":0.011341399239745274}},"221":{"bias":0.15669753723617164,"weights":{"x":0.18117797171530578,"b":0.177004345299601}},"222":{"bias":0.08564258359702985,"weights":{"x":-0.06822465824771619,"b":-0.1520714744863918}},"223":{"bias":-0.08706461464315776,"weights":{"x":0.035194518099214006,"b":-0.1808095218306383}},"224":{"bias":-0.026482453721139276,"weights":{"x":-0.01309258507211939,"b":-0.004917302143700146}},"225":{"bias":0.06251929898299992,"weights":{"x":0.18851923221742095,"b":-0.08336049970919253}},"226":{"bias":-0.14719616764353227,"weights":{"x":-0.19096689479282042,"b":-0.12570421777124738}},"227":{"bias":-0.17766758582369935,"weights":{"x":0.008955584081454826,"b":-0.06464945108102592}},"228":{"bias":0.17926391758196933,"weights":{"x":-0.03862347001437731,"b":-0.059207231368350856}},"229":{"bias":-0.02372487424684376,"weights":{"x":-0.03127720185968881,"b":-0.005603492177553151}},"230":{"bias":-0.18047605112441467,"weights":{"x":-0.036302609005374874,"b":0.014858740856761985}},"231":{"bias":-0.18262999163831814,"weights":{"x":0.06216607863367837,"b":0.1128217479183911}},"232":{"bias":0.08462327034370752,"weights":{"x":0.12404849378737519,"b":-0.0859471005087464}},"233":{"bias":-0.19852069648043139,"weights":{"x":0.09957192023122524,"b":-0.12426823301850003}},"234":{"bias":0.018493056838486864,"weights":{"x":-0.10151878381694111,"b":-0.14047107862519023}},"235":{"bias":0.10919715596504737,"weights":{"x":-0.1560474023506052,"b":-0.07780816906923677}},"236":{"bias":0.05149308937880027,"weights":{"x":-0.11825353580976262,"b":-0.19660145665072268}},"237":{"bias":0.01896741297869268,"weights":{"x":0.09953471372397872,"b":0.1679938867965521}},"238":{"bias":0.07063689762814028,"weights":{"x":0.07050310767942958,"b":0.10981223368330992}},"239":{"bias":0.1477889584120921,"weights":{"x":0.08746479188654749,"b":-0.14191814761555516}},"240":{"bias":-0.08957137871394122,"weights":{"x":0.142662419058145,"b":-0.1915521397478872}},"241":{"bias":-0.191814331723086,"weights":{"x":-0.011420774630782584,"b":-0.16625553168919965}},"242":{"bias":0.19472809444325664,"weights":{"x":0.013499142232659675,"b":0.14620406911006414}},"243":{"bias":-0.1609421218405622,"weights":{"x":0.10945323405977858,"b":-0.01996061933428954}},"244":{"bias":-0.0513729951476888,"weights":{"x":-0.15974718698326323,"b":0.01589346860368602}},"245":{"bias":-0.1895275887219518,"weights":{"x":-0.01714751486201552,"b":0.0955878646549876}},"246":{"bias":-0.15355187560577654,"weights":{"x":-0.1294688814580701,"b":-0.15166338169506685}},"247":{"bias":0.019056620016954004,"weights":{"x":0.16632982656945158,"b":0.05395966350865089}},"248":{"bias":0.16973284537498473,"weights":{"x":-0.1543667202491949,"b":0.12212927692497419}},"249":{"bias":-0.19552023878988442,"weights":{"x":-0.04476138511604894,"b":-0.05301782542891784}},"250":{"bias":0.050436881886407076,"weights":{"x":-0.007803670381573123,"b":0.08668653468767325}},"251":{"bias":-0.02074015870348251,"weights":{"x":0.001390305519208445,"b":0.0621723449927573}},"252":{"bias":-0.10217641195430756,"weights":{"x":-0.10082554297046514,"b":0.034513179334454275}},"253":{"bias":0.1712205048172346,"weights":{"x":-0.030429460869848577,"b":-0.09543271066730838}},"254":{"bias":-0.01946190818781354,"weights":{"x":0.010515356520269997,"b":-0.15649969151922874}},"255":{"bias":0.017816113791656346,"weights":{"x":-0.05374363392965637,"b":0.11745405026195241}}},{"0":{"bias":-0.17716875182542458,"weights":{"0":-0.1740036062073501,"1":-0.04212223789955045,"2":-0.05758736689966315,"3":0.07820883008313245,"4":-0.01616705108129637,"5":0.0673899396595176,"6":0.08234087813197477,"7":0.14716988406912263,"8":-0.06120319037161974,"9":0.18282772120436758,"10":-0.1999036053881814,"11":0.09703423357410006,"12":0.17163537054788974,"13":0.1951375530501331,"14":-0.0667105998937195,"15":0.19896449943036343,"16":0.04555516393207777,"17":-0.03127401380559464,"18":-0.09591750193778986,"19":-0.06288131127098695,"20":0.006224353932159237,"21":0.03715567679021617,"22":0.19556674314772454,"23":0.04909630307194284,"24":0.19280749151991564,"25":-0.06512387067847686,"26":-0.03230339457713909,"27":0.09862140541332787,"28":-0.12358148083715974,"29":0.10677384029447422,"30":0.05681845832536271,"31":-0.1704314774697661,"32":-0.19578468151044393,"33":0.17524903967638658,"34":-0.03201018364552378,"35":-0.08578813664965114,"36":-0.14259383396824588,"37":-0.11773796460888439,"38":0.034631699522206794,"39":0.1660897106313992,"40":-0.12950737521922545,"41":-0.07651522970854921,"42":-0.04400786843351497,"43":-0.1578855561449357,"44":0.1258509928698315,"45":-0.15196930469380146,"46":-0.0191134239550934,"47":-0.1503611054731201,"48":0.000911298540662355,"49":0.13675877076196696,"50":0.0778090883262218,"51":-0.11162671114560684,"52":0.0623811385074494,"53":0.15529673581635872,"54":-0.10696548248922881,"55":-0.1025814558426939,"56":0.1210787595730812,"57":0.011565526574677881,"58":0.17974425898165317,"59":0.08028121402754226,"60":-0.11782454357608649,"61":0.046247599113985544,"62":-0.03570524590678985,"63":0.12920931360233928,"64":-0.005607682241295748,"65":0.12725550256198107,"66":0.12445636959251423,"67":0.01010299084800125,"68":0.010077371976165763,"69":-0.038495420056771645,"70":0.13275401359858538,"71":-0.16224442543160844,"72":0.19249461583387933,"73":0.1286009609980095,"74":0.058547070112868256,"75":0.001253897562912035,"76":0.13267131423291892,"77":-0.12364971881818738,"78":0.13862840582190164,"79":-0.07024255090760285,"80":0.13567939381154448,"81":-0.1965879290946158,"82":0.18943070943341397,"83":0.12131292779186971,"84":0.1913906626086757,"85":0.07736630676657835,"86":0.187594477934721,"87":0.15551567276894496,"88":-0.1586934407664495,"89":0.17949198896041593,"90":-0.08447136788142971,"91":0.06702336056594949,"92":0.18067595016402385,"93":0.14286473833234464,"94":0.12600158919051263,"95":-0.02305176328733119,"96":-0.19961672016961815,"97":0.06289244808301839,"98":-0.1659438683694796,"99":0.1893898745354134,"100":-0.1089248078448765,"101":-0.09256047842927262,"102":0.17396936119189266,"103":0.11226918981527927,"104":-0.18516366299057124,"105":-0.015501079258242359,"106":-0.10566677682452394,"107":-0.020079162928322576,"108":0.09068310695393816,"109":-0.026148943089088026,"110":-0.11328501129649542,"111":0.003564797187861096,"112":-0.0889969704904373,"113":0.18183333272704036,"114":0.1525031398054228,"115":0.05469693181139013,"116":-0.08149737496459795,"117":0.03484245935648635,"118":0.11575069372090939,"119":-0.15033096134807233,"120":0.1865237382005629,"121":-0.1543896534251275,"122":-0.10478287221369056,"123":0.1166752180483524,"124":-0.06737693534457828,"125":0.16573508965735845,"126":0.027047656933500662,"127":-0.1220621005807334,"128":0.18095924846344946,"129":-0.0881044758628342,"130":0.1617857112125384,"131":0.11907873874352755,"132":0.1675076451022809,"133":0.1397397725459184,"134":-0.11979968302125313,"135":-0.06340255379838486,"136":-0.03654911562096726,"137":-0.01921449252872983,"138":0.19129118323099045,"139":-0.10986049310672544,"140":0.03069600493912602,"141":-0.18105243544426544,"142":0.06368851241768218,"143":-0.08204023446906242,"144":0.023845813756545604,"145":0.16514430647917336,"146":0.11861899692175723,"147":-0.1885763624619439,"148":-0.18346478462703977,"149":-0.09767357494553867,"150":0.060920354258266696,"151":-0.07009104657792492,"152":0.05156578179606315,"153":-0.11733138092722004,"154":-0.059649289012534586,"155":0.08839213404418321,"156":0.08198101808155218,"157":-0.01874204200036171,"158":-0.14110135866807702,"159":0.10584176270275278,"160":0.177204884066509,"161":0.01118707959220683,"162":-0.20094407481487628,"163":0.04402874112052975,"164":0.08040641237520763,"165":-0.11062835248826994,"166":-0.19512143234911247,"167":0.12481004413487277,"168":-0.16499283919350388,"169":0.15943551430364514,"170":-0.06504636359191587,"171":0.11466687578826763,"172":-0.003434003233830337,"173":0.006404071931666508,"174":-0.022253181488434682,"175":-0.009131060933420516,"176":-0.1428200440003517,"177":0.19295230905886873,"178":-0.008454278524698893,"179":-0.025244177736130143,"180":-0.016388587159534267,"181":-0.08227056740222756,"182":-0.03357772517851531,"183":0.017803663451275435,"184":-0.12039048074837114,"185":0.0314591708671863,"186":-0.014031489455215193,"187":-0.04481873892047951,"188":-0.07305296954238079,"189":0.0773889119278666,"190":-0.08793924526920262,"191":-0.04839264835326899,"192":-0.15655378998282157,"193":-0.17125200543658453,"194":-0.15708604310580976,"195":-0.1469185796931561,"196":-0.044255227678228426,"197":0.06088331872692062,"198":-0.17913983980241321,"199":0.02400330118214985,"200":0.09595620438020726,"201":0.031013771574162838,"202":0.07740510933038096,"203":-0.019363311925583673,"204":-0.16436690076869848,"205":0.09344540413805222,"206":0.14943273321244113,"207":-0.04804425167751432,"208":0.16542465220664226,"209":0.08289460676993263,"210":0.18983342462801686,"211":0.028058667410346672,"212":0.11051026476754428,"213":0.14977841928275784,"214":-0.054143446278706056,"215":-0.0007930957034376647,"216":0.007234836569709095,"217":-0.05628198741409985,"218":0.04846840097076139,"219":0.18670952333760304,"220":-0.0686772594323738,"221":-0.01678961943231217,"222":0.10532057901582047,"223":0.19065797222219014,"224":0.09455390273353179,"225":0.0004390105955498664,"226":0.05591773524579506,"227":0.17951796043995347,"228":0.12447308381675991,"229":-0.001726238337067393,"230":0.15341050889823704,"231":-0.026877272186532256,"232":-0.07575257136147819,"233":-0.05362152046027898,"234":0.07992899750266212,"235":0.16992809287578384,"236":0.12330274912918653,"237":-0.11588305350782305,"238":0.013440518334019453,"239":0.00346607328367029,"240":0.10887837647011125,"241":-0.05488197617453449,"242":0.031594756076983005,"243":-0.13226430668191316,"244":0.18738259213432315,"245":0.19633018372465036,"246":-0.055307728349164385,"247":-0.2001734390745219,"248":0.13221529492959186,"249":-0.02384075642204096,"250":-0.15349697118086555,"251":0.06958493919351635,"252":0.18070684787118238,"253":0.002344611508289651,"254":0.10301034555064553,"255":-0.10929667371815653}},"1":{"bias":-0.05750376563825394,"weights":{"0":0.008474266441502794,"1":-0.1154385684550434,"2":-0.07178097739783627,"3":0.16845539485551583,"4":0.041905482761714206,"5":-0.1829622714590103,"6":-0.17384169159011534,"7":-0.17842347183613563,"8":0.14730287279661947,"9":-0.08762193322733577,"10":0.14683895102834002,"11":0.148342931381222,"12":-0.1655227236545863,"13":0.1896345915342776,"14":0.056365991370543767,"15":-0.0016289396590922708,"16":0.1706612216552513,"17":-0.03601651819591696,"18":-0.0754784988551329,"19":-0.07270871961472695,"20":-0.1984317916730567,"21":0.025194158223857878,"22":-0.115898897943203,"23":-0.01505374843123615,"24":-0.09758115840453263,"25":0.0820406725659408,"26":0.1650983877053343,"27":-0.19910972256588225,"28":-0.04106759194238337,"29":0.06473873192118415,"30":0.1583115448682901,"31":-0.17957041160748996,"32":-0.08009307634633163,"33":0.11216950245704835,"34":-0.049040557474496725,"35":0.0616914797325669,"36":0.05599150809554876,"37":-0.007523884820634022,"38":0.12012878075697712,"39":0.08516066527716044,"40":-0.11046206961698771,"41":-0.06220939067211424,"42":0.08823593619497279,"43":-0.11933698089717694,"44":0.09925686347226605,"45":0.14434150261965178,"46":0.13987556559172432,"47":-0.0675333564266606,"48":-0.1718325389206075,"49":0.19219394597493505,"50":-0.162551740784688,"51":0.020922650146141406,"52":-0.10175218920255634,"53":-0.07352250665219737,"54":0.09365515241172893,"55":0.08297151374454677,"56":-0.07595195912222856,"57":0.05608602446018909,"58":0.17153642786422596,"59":-0.1774742467377372,"60":0.0904078281031621,"61":-0.17900560900906595,"62":-0.08824133325900474,"63":0.1812319869047917,"64":-0.13493644245057174,"65":0.08757368993602772,"66":-0.009941332288117704,"67":0.08064129086815772,"68":0.13463287426366224,"69":-0.15088005603375476,"70":-0.11700990074514733,"71":0.023439351758106,"72":-0.16643769633428496,"73":-0.15901443020475914,"74":0.14453452857202997,"75":-0.0257934414206373,"76":0.10109580842083665,"77":0.16951609922795383,"78":0.16501146975772857,"79":-0.10082271102376159,"80":0.1737471716833391,"81":0.18718680264738208,"82":-0.07801153974022185,"83":0.1738440483245039,"84":-0.1260453616954591,"85":0.06651519600268868,"86":-0.07243857137966005,"87":0.010956049640862067,"88":-0.043450669267758625,"89":0.13849298138343832,"90":0.1563167457903717,"91":-0.16356894355198176,"92":0.1536631485526477,"93":0.15855516297153838,"94":0.047437470028597835,"95":-0.011960611701358653,"96":-0.19934332142445732,"97":-0.03625122136029588,"98":0.017423395127804938,"99":-0.19849672090591347,"100":-0.019164962871555124,"101":0.07904441729497927,"102":-0.031401797840083547,"103":-0.10102484228876685,"104":0.0798136872188075,"105":0.09451796686113349,"106":0.08989796324336523,"107":-0.13291798672007532,"108":0.06652066242401314,"109":-0.12369179699499448,"110":-0.1984848483570512,"111":0.06369777716237009,"112":-0.08959973662156706,"113":0.0040468152438774135,"114":0.0772307559573654,"115":0.0781636838222457,"116":-0.014744669417859027,"117":0.11663833048320325,"118":-0.17075658386086248,"119":0.05796878194557225,"120":-0.17377436827676415,"121":0.17607459940229173,"122":0.06854728510977005,"123":0.10499284100166399,"124":0.12767164542187207,"125":-0.05121934470422121,"126":0.0961093008323619,"127":0.1527110578001111,"128":-0.0782445356481354,"129":-0.1318416977006565,"130":0.07057479523497828,"131":0.07681014684289245,"132":-0.052263894853035786,"133":-0.12919200585723223,"134":-0.08652778961658888,"135":-0.19520910072610853,"136":0.18293965379677354,"137":-0.0943705459954142,"138":0.19663208579643865,"139":0.1759485366956699,"140":-0.16027981234939878,"141":0.02572183562237343,"142":-0.19882061196886205,"143":-0.04712050387294899,"144":0.01588334824829729,"145":0.05754866852806673,"146":0.033469637693244805,"147":-0.1255844281690905,"148":0.05461000878391468,"149":-0.17700471752147418,"150":0.04738604345605872,"151":0.015787054000076475,"152":0.16165080004390245,"153":-0.1481259057470772,"154":-0.05952342010610418,"155":-0.03568578625398325,"156":-0.03914755092085866,"157":-0.10426357383727188,"158":0.16997997120001923,"159":-0.004198978307073401,"160":0.023369401988347468,"161":-0.005926957362252029,"162":0.023592383246011296,"163":0.032548067491528866,"164":-0.1310189837053018,"165":0.08516942135389854,"166":-0.06800220649508701,"167":0.09211427932783481,"168":-0.18345564206966014,"169":0.04494492625007291,"170":-0.1803298852581537,"171":-0.16440669226068436,"172":-0.018102583075773823,"173":-0.1409186089763612,"174":0.16247804260555213,"175":0.06276891920943457,"176":-0.05788610189740011,"177":0.11120667929939176,"178":0.15815707417578223,"179":0.1758252955431357,"180":-0.11596306218597506,"181":-0.11445172226030886,"182":-0.1275956625552421,"183":-0.15374262540172387,"184":-0.004861935887002184,"185":0.07733753723777609,"186":-0.05870154801405456,"187":-0.053557126914775995,"188":0.06937368694113435,"189":0.169782557824713,"190":-0.06014103240285405,"191":0.07757400516223835,"192":-0.1194604121225605,"193":-0.032454425738072626,"194":-0.0733129914028415,"195":-0.16350292861628277,"196":-0.036871158742358405,"197":0.13414370398110487,"198":-0.007353527551195935,"199":-0.13384781550284786,"200":0.06537226973099632,"201":0.013989452014287366,"202":-0.03804358105993,"203":-0.03513429284926376,"204":0.04930705243416871,"205":0.016708373689218875,"206":-0.14427317969944312,"207":0.03999474932919647,"208":0.13899176120111548,"209":-0.07469216245813573,"210":0.15346877735148595,"211":0.09750510456155549,"212":-0.10765662542101471,"213":-0.08139133859144553,"214":0.10879914768820016,"215":0.014538986103524517,"216":-0.07626869557017686,"217":-0.13274088522541738,"218":0.08482664822401714,"219":0.06832922147150189,"220":0.09813380591041364,"221":0.02666201886143209,"222":-0.09971720736239015,"223":-0.0855267224578878,"224":-0.1602972545332315,"225":-0.004292259570803296,"226":0.058782278265339584,"227":0.0048248249479871975,"228":0.014989973507669823,"229":-0.14376209777286525,"230":-0.15298853929204959,"231":-0.17748260696312076,"232":0.13815867711874444,"233":0.1920270863430674,"234":0.024611632080766745,"235":-0.04500438750194121,"236":-0.07775682319338202,"237":-0.0007071006850289575,"238":0.11819508231405546,"239":0.07448438093625841,"240":-0.11532220902810707,"241":-0.1850273429375267,"242":-0.15727028516651992,"243":0.1830928175641944,"244":0.015921879453499,"245":0.0322702137442688,"246":0.027626575551801043,"247":0.09422348081755293,"248":-0.06875598035509474,"249":0.13173935733466016,"250":0.15403298151234834,"251":-0.07943360317388322,"252":-0.09054334377851359,"253":0.06212267313897628,"254":-0.19383720711491872,"255":0.10453303815623625}},"2":{"bias":-0.011547986315811557,"weights":{"0":-0.1276140147798973,"1":0.11928041112678707,"2":0.12534138339305537,"3":0.08215009285138732,"4":-0.13412187838328066,"5":0.10586547379397505,"6":0.11315410780920465,"7":-0.030252964537747028,"8":0.01599668295691051,"9":0.09750394982857769,"10":-0.16746819146134095,"11":0.038974013344519505,"12":0.10121425212376238,"13":0.03438729706091327,"14":0.17054161511417798,"15":0.06954502090135527,"16":-0.09216221737284049,"17":0.0322090237068117,"18":0.03483866448803203,"19":-0.18709968915153022,"20":0.15614950047093346,"21":0.1747674597916075,"22":-0.05988103247965638,"23":-0.17360463168136195,"24":-0.1638577411653111,"25":-0.11597335811012487,"26":0.0303949477389129,"27":-0.09388854635500017,"28":0.11898087486835521,"29":-0.16735113339126467,"30":0.09275871894375132,"31":0.120948097895212,"32":-0.15215074554731245,"33":0.05180075303922839,"34":-0.026209169966194403,"35":0.027029765965376748,"36":0.16556642551501524,"37":0.02166422643226753,"38":-0.19089068166539175,"39":-0.13161939401998257,"40":0.06116558331670671,"41":0.05443278262214283,"42":0.07091371170290525,"43":0.09744823069329409,"44":0.021180421784612356,"45":-0.1638427468416224,"46":-0.14412881586409762,"47":0.19868965867048177,"48":-0.04088086681767464,"49":-0.15142699582656363,"50":-0.08192736468574849,"51":-0.026389294853265775,"52":0.026613184713611755,"53":0.0496031980119139,"54":-0.1751414819411147,"55":-0.05601719577915447,"56":-0.11795381606637215,"57":-0.1542778432337082,"58":-0.07217856192053039,"59":0.16808850915731477,"60":-0.12641549963323198,"61":0.17196086617327538,"62":0.16639901310329785,"63":0.19530818354773374,"64":-0.028066917044988062,"65":-0.15845858454707537,"66":0.09863726230568028,"67":-0.06806570625620016,"68":-0.18460924678634635,"69":-0.0023161805494323665,"70":0.11489291951182276,"71":-0.18275504624318786,"72":-0.17426528399659097,"73":-0.026416564787376966,"74":0.15439773046929237,"75":-0.08712735278682159,"76":0.15029644047704738,"77":-0.06610114009291315,"78":0.1636850843424141,"79":-0.17674427348026675,"80":-0.13699266395207338,"81":-0.112016574832943,"82":0.09049048822553062,"83":0.023876513247040813,"84":-0.04877724127925973,"85":-0.03936869053686497,"86":0.03364178546723876,"87":-0.19254627447083436,"88":-0.07477838279130727,"89":0.11016812113798323,"90":-0.002221033310973867,"91":0.10538691938525399,"92":0.15058184050340984,"93":-0.08994025866299046,"94":0.15722015649759707,"95":0.08212287242743328,"96":-0.16544566184079773,"97":0.10500314227865913,"98":0.12329009254419994,"99":-0.04502962755184549,"100":0.1901474751324174,"101":-0.15159331995622824,"102":0.153458866043014,"103":0.11650013676631289,"104":0.003032656516679244,"105":0.06289064912592182,"106":-0.010878487166543147,"107":-0.08832760093996071,"108":0.006906573382316802,"109":0.19192257605211607,"110":-0.16373607456743977,"111":0.07644140869316188,"112":-0.09507966383543309,"113":-0.004564256605808636,"114":-0.10472722747467453,"115":-0.10707729030900251,"116":0.08387202753366656,"117":-0.14841325174967784,"118":0.18368189476065905,"119":0.20059676504409188,"120":0.08055956850561787,"121":0.06903840569773961,"122":0.073850174690451,"123":0.045898710076922616,"124":-0.1473011175912039,"125":0.1716976746070841,"126":-0.09724375076688607,"127":-0.036777132685323295,"128":-0.05251372051963182,"129":-0.188128870741212,"130":-0.06020854739898425,"131":-0.033048084544398976,"132":-0.07492339583651884,"133":-0.07588408557925116,"134":0.04882626684037192,"135":0.024805262864743344,"136":0.10905536011020445,"137":-0.0835913092044702,"138":-0.1246902589282445,"139":-0.009750222824149014,"140":0.09104276842714833,"141":0.04773632132687118,"142":-0.05450682400837858,"143":0.1432788708137503,"144":-0.1398990509362611,"145":0.03009793259082181,"146":0.16830849536690398,"147":-0.17757644951415721,"148":-0.11936109584646186,"149":0.006533505627360452,"150":0.18141431337245884,"151":-0.1337658294132499,"152":-0.16333593626141638,"153":0.007292844133179827,"154":-0.0037383019745095593,"155":0.10324454764355673,"156":-0.16423841942140568,"157":0.005211244189731622,"158":0.12600360020124224,"159":0.07294423057909709,"160":0.10118355865639476,"161":0.08354022190703458,"162":0.19436911364992054,"163":-0.011459033364466848,"164":0.19248804497771552,"165":-0.020908924369663764,"166":-0.16827816163843165,"167":0.060105731018775255,"168":0.02796650527969793,"169":0.10341091797938815,"170":0.05802576944344604,"171":-0.06266136263464472,"172":0.06154474989725929,"173":0.11457187126526103,"174":0.08899863116396595,"175":-0.1458434599126664,"176":0.07415033010380266,"177":0.15037105514801857,"178":-0.13391907913333753,"179":0.06696278051083385,"180":-0.08731259716472592,"181":-0.109287472003328,"182":0.01749487794882752,"183":0.09778910342987818,"184":0.07409326638331443,"185":0.042371312150330125,"186":-0.04334993473860547,"187":-0.1797811557376309,"188":-0.09846883633185644,"189":0.029919709725937667,"190":0.1309004461807544,"191":-0.13562277563994524,"192":0.016934908159611236,"193":-0.07891157419480689,"194":0.012358837541009433,"195":-0.14596001510439566,"196":0.1440504435681143,"197":-0.16844470076422638,"198":0.04425292740089423,"199":-0.005812958896820391,"200":0.1619370103244354,"201":0.04918524680322894,"202":-0.15695809707035766,"203":0.1475826686550001,"204":0.14328283626408667,"205":0.1716313343306002,"206":-0.19815910476100168,"207":-0.04891794723624622,"208":0.041607931774813,"209":-0.16065714398124165,"210":0.038265753742121884,"211":0.10191534487633364,"212":0.1421595326561676,"213":0.09084094513832008,"214":0.05709494078470146,"215":0.13227834371324607,"216":0.020719549984250386,"217":-0.049109317627224175,"218":0.16866899161974985,"219":-0.08737983353173244,"220":-0.010935404808307892,"221":0.05557917340819391,"222":0.1975487122951591,"223":-0.161818365560506,"224":0.0763856972259888,"225":0.005393086156046691,"226":0.16036210593405195,"227":-0.05246147907198117,"228":-0.11639777160074066,"229":-0.09416650381871708,"230":-0.06280148510685296,"231":-0.037140339488471535,"232":-0.1817007895050736,"233":0.03926216608151595,"234":0.13930486448561136,"235":0.19375193120855863,"236":-0.11608645380947731,"237":0.09925421765289652,"238":-0.08869906655460846,"239":0.09975778582237305,"240":0.1796604448542692,"241":0.15606077955442213,"242":-0.164036871715906,"243":0.14060100247512525,"244":-0.05218640879238922,"245":0.007844598363932004,"246":0.10660461163480361,"247":0.07458196663820009,"248":0.17157298999605947,"249":0.06919494756448513,"250":0.18759376375813497,"251":0.1228268517626726,"252":0.10342485288968739,"253":-0.06256378712371798,"254":0.1234417897626229,"255":0.062498588559959975}},"3":{"bias":0.08133523822430105,"weights":{"0":-0.0655527776988746,"1":-0.10668697307450146,"2":-0.11378904684944542,"3":-0.04916570322697831,"4":-0.08912331686357916,"5":0.16609054705037885,"6":0.09443626250294984,"7":-0.09324396313676343,"8":-0.11590068637280047,"9":0.18250909155239617,"10":0.06229409034310876,"11":0.10496910281014896,"12":-0.17766111111490882,"13":0.06340119818264074,"14":-0.11867905915587078,"15":0.015332662605319613,"16":-0.12194959951609123,"17":-0.07267351904229406,"18":-0.08526983354318388,"19":0.03488054422594146,"20":0.029801644443085175,"21":0.17487086290456796,"22":0.11708426169815088,"23":-0.1016672157704459,"24":-0.09813410981185239,"25":-0.13332957156872216,"26":0.19847554353772118,"27":-0.025389091143567293,"28":-0.010227177354173339,"29":0.19076002715515017,"30":-0.1512274100536728,"31":0.010108829786393768,"32":-0.049246082802308314,"33":-0.0961502654300852,"34":-0.020017358368890997,"35":0.0756620725607041,"36":0.09764871012095204,"37":0.17010854473323436,"38":-0.032305215251320095,"39":0.09780064811116365,"40":0.17820248078335144,"41":0.15940208165518194,"42":0.17590087170049415,"43":0.020600964625868322,"44":-0.17251500872492703,"45":-0.021578376914481535,"46":0.08308455842729086,"47":0.03178770595390011,"48":0.15431966493525184,"49":0.0030550754403246678,"50":0.019726827892365826,"51":0.025205383394823686,"52":-0.16720851892645897,"53":-0.1564634142746958,"54":-0.04964460947223161,"55":-0.13314728986297672,"56":-0.09822657995210797,"57":-0.08426426647520176,"58":0.0847067213956614,"59":-0.02328119217686959,"60":0.07463837543102417,"61":-0.11421240622961382,"62":0.04250669903088574,"63":0.011274309789532328,"64":-0.09176265504575742,"65":-0.05258921712567763,"66":-0.0008664643251857911,"67":0.0034444122615206896,"68":0.11656607164992733,"69":0.10425821930293537,"70":-0.12283083733229852,"71":0.12659464935630513,"72":-0.012458432587641666,"73":0.11966338285610996,"74":0.10273041261703718,"75":-0.14747594851009072,"76":0.1560502701397361,"77":0.07233048294383634,"78":-0.14150535422708937,"79":-0.16757828256627263,"80":-0.14185441127092538,"81":0.10781065206960747,"82":0.04674152371779207,"83":0.003405379289151449,"84":-0.13088944720280865,"85":0.07051325102006552,"86":0.08848860862493128,"87":-0.11072574436523772,"88":0.12415568889538828,"89":0.018621935329873593,"90":-0.16569380834583358,"91":-0.020072130359749443,"92":-0.19583953434957985,"93":0.07459290783998902,"94":0.11634859590423118,"95":-0.13948643756213036,"96":-0.06231284633686812,"97":-0.1963862988312539,"98":0.0034566316403978987,"99":0.0727016238150673,"100":-0.1122196249891879,"101":-0.17581892196089308,"102":-0.021262075749236962,"103":0.14992817113079235,"104":-0.06737633052868269,"105":-0.197799125258893,"106":-0.11492071813454896,"107":-0.02127809973366318,"108":0.05542713317553966,"109":0.14301975320794266,"110":0.15852624892035044,"111":-0.007607061864707548,"112":0.07530889454503488,"113":-0.0364804224669244,"114":0.13217337421519224,"115":-0.08149792001831944,"116":-0.04374581000922782,"117":0.14078612030993995,"118":-0.05730074838747929,"119":-0.12723549199645554,"120":0.18758212185542197,"121":0.05280330791744508,"122":0.06832688362941315,"123":0.0419397055242063,"124":0.09422061562587321,"125":-0.17772709119719057,"126":0.17559468355550564,"127":-0.17257062556161773,"128":-0.17811220327443686,"129":0.10499626400647083,"130":-0.13067643741946924,"131":-0.019070525957259374,"132":-0.07193615623757554,"133":0.15793821026141208,"134":0.14370095194200486,"135":0.10965266221268044,"136":0.15329223116382384,"137":0.12314234000912648,"138":0.1410708476744853,"139":-0.03736759208603263,"140":-0.051383001054895516,"141":0.01722231785546245,"142":-0.03812407288601824,"143":0.1597309927695796,"144":-0.15171630221586052,"145":0.06531548046202448,"146":0.07623592549238757,"147":0.09082530565380342,"148":-0.060258083505993515,"149":-0.16337964959062637,"150":-0.13518010254581303,"151":0.17174335129985385,"152":-0.15493936525432103,"153":-0.19245770514308222,"154":0.10329749710442973,"155":0.19430162680291335,"156":0.12026340917878361,"157":-0.08597625394314118,"158":-0.029629814917657038,"159":0.132946628849641,"160":-0.09084695632659394,"161":-0.11547417757866996,"162":-0.1462678642733251,"163":0.035779952706947234,"164":0.19303652296108498,"165":0.059088424723730035,"166":0.07231714235749277,"167":-0.043360550082008904,"168":-0.07344559064962927,"169":0.16399109165811593,"170":-0.1403689217313288,"171":-0.15763339768397988,"172":0.00025624079453597214,"173":-0.13471801801560143,"174":0.013614853250505765,"175":-0.1993787501685671,"176":-0.00005355425377709428,"177":-0.12524960317726347,"178":-0.1195493114361227,"179":0.19878994008708478,"180":-0.12792306519754543,"181":0.15481013910828173,"182":0.14971385037051965,"183":0.14084959441128475,"184":-0.06293956654944961,"185":-0.10683370650193522,"186":-0.07308727490461402,"187":-0.14620641386005376,"188":-0.12341870678643613,"189":0.12120979261645899,"190":-0.17341348242340676,"191":-0.17024154482610715,"192":0.06248281765966712,"193":0.13090901033564922,"194":-0.09169366463281195,"195":0.1895093478179892,"196":-0.10722715704218724,"197":0.014827497297677345,"198":0.05627364837330498,"199":-0.04528691535914684,"200":0.19818381922551787,"201":0.0786311244786122,"202":-0.0848023637654991,"203":-0.004628663926864349,"204":-0.08072018958757243,"205":-0.0759017399892453,"206":0.09040331431030971,"207":0.13429851429968254,"208":-0.027980445906213444,"209":0.060758264641612665,"210":-0.1627511782298564,"211":0.16077043706710414,"212":0.13338491915018744,"213":-0.03532247693710541,"214":-0.05285927391954658,"215":-0.1564151020800302,"216":0.025203353840135494,"217":-0.15756842466086035,"218":-0.0009239540634409885,"219":0.03598279197500057,"220":-0.11283631654390806,"221":-0.17676550477633138,"222":0.0650235877147002,"223":0.18608427794679772,"224":-0.018797504534942094,"225":-0.14513838060569353,"226":-0.0445143141725212,"227":-0.13222052632048956,"228":0.14013835025659468,"229":0.10277884319244998,"230":-0.18351698931508212,"231":-0.17570630470695145,"232":-0.052913239688413445,"233":0.13792580134833496,"234":0.0717616445114263,"235":0.1643144281175551,"236":0.08762593492782599,"237":0.05914295846485933,"238":-0.06244647182942117,"239":0.08650613843944172,"240":0.16610879035945958,"241":-0.03631823126343763,"242":-0.15531053634582834,"243":-0.030099653771662137,"244":-0.056691264088716116,"245":-0.06195474282448822,"246":0.1492818937586148,"247":0.12303310308332904,"248":0.026167039255120372,"249":-0.020883304314711776,"250":0.03702332925744784,"251":0.036308857238784104,"252":-0.10401225074737178,"253":0.06618307425281433,"254":-0.027262513938512152,"255":0.1769983480992567}},"4":{"bias":-0.11196813334887028,"weights":{"0":-0.1562265415392105,"1":0.05492379882088243,"2":-0.1047074261703461,"3":0.04983087713991219,"4":0.13392028528708838,"5":-0.0839299893578349,"6":0.1540910419744356,"7":0.06484367697550933,"8":-0.04608454712821337,"9":-0.17807900582810735,"10":-0.059564235505520514,"11":-0.17192155650283938,"12":0.17613228562329122,"13":-0.15713972216326869,"14":-0.01994474117429258,"15":0.07257077805303166,"16":-0.03206431341944793,"17":0.13160124797915881,"18":-0.03617103064309079,"19":0.07175373361754135,"20":0.12978009153670808,"21":0.1786588043904019,"22":-0.17437409346166755,"23":-0.11467690591686039,"24":0.0793020280235686,"25":-0.06187452422560985,"26":-0.12728825184318066,"27":0.02714433641585802,"28":-0.10311192776544932,"29":0.11224111366960221,"30":-0.12553937761625808,"31":0.20232775658569785,"32":0.17425509728795255,"33":0.14938537176757372,"34":0.04210135403690493,"35":0.006712757585794097,"36":-0.08727487071635834,"37":-0.09174244160024052,"38":-0.15516359081520878,"39":-0.03538927586769966,"40":0.0876651787651794,"41":-0.1663331934548353,"42":-0.0006114287524913142,"43":-0.09246085793207012,"44":0.027920596227342106,"45":-0.020277210426646607,"46":-0.04844920815159689,"47":-0.12974653811366635,"48":0.09944387598780327,"49":0.042269762886395675,"50":0.13477994126081488,"51":-0.04025971597456965,"52":0.18539859807710773,"53":-0.1725339121527363,"54":-0.022627628365695814,"55":0.07433428845573233,"56":-0.02947103532286262,"57":0.03567121897514153,"58":-0.06024864141377754,"59":0.0907176306816152,"60":0.15580602466790283,"61":-0.09283100370248058,"62":-0.07729699388908487,"63":0.18660929179477082,"64":0.14130184085016828,"65":-0.08914703484851196,"66":-0.12982174226276907,"67":0.061461781053850764,"68":-0.014911869934138944,"69":-0.18370375048064588,"70":-0.17995673995156775,"71":0.12672766465955632,"72":0.18113035929090754,"73":0.08605125938179932,"74":-0.04120610921600364,"75":0.15469398441816684,"76":-0.006531487551480385,"77":0.041962682307981024,"78":0.18356122880343992,"79":0.17238567860104798,"80":-0.1476828443020395,"81":-0.07256936769915344,"82":0.0602191704876112,"83":0.032050982017254974,"84":-0.18038669987759268,"85":-0.1176515257759291,"86":0.1367730337292003,"87":-0.16484882389150737,"88":0.03505802972126016,"89":0.12659675803651094,"90":-0.1829633132347943,"91":0.12253628596563998,"92":0.13865739466318616,"93":-0.12982971145227512,"94":-0.021935587252384023,"95":-0.056414155219329555,"96":0.04346511272557208,"97":-0.1251802858729091,"98":-0.1653121249656574,"99":0.051272519769213876,"100":0.04164162346223951,"101":0.01883144131193242,"102":0.1419539939711623,"103":0.0373163109094849,"104":-0.08858299374576066,"105":-0.1794075795340148,"106":0.09100140405147807,"107":-0.1716835397699244,"108":-0.1169002258918218,"109":-0.17902560720461233,"110":-0.06855684447453093,"111":0.14141088835000698,"112":0.09115152788935836,"113":0.14369494898740878,"114":0.10044871292196768,"115":-0.04428686346205925,"116":-0.10874341879221658,"117":-0.1127578575420411,"118":-0.12850894079458072,"119":-0.1245678402252283,"120":0.13806916669646277,"121":-0.00034594673282657126,"122":0.15498574207063004,"123":0.05918390216931222,"124":0.1226916539860765,"125":-0.008012319642432505,"126":0.13531195754436404,"127":0.18445721504116325,"128":0.02464121757279204,"129":0.1805449232221676,"130":0.12166567445014449,"131":-0.10410738881214718,"132":0.15986645589514442,"133":-0.17354142552197016,"134":-0.12584032425679442,"135":-0.003907254517758509,"136":-0.17958837122152246,"137":-0.057363208041850404,"138":-0.0319479937719361,"139":-0.10692192873038471,"140":-0.0908870525153688,"141":-0.0709065626398632,"142":-0.026235494203089918,"143":0.15795619242448114,"144":0.14166841755662307,"145":0.04026941897682385,"146":0.10439645555879636,"147":0.10865998086180637,"148":0.059194685582007925,"149":-0.1276346620387472,"150":0.02140388988408891,"151":0.029642107736591546,"152":-0.07629755439730528,"153":0.02081821389589045,"154":0.059380202705320934,"155":-0.13291961030087213,"156":0.13568210789076476,"157":-0.1556887837481548,"158":0.03834552344106108,"159":-0.13835303368820373,"160":0.13843779980846652,"161":0.0765100383257095,"162":-0.19461127881031465,"163":-0.08834581605444392,"164":-0.08201514664230106,"165":-0.025645312048496998,"166":0.1071430731148975,"167":0.16861967396785668,"168":0.09018633004100542,"169":0.10093128522442735,"170":0.004484056250212293,"171":-0.10646010491572785,"172":-0.11983606549750236,"173":-0.17732656008772224,"174":-0.1564799049469161,"175":0.1928352396317243,"176":-0.15072435598120018,"177":-0.08047379882563549,"178":-0.030223784087279618,"179":-0.0950657234585926,"180":0.16068121813269548,"181":-0.011959435966857024,"182":0.10064154224489402,"183":0.011219898632033374,"184":0.08543298383731117,"185":-0.023110365977912405,"186":-0.005336168757072109,"187":-0.1952704060219172,"188":0.16917471481836577,"189":0.0020316834066306734,"190":0.16459406856973374,"191":0.07156605903505006,"192":-0.09201598225837869,"193":-0.14988945621564992,"194":-0.18109044785257572,"195":-0.10866561215848501,"196":-0.06209204694380564,"197":-0.08285021312973197,"198":-0.021741818477602537,"199":-0.07735977526355774,"200":0.11288470121413251,"201":0.009479208142258347,"202":-0.08476844212988183,"203":0.18933997189297655,"204":0.13110598610913635,"205":0.043179690414232426,"206":-0.041144548450670525,"207":0.07786761189811847,"208":0.09593010571445808,"209":0.07171932357219853,"210":0.12343165401781421,"211":0.13106957149347817,"212":0.021450995029423887,"213":0.04565621144988911,"214":-0.09049389030602825,"215":-0.09430832612316165,"216":0.11621445488105658,"217":-0.07954326666692649,"218":0.18311748583395854,"219":0.13066913491696783,"220":0.1563651370878947,"221":0.09307368321347013,"222":-0.016358190459714195,"223":0.14584805181707475,"224":-0.18985584187962037,"225":0.15857792037768317,"226":-0.16536230355148646,"227":0.012564058426741628,"228":0.14260601005884135,"229":0.1640128963811234,"230":0.06964109952529517,"231":0.022958492404795784,"232":0.12995265408847448,"233":-0.06578060426774983,"234":0.09711065712283087,"235":0.1636377662083142,"236":0.1085253312422859,"237":0.11722070675685561,"238":0.15599150119353963,"239":-0.10999330300214946,"240":-0.16371236909825548,"241":-0.016093847171131322,"242":-0.0014826381133323761,"243":0.010444213105053033,"244":-0.029854003877879027,"245":-0.1626051336535742,"246":0.053090452742265204,"247":0.1856192916150863,"248":0.03199998979519848,"249":0.10580582461521518,"250":0.12575977154838713,"251":0.16202752373089713,"252":0.18983699233018797,"253":-0.1525290213582554,"254":0.19373366549046367,"255":-0.04062422164871469}},"5":{"bias":0.11496611177840532,"weights":{"0":-0.18806049668699243,"1":-0.1593978724463448,"2":-0.07334028906532622,"3":0.19777042035534576,"4":-0.15900559409307233,"5":-0.1329986220791073,"6":-0.0011770367969859486,"7":0.15769169884942427,"8":0.09933909285243393,"9":0.12313729276059195,"10":0.18400723028007288,"11":-0.0642985116354167,"12":0.09905135997416002,"13":0.08863922062878944,"14":0.19935771037938566,"15":-0.09939162765936194,"16":-0.10357272703652878,"17":-0.1290528502720729,"18":0.1818130096432377,"19":0.04874817586305206,"20":-0.14915032950051366,"21":-0.17502297903235806,"22":0.012149841938832942,"23":0.01724100393112349,"24":-0.06898206479146919,"25":0.1356360046361616,"26":0.11194783740001892,"27":-0.11607639137468032,"28":-0.18001697418294887,"29":0.19283289799610678,"30":-0.117829392641272,"31":-0.04913442792710823,"32":0.11688437297979412,"33":-0.12293552477863116,"34":0.19830539802020697,"35":0.13764976052325514,"36":-0.11315230726527482,"37":0.004354653255920941,"38":-0.11786134702180723,"39":-0.048223415937550244,"40":0.07452327485636724,"41":0.050293094742364375,"42":0.12620249690146398,"43":0.19514199651457392,"44":0.06795853410176779,"45":-0.16481337082032438,"46":-0.006594304345043149,"47":-0.010972578871275849,"48":0.027714510768483754,"49":-0.11947575366822877,"50":0.019192237830886548,"51":0.017159554321247047,"52":-0.15442566139877187,"53":-0.043318013966421785,"54":0.1037059137415999,"55":0.1291362480078457,"56":-0.13078725377282405,"57":-0.19626842302606923,"58":0.1581139061802126,"59":0.1653897398390134,"60":0.14340525717615157,"61":0.1324234770553175,"62":-0.06088980405780219,"63":0.1520177647032102,"64":-0.07426763544964282,"65":-0.11054666907295194,"66":-0.11490576825838865,"67":-0.027869164173993054,"68":-0.06366509883286407,"69":0.171773446786035,"70":-0.190347278699031,"71":0.045875161438595324,"72":0.06975380281612661,"73":-0.08893114932754594,"74":-0.11567847698669088,"75":0.0013419232623150769,"76":0.19080014026857015,"77":0.0726899937826257,"78":-0.0044971546550631285,"79":0.1417330077760407,"80":-0.08404409245040724,"81":0.16120210346722932,"82":-0.16408186792546228,"83":0.1638965037389505,"84":0.1942085707519823,"85":0.028613362823869566,"86":0.10681102959499307,"87":0.17023394655834442,"88":0.02605169054663019,"89":0.07629525011922876,"90":-0.004750936067682686,"91":0.03909234914731034,"92":0.17086776100300008,"93":-0.07748055320835809,"94":0.13048125552550352,"95":0.1991062334907544,"96":0.10364003794078397,"97":-0.16726121952416312,"98":-0.012867118900184644,"99":-0.053436482523120825,"100":-0.08259661585073863,"101":-0.1294688724900969,"102":-0.1577175816618919,"103":0.014418507144852342,"104":-0.059391890397986924,"105":-0.04715880343065543,"106":-0.01541382176742065,"107":-0.11583501058451204,"108":-0.12873623964540354,"109":0.1270199567814744,"110":-0.15730166311317426,"111":0.0884054736471712,"112":0.16040506570723662,"113":-0.005544622796521794,"114":-0.11633674413953914,"115":-0.12923086720003443,"116":-0.14882827767092982,"117":0.1688806269451123,"118":-0.04511917080868412,"119":0.12216954190369933,"120":0.017537383805459293,"121":-0.045820205664305225,"122":-0.1747525360500833,"123":-0.011123315496095892,"124":0.1754972887912111,"125":-0.03901671398671494,"126":0.06762430241664368,"127":0.139515448125443,"128":0.12097293622118596,"129":0.09764788034918137,"130":-0.005634549891398998,"131":0.11195771078112286,"132":0.018653679674156046,"133":-0.09123189794599616,"134":0.14495709437548843,"135":0.050910612581506774,"136":-0.058833852338134894,"137":-0.11668457541310653,"138":0.0227449575294086,"139":0.012416438004875326,"140":0.04428648263543384,"141":0.07629350466550318,"142":-0.07789024117401751,"143":-0.08869876301067948,"144":0.1779645371753878,"145":0.023270802651625212,"146":-0.10104221464431362,"147":0.077781497722667,"148":-0.14363638545981544,"149":0.14905195401964144,"150":-0.051946092775284246,"151":0.0024251773744698142,"152":0.18651756250622284,"153":0.18536324207671284,"154":0.06695678129700967,"155":0.04118153518037256,"156":-0.04742393326873569,"157":-0.16487108374791348,"158":0.1359457020432381,"159":-0.028858807302251974,"160":0.04450488582343491,"161":-0.10004193845662875,"162":0.08272225044723162,"163":-0.1645063488692573,"164":-0.0684548909959202,"165":0.028671225604998064,"166":-0.17086122008925092,"167":-0.07659082501852305,"168":-0.055783099919855354,"169":-0.0051705966171963266,"170":0.18504717369948032,"171":0.07199302089340803,"172":0.16858581988384388,"173":-0.10685245325359244,"174":0.10300611667982663,"175":0.1754956898350769,"176":0.119299054856756,"177":-0.1128363770143865,"178":-0.1893325204731067,"179":0.06762233557896467,"180":0.015769068350744427,"181":-0.0004160180150233075,"182":-0.17105970195181947,"183":0.19789773294638827,"184":0.11622970973745961,"185":-0.13860027388707385,"186":-0.08411308824674466,"187":0.10923709484565493,"188":-0.017274572238267078,"189":-0.15547713610115024,"190":0.17160708280182513,"191":0.1323703368211173,"192":0.011664091735862258,"193":-0.12048545607735509,"194":0.006364954593026505,"195":0.152141135289751,"196":0.1678734022695642,"197":-0.056433664490420275,"198":-0.09625765548587292,"199":-0.08617098314917708,"200":0.16981048713839667,"201":0.05757599162472035,"202":0.19149556420612915,"203":-0.06960884342058926,"204":-0.12150985364462023,"205":-0.1670710356532608,"206":0.12848720143435657,"207":-0.19416268852101065,"208":-0.14304923381579102,"209":0.061908176589172206,"210":0.17284545357802686,"211":-0.03775792495008911,"212":0.14291339289128366,"213":0.080987521349407,"214":0.19733581921592452,"215":0.06936512037976912,"216":-0.07395020625384464,"217":-0.021535862269867482,"218":-0.015370416076226912,"219":0.05746571157264258,"220":0.04762288304876875,"221":0.11086103848060293,"222":0.18670428226361435,"223":0.0681928145521275,"224":0.021053653595181927,"225":-0.17252026550361285,"226":-0.11961243996443059,"227":0.150243773007476,"228":0.19587851010188578,"229":0.05108944123949379,"230":0.01152052483084114,"231":-0.12926604115271964,"232":0.1352101348671336,"233":0.1169999151104118,"234":-0.14381248379462833,"235":0.1379968785113792,"236":-0.061298148941381546,"237":-0.1461927719653159,"238":0.1509239715592,"239":0.1144411926927061,"240":-0.0722889512711537,"241":0.048559408497345136,"242":0.13327332172124226,"243":0.14299919757806348,"244":-0.019124944059623585,"245":-0.19561449896117553,"246":-0.12669397041852912,"247":-0.017804852249289994,"248":-0.14518844560979835,"249":0.056407155590676925,"250":-0.1587033781691336,"251":0.14637242777728163,"252":0.011049421871223321,"253":0.026859839817759835,"254":0.043448430998717334,"255":-0.17358466929227692}},"6":{"bias":0.15852569048353662,"weights":{"0":-0.04993204607246994,"1":0.10383891780306795,"2":-0.08995167997983712,"3":-0.15305766334042942,"4":-0.09413209507263091,"5":0.17747587156448869,"6":0.03708508451773255,"7":0.13497651039672898,"8":0.11806485239205265,"9":-0.039848746641281754,"10":-0.15477057080153425,"11":0.03573874575890292,"12":0.15721734780287927,"13":-0.11097772974298863,"14":0.003627768337027247,"15":0.07665200231168831,"16":-0.0035648427662609288,"17":0.18412946384671156,"18":0.1934381444847317,"19":-0.09568411474859093,"20":0.04800284773136419,"21":-0.1929730973532263,"22":-0.06515222485918619,"23":-0.08430393899674742,"24":0.16388504875948404,"25":0.16941285714047127,"26":-0.1269906238061958,"27":-0.0617033925395304,"28":-0.1704901970152029,"29":-0.05662321659010396,"30":0.060920433647899654,"31":-0.18004491020307917,"32":0.05965454930304253,"33":0.18351074813445784,"34":-0.14120060398654735,"35":-0.036141756321245604,"36":-0.032227150828674764,"37":-0.02227144176412667,"38":0.0957666320609765,"39":0.004759735385980076,"40":-0.06240983932673277,"41":-0.036323799430295435,"42":-0.1352300419687796,"43":0.11128652049035331,"44":0.19348749740197188,"45":-0.04562495510100072,"46":-0.00291732792393391,"47":-0.12334610304676248,"48":-0.04327638088529139,"49":0.17198972234153667,"50":-0.013890219280974803,"51":-0.17482588660877885,"52":0.1646216316142511,"53":0.1240150273176369,"54":-0.17428125242754752,"55":0.04193410393334563,"56":-0.017921568361070388,"57":-0.027244802518965442,"58":0.16372156199904397,"59":-0.006640804846590276,"60":0.14289683581215748,"61":0.08227825599897468,"62":-0.06481985552103482,"63":-0.12483138778424475,"64":-0.19483555395479477,"65":0.012103959282135177,"66":0.07997368320672103,"67":0.05755461235505882,"68":0.10165853778623388,"69":-0.0728016576074444,"70":-0.11612532178640185,"71":0.06826753052558139,"72":-0.07682558785277822,"73":-0.11025333863595604,"74":0.04277300343733194,"75":-0.03496244035512599,"76":-0.14051635825404327,"77":-0.05097367063738046,"78":0.16773092090845057,"79":0.03332539571742012,"80":-0.12721227580808314,"81":-0.06285417274127116,"82":0.026735712715393413,"83":-0.08195178387609683,"84":-0.09957562914797835,"85":-0.08535226471057826,"86":0.1831179353415906,"87":-0.001029430901342664,"88":-0.026376626782372414,"89":-0.027291079089743254,"90":-0.13934092398420578,"91":0.007679847919132564,"92":0.00983889388618395,"93":0.15237903347926926,"94":0.12361875460719574,"95":-0.08022202048325924,"96":0.01550038343080883,"97":-0.19620325987788423,"98":0.1606266144125468,"99":-0.03208198110721475,"100":-0.11809107546590697,"101":0.11466514924981872,"102":-0.1332034985554211,"103":-0.05502083778647373,"104":-0.19711030533059562,"105":-0.1685110798045274,"106":0.11674482962994344,"107":-0.09672528829009767,"108":0.18274125453601556,"109":-0.192121888143773,"110":-0.046410934998520816,"111":0.05553027682318197,"112":0.182870453600239,"113":0.04557609986970927,"114":0.16496056592389366,"115":0.13940445233696463,"116":0.1680321734608198,"117":0.07959249756759382,"118":-0.1605139349229009,"119":-0.10074517291922709,"120":0.20228308357577177,"121":0.08713653008402056,"122":0.1680090744920223,"123":-0.1922427507316633,"124":-0.14835742609430355,"125":-0.054322193828253804,"126":0.00894568721475447,"127":0.1528012551510531,"128":0.15447574431834468,"129":0.013062391252903609,"130":0.018986192340448092,"131":0.04476320940308588,"132":0.10825403648508464,"133":-0.16503457875950883,"134":0.07047207476331938,"135":0.13975940538881126,"136":-0.19251060706812687,"137":-0.17490411961324864,"138":-0.0316156624087979,"139":-0.12125181794613013,"140":-0.07443613383077641,"141":-0.14666195970793247,"142":-0.10927074595170254,"143":0.021292248464584343,"144":-0.112466682505647,"145":-0.16559593930698402,"146":-0.1340289462007423,"147":0.022916375469252733,"148":0.048067890815171925,"149":-0.061048866996640166,"150":-0.161114493005636,"151":0.07436406001996616,"152":-0.11251645665158978,"153":-0.1754323803467855,"154":0.008854873396846284,"155":0.1448239097108937,"156":-0.14356228030854784,"157":0.04846954065659673,"158":0.11096664505652797,"159":-0.18120171930948947,"160":0.1356091821895962,"161":0.15614585389866392,"162":0.18397465525653778,"163":0.10244172301347339,"164":-0.08816201718545909,"165":0.18678433424763857,"166":0.0497759171744399,"167":-0.18213126811852837,"168":0.09195245513795429,"169":0.1225643810623546,"170":0.10267321677404057,"171":0.17744240580438353,"172":0.09587490206724275,"173":-0.14343017572031735,"174":-0.07730591076460004,"175":0.08873020163592434,"176":-0.09115157318360473,"177":0.05734424303957638,"178":0.07153540232984529,"179":0.030091302042707695,"180":-0.019746441807720304,"181":0.09459258233175659,"182":0.14853655197744492,"183":0.04217597373197886,"184":0.13945716706432143,"185":-0.1402457013382254,"186":0.09528121520581215,"187":-0.1781324430347955,"188":0.0965357917900124,"189":-0.08319070739870682,"190":0.09539493217224532,"191":-0.08947269702033905,"192":0.10345289002836172,"193":0.005102000154106761,"194":-0.1645837088546339,"195":0.026922631608132075,"196":-0.10382704557561637,"197":0.014916733471404004,"198":0.08638848776966926,"199":0.03106663147864132,"200":-0.03834036353157508,"201":-0.16494260968116253,"202":0.08005782520774023,"203":-0.12884229317354673,"204":-0.049533289169052405,"205":-0.05877622174976024,"206":-0.011284486447108038,"207":0.13334496906887944,"208":-0.07829689111107781,"209":-0.1919798042568682,"210":-0.020888862657412785,"211":0.06006766786299347,"212":-0.05816210310384447,"213":-0.09277110816085776,"214":-0.1507799126729371,"215":-0.17904646054337983,"216":-0.14449181213644965,"217":-0.058655549795359266,"218":0.07863097428545097,"219":-0.04954727981218089,"220":0.060334983946530356,"221":-0.04505656416259315,"222":-0.001999158962796087,"223":0.152597333149033,"224":0.012076214483534168,"225":0.07754121725177365,"226":0.17585137488308641,"227":-0.18586306051606985,"228":0.08795986941567703,"229":-0.06337472075151138,"230":0.12893177519780194,"231":0.14477257088187231,"232":-0.018136335998320548,"233":-0.008914150603121774,"234":0.1187550529706,"235":0.0068333750379625125,"236":0.022232124341222275,"237":0.05536800344578004,"238":0.11448229493938725,"239":0.06180061634836166,"240":0.05983656749273254,"241":-0.15760347200024447,"242":0.16582337812913825,"243":0.02578825855336092,"244":0.09681250551091199,"245":-0.1230454228933681,"246":0.06574178405397935,"247":-0.18951129237728534,"248":0.019527943100998136,"249":-0.004483913141194527,"250":-0.19555597894530127,"251":-0.05934426648506803,"252":0.04419641272465702,"253":0.1178949355247711,"254":0.08945273338982063,"255":0.1523693528639784}},"7":{"bias":-0.1751608612769656,"weights":{"0":-0.14266992672421458,"1":-0.09414183983376886,"2":-0.14202813215940416,"3":-0.057511700093917525,"4":-0.12435017117692342,"5":-0.1110961254582564,"6":0.1698316084885656,"7":0.1770944397050685,"8":0.01143152277826002,"9":0.2003712212985186,"10":-0.16202524822163702,"11":0.16435843691152274,"12":-0.125064288209096,"13":-0.03328423823636562,"14":0.02273609488399618,"15":0.092857779049353,"16":-0.13037341333963212,"17":-0.06369423576605378,"18":0.12562709344932405,"19":0.10469352353654776,"20":0.10333418985218817,"21":-0.035358763691857496,"22":-0.155536029626783,"23":-0.1190979018963982,"24":-0.1423367146519464,"25":-0.10049998457074945,"26":0.13986488350635834,"27":0.016968779032405356,"28":0.10945185337991417,"29":-0.1065586076403834,"30":0.04167711992874312,"31":0.12028390328090603,"32":0.16389697475048345,"33":0.13521931537986595,"34":0.01051893388301017,"35":-0.1342703324673467,"36":-0.1491921920809449,"37":-0.08591355929081108,"38":-0.03966184517491864,"39":-0.03545012065006676,"40":-0.01607311332063199,"41":0.010867295860614122,"42":0.1613897049428827,"43":0.16087622981478475,"44":0.1204625495189488,"45":0.01700772088147936,"46":-0.11480229111794184,"47":-0.03112528929778824,"48":0.02865810493990052,"49":-0.043026526239713155,"50":0.16487369009911437,"51":-0.04720092227498637,"52":-0.04867290870406757,"53":0.11869571240695924,"54":0.05781718337359272,"55":0.052130427593247756,"56":0.17830792163317258,"57":-0.015523894586696528,"58":-0.02734532319381814,"59":0.008016553698517254,"60":-0.047244113440410684,"61":0.15799042936667992,"62":0.12975591131409414,"63":0.02214978301698503,"64":-0.07628412460557484,"65":0.05806637132367532,"66":0.11552524320103248,"67":-0.18308291361601414,"68":-0.0781341320945226,"69":0.061679235728183485,"70":-0.1961691249460745,"71":0.023716869983750475,"72":-0.16102359268358607,"73":0.14692053880160869,"74":0.07913930442365598,"75":0.011661283677948626,"76":-0.07592828760957393,"77":0.0364164936130324,"78":0.041166340879366374,"79":0.020431866658591393,"80":0.04770065135951048,"81":0.17625471043516552,"82":0.017454626250636998,"83":-0.019266016534182733,"84":0.19282980624125576,"85":0.06035609306428923,"86":-0.037197766656115,"87":-0.0650238826942156,"88":0.13280662121017114,"89":0.13783325717508135,"90":0.11892096750030823,"91":-0.04436880183228593,"92":0.15648074678666266,"93":0.03892064182067412,"94":-0.05126512518447405,"95":0.150770363334673,"96":-0.10950559438899024,"97":-0.07794984499559665,"98":0.013755186596803493,"99":0.10133728151028612,"100":0.1432916345873872,"101":0.1503603539199082,"102":0.05435498570791678,"103":-0.1726630922966057,"104":-0.05052241017522654,"105":-0.17353965614589212,"106":-0.0400289663670422,"107":0.05277817245450862,"108":0.007039714786259149,"109":0.18730454026209023,"110":0.005800911609002368,"111":-0.1418556461265868,"112":0.16622014785660474,"113":0.046294650067225586,"114":-0.0723371234868392,"115":-0.14799900895252854,"116":0.0679344610613735,"117":-0.05516164491972418,"118":-0.14621270184873777,"119":0.16162476413337099,"120":-0.0015141869360440242,"121":-0.13696054105996514,"122":-0.035563129615579406,"123":0.11674066642483683,"124":-0.11498335660020959,"125":0.12581623160674638,"126":0.06940330852292019,"127":0.07052827779308854,"128":0.029025242319090015,"129":0.16943810518531247,"130":-0.19161828439349715,"131":0.0062924804151150366,"132":-0.003379263676528831,"133":0.18410415714453074,"134":0.17053785129086593,"135":-0.11519461613300602,"136":-0.06739055678261983,"137":-0.009873443164274059,"138":-0.10814165477343742,"139":0.1629088441566039,"140":0.1479221306841583,"141":-0.08848049870483743,"142":0.003486058879664477,"143":0.028403016236267176,"144":-0.07646818028244627,"145":-0.13430277485710235,"146":-0.15772814349729883,"147":-0.15016983955000346,"148":0.17767766981668348,"149":-0.18335345634568243,"150":0.07452208092266914,"151":0.05107011639929894,"152":0.13462642648829604,"153":-0.11700430638934753,"154":-0.053857310386617264,"155":0.030221396246478124,"156":0.10218794776423136,"157":-0.017884702538844176,"158":-0.12561768146851596,"159":-0.04446362792492436,"160":-0.041154256053819886,"161":-0.12349010000989294,"162":-0.018342233418762236,"163":-0.13813513555409057,"164":-0.06466488262337958,"165":-0.004322956154189211,"166":0.03687516501126452,"167":0.038330294249863325,"168":-0.10955930766574043,"169":0.03849204281434498,"170":0.15960231307319,"171":-0.06839933598394447,"172":0.1734773181091889,"173":0.011023187335476229,"174":-0.04070317676814748,"175":0.12953761483972717,"176":-0.1532203243328055,"177":0.19901592611428412,"178":0.11234156428173385,"179":-0.012626737327145332,"180":-0.152680153604398,"181":-0.0686410486489261,"182":-0.1916147720467428,"183":0.18238077485620346,"184":0.0017288809631665636,"185":0.054600257109349334,"186":-0.17188393617027464,"187":-0.16553318508881074,"188":0.11305292455098938,"189":-0.12159382722583292,"190":0.18543673927576004,"191":-0.047665231474353205,"192":-0.16810482913295158,"193":-0.05394260874129627,"194":0.02090156692684344,"195":-0.12026130640567753,"196":0.15064340727128403,"197":-0.027406068589064483,"198":-0.018432952043039207,"199":-0.07968370676397306,"200":0.008591237428525581,"201":-0.16656195150928246,"202":-0.1458115150744222,"203":0.07542249199380689,"204":-0.03417297453509086,"205":-0.10971568137326938,"206":-0.15514247297358605,"207":0.07602772002400818,"208":-0.07644275160072776,"209":-0.065967736952753,"210":0.13942906918578943,"211":-0.16886509738756886,"212":0.12888597063707924,"213":-0.06493636085519101,"214":-0.1322553136257637,"215":-0.0014136871383092992,"216":0.18857634823022776,"217":0.18215182368150015,"218":-0.14515431564975964,"219":0.026660445363584057,"220":-0.10463793103472342,"221":0.06431911960722748,"222":-0.1942851284228723,"223":0.04762878832334232,"224":0.013413742166135617,"225":0.02407779384399343,"226":0.024835266517946365,"227":-0.05376167397327074,"228":0.06992340923164071,"229":-0.01884739666138749,"230":-0.1506047573171256,"231":0.15631331330926218,"232":0.11325172079653109,"233":0.08008595262712603,"234":-0.10836461362197972,"235":-0.12293767081515185,"236":-0.08909807993754837,"237":0.06060219241418413,"238":0.006926989149768072,"239":-0.15167340898132917,"240":0.16149761004120358,"241":-0.031515716223587786,"242":0.020636834539006256,"243":-0.16501327566487559,"244":0.04191762680688746,"245":-0.14426721096042117,"246":-0.03179273898899018,"247":0.019509163302655667,"248":-0.08997448460198076,"249":0.10392289190423364,"250":-0.05978296762438378,"251":-0.12949998667403412,"252":0.014150803020876785,"253":0.17801673568776033,"254":0.017132173262905503,"255":0.19622854837435874}},"8":{"bias":-0.18343154669566264,"weights":{"0":-0.00868794037846374,"1":0.05616863382669035,"2":0.19750656280467316,"3":0.08949561819036644,"4":0.027468149326595172,"5":-0.09960953727444194,"6":-0.06273927346843827,"7":-0.031497240169249346,"8":-0.03860171219874363,"9":0.08716288839771272,"10":-0.13507412835022625,"11":-0.06515880612977844,"12":0.13268908834051368,"13":-0.0003024887271993867,"14":-0.014032221059642887,"15":-0.010629658021367281,"16":-0.0828942326617647,"17":-0.027210794416524766,"18":0.03908253748915141,"19":-0.19027846238704865,"20":0.09401677539126754,"21":-0.19384144606176484,"22":-0.10686499511448388,"23":-0.1312530232928764,"24":0.14357316316973526,"25":0.08335085762056302,"26":-0.08946437234866367,"27":-0.1375958915423022,"28":0.1976576443225396,"29":0.17041963916941028,"30":-0.028127379279771606,"31":-0.18331116569554332,"32":-0.1478032261770961,"33":0.028128446734578493,"34":0.09689801418018766,"35":0.19974422503879452,"36":0.12486392098522636,"37":0.18246296800880357,"38":-0.052524098999913366,"39":0.02019874249428806,"40":0.0554103977734333,"41":0.03725053239653229,"42":-0.08914523193678622,"43":-0.026709914803208102,"44":-0.09160970688812292,"45":-0.03453507986859635,"46":-0.04919288201695346,"47":0.1509548045703836,"48":-0.16233724503826363,"49":0.0531659558512899,"50":-0.19164198127715193,"51":-0.15004024510053474,"52":-0.15406400418140878,"53":-0.14787205142741067,"54":-0.11707445853563958,"55":-0.11014891957431383,"56":-0.1343292861411003,"57":-0.08303533773642484,"58":-0.12946331780241227,"59":-0.0009215376757402521,"60":-0.013453639936833855,"61":0.016585712812433196,"62":-0.17366447923063716,"63":0.1567189402017136,"64":-0.0899322045947357,"65":0.02245644261572559,"66":-0.05272569559242112,"67":-0.1919822030097617,"68":0.12648652305290067,"69":0.17751763695140385,"70":-0.19588939790357748,"71":0.1117306911132464,"72":-0.10166693591615458,"73":-0.15090809333474636,"74":0.004051348010519306,"75":-0.10076653392075377,"76":0.10129973203572956,"77":-0.17115206440171973,"78":-0.05001420641408678,"79":0.03584407077359682,"80":-0.12119779608908474,"81":0.13103264789397692,"82":0.16048213067518788,"83":-0.08928501751138324,"84":0.1956283652725162,"85":-0.10845497922223091,"86":-0.04828403097854418,"87":0.02855661561985518,"88":0.19601088341103087,"89":0.12534927092114193,"90":-0.16430912857858798,"91":0.11446297463281443,"92":0.19020269727904135,"93":-0.08791368319485442,"94":-0.11327850679451427,"95":0.09954077865921186,"96":0.11721026515437395,"97":-0.1326552346976909,"98":0.12687400363210394,"99":0.18134868919987615,"100":0.08633853522094284,"101":-0.17276783608352683,"102":-0.11474744732071478,"103":-0.18391020979491138,"104":0.051217557076874906,"105":0.14977194880926176,"106":-0.05306838282426272,"107":0.05027317397514115,"108":0.07704357140919506,"109":0.17847677649838684,"110":-0.13837764167286135,"111":-0.07733231469627234,"112":-0.1401017507181478,"113":-0.1795230612123261,"114":0.06538017834729257,"115":0.13277629227232382,"116":0.17641069909140025,"117":0.05863913083836826,"118":0.0730558077652683,"119":0.19806152466372748,"120":0.1569761920533855,"121":-0.16729635083118916,"122":-0.06376757696305434,"123":0.06445989799254917,"124":-0.11509953986516822,"125":-0.055767219341704755,"126":-0.08566435915562773,"127":0.032247640083016615,"128":-0.05234530947826919,"129":-0.028535034502521168,"130":0.07998035834538873,"131":0.1454614555106526,"132":0.06358187328083127,"133":0.11460439883430372,"134":-0.09769367690069151,"135":-0.07197210506370653,"136":-0.07255666912690338,"137":-0.14655575444848115,"138":-0.013053802580657579,"139":0.03371524330488237,"140":0.10213651689058202,"141":-0.1340687715655478,"142":0.08822968191258056,"143":0.14820659601906624,"144":-0.15828149143721465,"145":-0.09228905562930204,"146":0.17575278353621962,"147":-0.030109450765472615,"148":-0.019925224743542115,"149":-0.1168354598353112,"150":0.05485567002329568,"151":0.06726489331366939,"152":-0.17389465423153777,"153":0.1472465005176948,"154":-0.025418992795702443,"155":-0.009950848847203984,"156":-0.1459441280778139,"157":0.014105883131519345,"158":-0.031024605335758387,"159":-0.1389711935432564,"160":0.027892081509224925,"161":-0.0561152573670556,"162":0.20188717903499676,"163":-0.16146032850033384,"164":-0.17056806235341523,"165":-0.018654242588202256,"166":-0.10761243364639096,"167":-0.15140577460784468,"168":-0.013573816891495631,"169":0.048780482258576265,"170":0.030262084023099274,"171":0.1622418703413092,"172":-0.006440500282610289,"173":0.011078409677154562,"174":0.0787028662379916,"175":0.09221325632952146,"176":0.1668509734399135,"177":0.1035866234331477,"178":-0.19139822739312445,"179":0.0809845484389329,"180":0.051504612499106615,"181":0.009854142880318006,"182":0.12762344079699164,"183":0.13130672745473002,"184":-0.05251897461588354,"185":-0.14260776700799224,"186":-0.060130703121846873,"187":0.18108111605856458,"188":0.13040001957910144,"189":-0.07763026567646894,"190":-0.12189170853409369,"191":0.01871815101404968,"192":0.18802691282111111,"193":0.08725846168840641,"194":-0.04160498719818554,"195":0.02618813680318239,"196":-0.12369312371261315,"197":0.17182465623455023,"198":-0.01769158520717455,"199":0.013179200867061619,"200":-0.023444879646931545,"201":0.005504736436866746,"202":0.019434747440498893,"203":-0.18793362147470574,"204":0.1360569846353472,"205":-0.07146098702903979,"206":0.000711264589619218,"207":-0.03543650970750507,"208":-0.0478234433998165,"209":-0.008486357438993586,"210":0.12261091081048954,"211":-0.13178869823416525,"212":-0.17371382399978885,"213":-0.13803913616442048,"214":0.16101074122554582,"215":-0.05978637696538489,"216":0.024791202908611622,"217":0.11593108109887718,"218":-0.039988195422510045,"219":0.1180776106437734,"220":0.009394063538064035,"221":-0.19497100029122907,"222":0.07402506819485759,"223":-0.18879904604698178,"224":-0.16666531804139725,"225":-0.1198269065454884,"226":0.058267516192100195,"227":0.04115629755410945,"228":0.08049159255380371,"229":-0.10343036459412432,"230":0.17920870621128146,"231":-0.0782760356212789,"232":0.09400642882905196,"233":-0.14992704056886258,"234":-0.03581899914299773,"235":-0.09623926873682598,"236":0.16973574059280763,"237":0.18059060311151706,"238":-0.1727198133730107,"239":0.09215149956506732,"240":-0.04077988898557176,"241":-0.14856829091107263,"242":-0.03587936404052518,"243":0.06973372024556197,"244":0.021955619657443585,"245":0.03178492539139037,"246":0.18592132575203849,"247":0.013417748127083916,"248":0.051556260590447156,"249":-0.041620031749566494,"250":0.09902503298103316,"251":-0.08354626928738834,"252":0.16052889140546808,"253":0.06409959032542786,"254":0.11191469037659554,"255":-0.040584071010455754}},"9":{"bias":-0.16511756156309496,"weights":{"0":0.0923787382919156,"1":0.11478181590141681,"2":0.1536367937517425,"3":0.19700917933960224,"4":0.16234355782270896,"5":-0.02714050416391811,"6":-0.15026631982995214,"7":-0.134228907362504,"8":0.14615323784479828,"9":-0.16836273996683382,"10":0.1103318501951485,"11":0.14792260523913525,"12":-0.1977005633801753,"13":-0.07524718611782374,"14":0.06168686560833279,"15":0.03186282735826675,"16":-0.19540213315108576,"17":0.1778826837554464,"18":-0.19646382645692315,"19":-0.025148917738316602,"20":-0.18571481375541019,"21":-0.18710785901346674,"22":-0.072090704679882,"23":0.16679522582370077,"24":-0.02256189433320518,"25":-0.1862546506523854,"26":-0.18014080112171924,"27":-0.16704559401750493,"28":-0.06096391085998573,"29":-0.18589108770598908,"30":-0.05167169440339677,"31":-0.045988268362156706,"32":0.11399016260349597,"33":0.11733785772098593,"34":0.009380742685834305,"35":-0.08149271171870077,"36":-0.09094253735821152,"37":-0.07877069285400244,"38":0.01662681366980981,"39":-0.05904249470181485,"40":0.14662569047909757,"41":0.12354584478804227,"42":0.1681100324824354,"43":0.013479669332309525,"44":0.0038544931074647555,"45":0.03992218496556284,"46":-0.023699580775689007,"47":-0.006321911279367372,"48":0.11285828750655034,"49":0.1819678972940333,"50":0.029348701472234475,"51":0.11185217885170745,"52":0.13841727285444252,"53":-0.03714373042090257,"54":0.15036699827557906,"55":-0.07908118553113476,"56":-0.14920316358063038,"57":-0.044612938392275044,"58":-0.08283977607949251,"59":0.09041874824469646,"60":-0.006824490381122351,"61":0.07516242534692623,"62":0.0893984599823296,"63":0.03094253937205279,"64":-0.17933645952427,"65":0.1709769325636844,"66":-0.07322867527728807,"67":0.020950877161098287,"68":0.12946983146775576,"69":-0.15045668829472383,"70":-0.025128858861082223,"71":0.16824255964437232,"72":0.1925321619143151,"73":-0.005108992662542626,"74":0.1437414440420976,"75":0.10874753592630006,"76":0.09231138634304463,"77":0.06694876037993915,"78":-0.10350176718657289,"79":0.16610723623411458,"80":-0.1691111076081334,"81":-0.05679103864351018,"82":0.0797560809149742,"83":-0.16768239533056134,"84":-0.11022506872258446,"85":0.009105551362405543,"86":-0.07578480194821886,"87":0.027672080940519175,"88":-0.15851340427148422,"89":-0.041365091355476884,"90":0.11277965915200315,"91":0.19766068193164285,"92":0.06339118293349258,"93":0.10677132022831816,"94":0.10456484273988582,"95":0.0067219417499876635,"96":-0.05753074613693825,"97":-0.1307946427143368,"98":-0.17567345929131847,"99":-0.04205580940307405,"100":-0.09384210087722702,"101":-0.11781572229523324,"102":0.09607674943052501,"103":-0.04201067082043565,"104":-0.0011657165482953705,"105":0.13026686474683039,"106":0.0519237704540387,"107":-0.17770511997013388,"108":-0.031115172919629456,"109":-0.08196170334556666,"110":0.0349649448786489,"111":0.10416580876851395,"112":-0.18990007124436037,"113":0.03839865698880723,"114":-0.10776022465586864,"115":0.07603406127787422,"116":0.06057559973526909,"117":-0.025380945725135374,"118":-0.055230751977286045,"119":-0.04271013973596698,"120":0.0897511783311301,"121":0.18528721389594077,"122":-0.007710692427082737,"123":-0.01953218492845725,"124":0.03098186146269331,"125":0.08444442707748892,"126":-0.15866734823800052,"127":-0.058672881405590155,"128":0.12552319353460187,"129":-0.0836604098786247,"130":-0.1750789415753949,"131":-0.03369059946279603,"132":-0.022942476047141513,"133":0.07802562400753059,"134":-0.027475574717309964,"135":-0.04022053718210376,"136":0.16001711792269147,"137":-0.11708692598146826,"138":-0.1261405648932956,"139":0.011648752805974065,"140":0.1531790234988681,"141":0.06837399184022827,"142":-0.028146225732752526,"143":0.008624806980550999,"144":-0.18954226049268713,"145":0.12835461282510544,"146":-0.1214798939405611,"147":0.18190400202577284,"148":0.03149048923279095,"149":-0.13967433468853382,"150":-0.14954213844651656,"151":0.07835291215855086,"152":0.16287339332173464,"153":0.03750899388167985,"154":0.014630762327334275,"155":0.0184682219850867,"156":0.01516151587602341,"157":-0.1332253883980992,"158":-0.14083342179170427,"159":0.1631941321904117,"160":-0.11657679009607314,"161":0.08709195015457348,"162":0.20028182821168702,"163":0.16669908011128165,"164":-0.16542693808590545,"165":-0.01769840982854859,"166":0.19507972641373433,"167":0.07930704900918269,"168":-0.17053897239624943,"169":-0.0340074675282698,"170":0.11389006873981754,"171":-0.1664603265027193,"172":0.09556553520237861,"173":0.030899719327227286,"174":-0.033045349713141825,"175":0.09472623119720548,"176":-0.014551782547744233,"177":-0.1673736026329741,"178":0.06317471917468027,"179":0.029612214398045338,"180":-0.12499568623392138,"181":0.14199588386324963,"182":0.04519185621335834,"183":0.19100487948884137,"184":-0.1537616457869764,"185":0.19447552945596658,"186":-0.09843123884536314,"187":-0.18927335612227472,"188":-0.17292500542516367,"189":-0.1673312750283698,"190":-0.030488936876730145,"191":-0.0489595485291667,"192":-0.08007094933466659,"193":0.1593699026141603,"194":0.19956783584212492,"195":-0.08590483870548372,"196":-0.05382115314121537,"197":-0.19679715655731073,"198":0.08039681939810672,"199":0.16531521813321434,"200":-0.03626940492975182,"201":0.0519337264044569,"202":0.13140628132480375,"203":-0.1406170636487883,"204":-0.048267606417894626,"205":0.12624664683750514,"206":-0.16027037489074553,"207":0.08649719608104565,"208":-0.021280266626108706,"209":-0.009641730612680567,"210":0.13661174114854288,"211":-0.07059240985591295,"212":-0.08815384943511953,"213":-0.07645857535160512,"214":-0.16279688398357486,"215":0.05879673416510906,"216":-0.020190610085224953,"217":0.060931940888854584,"218":0.07169579086635677,"219":-0.05019599201988227,"220":-0.08222682353522939,"221":-0.07048821689372838,"222":0.08025061510312759,"223":0.18184581355213947,"224":-0.05109726037255676,"225":0.0675676495919583,"226":-0.15498860949733412,"227":0.13365095010466732,"228":-0.18562720763962004,"229":-0.09220494346316228,"230":0.1060296003591471,"231":-0.15835566314969873,"232":-0.1040643435025576,"233":0.1502010999052336,"234":0.08478121652953415,"235":-0.008666762018905178,"236":-0.0017784504239867556,"237":0.17309789128002112,"238":-0.1883623295815325,"239":0.010288272571629394,"240":0.13206275574748255,"241":-0.03342456670076067,"242":-0.1436395083894271,"243":-0.1171396759256161,"244":0.07332133270059059,"245":-0.056290043012866206,"246":0.12882262383352366,"247":-0.17180948445059702,"248":-0.11845275827321358,"249":-0.09619287830191174,"250":0.05123360949255764,"251":0.1300017629207389,"252":0.031567450046469096,"253":0.09057584933643907,"254":0.08107417951972362,"255":0.06457499002097956}},"10":{"bias":-0.08401213762610885,"weights":{"0":-0.16645207303366155,"1":0.1858110078237148,"2":-0.06705559167820838,"3":-0.08723457829073518,"4":-0.11284838857293471,"5":-0.16593465713177086,"6":-0.12839610818632255,"7":-0.01090597809050798,"8":-0.03271209300941586,"9":-0.14986810789768207,"10":-0.13243172815841145,"11":-0.07152065552168313,"12":-0.09906782599058317,"13":-0.1912577824748744,"14":0.13958868544343098,"15":0.12367015604290027,"16":-0.09463996658002773,"17":-0.05136139524143974,"18":-0.15246251378301717,"19":0.10621696821328677,"20":-0.0008807757061612696,"21":0.1866756475583594,"22":0.0032054646753241047,"23":0.005345864547915969,"24":0.1729028978809681,"25":0.17335324804276778,"26":-0.10037623917719848,"27":-0.16112149560834613,"28":-0.13229293888524768,"29":-0.11427085905061433,"30":0.14519226973513685,"31":0.2019223054210721,"32":0.08430843600419269,"33":0.08203618617981007,"34":-0.009045279439231339,"35":0.03431453445016246,"36":-0.03275698063455889,"37":-0.12542517274281356,"38":0.10418910194390421,"39":-0.15717092202032584,"40":-0.1396232664991959,"41":0.12807416224044857,"42":0.1849431560446187,"43":-0.12263079359756122,"44":0.18539346137266344,"45":0.18847275746008324,"46":0.12247527483614028,"47":0.09374585119604613,"48":0.19778874356012277,"49":-0.17196052779771376,"50":-0.08090215147063308,"51":-0.03185707837382463,"52":0.04417664863121633,"53":-0.15797785233150788,"54":0.04628800702753581,"55":-0.08017810541949262,"56":-0.17261439439171455,"57":0.18137300299745956,"58":0.14728502429100188,"59":0.13601320474376827,"60":0.0735765781585208,"61":0.16571008299335524,"62":-0.1311189620661144,"63":0.0056246343192582725,"64":0.09727705714863163,"65":-0.039524987489088816,"66":0.20069147272597943,"67":0.036141589093808775,"68":0.17835365238003043,"69":-0.1619781170750317,"70":0.047599260365108344,"71":-0.1276418808232127,"72":-0.12969457223333405,"73":0.19713567527042936,"74":0.057496945003028176,"75":-0.005626978399504432,"76":-0.04712978326216154,"77":0.08079602976856115,"78":-0.14293230012820227,"79":-0.035424184058011676,"80":0.055720590087706315,"81":-0.14084795652277846,"82":-0.030404452078580797,"83":-0.17049495960426186,"84":0.03024137069911263,"85":0.1273471775069193,"86":0.14624265587425045,"87":-0.09951980131671145,"88":0.12465694119963602,"89":-0.14433607908478419,"90":0.03174653614526085,"91":0.15283902316087258,"92":-0.040399738613290936,"93":-0.11750882619508873,"94":-0.010952414927640881,"95":0.19795503843340137,"96":-0.053682208601511364,"97":-0.13039545274045922,"98":0.04495054857792117,"99":0.019162791764101527,"100":-0.14635207188060978,"101":0.1832242766126061,"102":0.007910275346072337,"103":-0.0333093384152835,"104":0.1904795689090416,"105":-0.0351803700179466,"106":-0.13870023541819598,"107":0.12143592707004021,"108":-0.16675195582601116,"109":-0.0038800768369263035,"110":-0.11732387107811607,"111":-0.1468784563204081,"112":-0.08912086282810397,"113":0.1273522140391122,"114":-0.055507640150059566,"115":0.1497898094329691,"116":0.1413516173510076,"117":-0.16738567808795163,"118":0.12370755044038345,"119":0.1647005501112153,"120":0.08321719159958145,"121":-0.14687560787522314,"122":0.19562828852093941,"123":-0.06371925485587893,"124":-0.08448741622518254,"125":-0.024153059471784658,"126":-0.05417077103496309,"127":-0.08085917742173708,"128":0.0011497622324607231,"129":-0.07891506870448525,"130":-0.10475058594287855,"131":-0.19500476679151618,"132":0.14106824416683805,"133":-0.18533383753340638,"134":0.17696297921992893,"135":-0.024272203671168013,"136":0.0961851014904106,"137":-0.020209965087171367,"138":-0.0723698150272632,"139":0.1156995484383803,"140":-0.049617703029230124,"141":0.040465773042342876,"142":0.1163422328701725,"143":-0.11620046448073787,"144":-0.18220909183252743,"145":-0.03929003156903592,"146":-0.05608134206309223,"147":-0.1371230252416699,"148":-0.08695637466176623,"149":-0.03136924685107654,"150":0.16387660798582462,"151":0.0717510268477477,"152":-0.16161650157711158,"153":0.2004369843966116,"154":0.1303353883554685,"155":-0.012360490153069958,"156":0.033876408730663214,"157":-0.16658838623309602,"158":0.20031047231003468,"159":0.0670461409776362,"160":0.10489110148805378,"161":-0.08642279255351787,"162":-0.0038776792350661213,"163":0.19261771678316858,"164":-0.005590446462243607,"165":0.0900094006323233,"166":0.1516595236334501,"167":0.035938052030841,"168":0.05130844408420267,"169":-0.10244617854663736,"170":0.08262126675081792,"171":-0.11685807150170884,"172":-0.08501131715601909,"173":-0.05276724819714115,"174":0.07318359937556591,"175":0.08046387571811205,"176":-0.047933344107018806,"177":-0.026030408993263077,"178":-0.02120680964340288,"179":0.17978539143394318,"180":-0.177798128249519,"181":-0.13754913976049563,"182":0.1269027988047843,"183":0.08972167998787821,"184":-0.10592588442172372,"185":0.1698889578198869,"186":-0.14883672696627764,"187":-0.14110140102153684,"188":-0.12311746637870187,"189":-0.15664361507584848,"190":-0.04631736062493763,"191":0.05977324718682572,"192":0.19472329791301687,"193":-0.045323109505162065,"194":-0.08173879368653522,"195":-0.045434567164351417,"196":0.09708156633624028,"197":0.001961800388541488,"198":0.18734451677290298,"199":0.1078478176828757,"200":0.08102410928338309,"201":-0.19504475175656358,"202":-0.17514117550093874,"203":0.0867517679117217,"204":0.049286758324618284,"205":0.1520271290225158,"206":0.1956367116210685,"207":0.015285229964745592,"208":-0.1055134166195195,"209":-0.18410270084600802,"210":0.1094774789820676,"211":-0.04185288379358904,"212":-0.12746561830381667,"213":0.18727747775242434,"214":0.09568211511699579,"215":0.14770939671885894,"216":0.17771011044571505,"217":-0.04877150259445441,"218":0.060675258563113954,"219":-0.012882719984388604,"220":0.013429041832774049,"221":0.14459020129899072,"222":0.18516740624864314,"223":-0.04033367756748941,"224":0.20216746286607595,"225":0.10316925326953899,"226":0.09202472192532311,"227":0.18884081255111976,"228":0.08431020439584015,"229":-0.009871626845914744,"230":0.10847634473758229,"231":0.10165660059522084,"232":0.021703894744118463,"233":0.12100446002049514,"234":-0.16728353669140572,"235":0.0383566068653986,"236":-0.03798444300747896,"237":-0.06710009395829698,"238":-0.10491034371709611,"239":0.1429694796712465,"240":-0.046846663057952743,"241":-0.13990492034728166,"242":-0.1010755484049969,"243":0.057820706171725744,"244":-0.022537713711198868,"245":-0.1692066493247214,"246":0.09232873605171289,"247":0.07744551961087083,"248":-0.11438265322371807,"249":0.13031577123484955,"250":0.16673635618486513,"251":-0.09720735299274263,"252":-0.01687762365087744,"253":-0.11023037122064497,"254":0.15793952540586573,"255":-0.1328251859310819}},"11":{"bias":-0.15710444391362413,"weights":{"0":0.0857963590964536,"1":-0.1371236696597621,"2":-0.13673465691117356,"3":0.14154885015749347,"4":-0.19598807936553336,"5":0.07890748579231646,"6":-0.09744828681546255,"7":0.018988561471600024,"8":0.11881330884488654,"9":0.1460666690271953,"10":0.04165678697051629,"11":-0.1506137092335468,"12":0.024367780752919573,"13":0.035147662677258135,"14":-0.1634132106585987,"15":0.18970542179366728,"16":0.11465743233849769,"17":0.02498035589617001,"18":-0.10681977355440027,"19":0.0718727124195275,"20":0.0360623516370378,"21":-0.10736276594183691,"22":0.06849362736313808,"23":0.08466335959130704,"24":-0.09850603244403139,"25":-0.004346937868084808,"26":0.03821894074940795,"27":0.12484864520611916,"28":-0.1960731624017091,"29":-0.19561756021306723,"30":0.15671960759080084,"31":0.18737465628696814,"32":0.2003748315291268,"33":-0.03223043821605063,"34":0.09122459650393518,"35":-0.16493754183826795,"36":0.005505068679325224,"37":-0.13265971539191992,"38":-0.01607344732697889,"39":0.06424061482248725,"40":0.12578842459476142,"41":-0.19598588176647322,"42":0.18372743847135425,"43":0.19898973347487334,"44":0.18546681636439077,"45":0.1131153105500143,"46":0.1925715137920964,"47":-0.13587860602606708,"48":-0.18357781448385066,"49":0.12884984961358328,"50":0.17556682625601633,"51":0.15472948158879207,"52":-0.008748123661765195,"53":0.020085772923870118,"54":-0.03434189819864233,"55":-0.08404342693179563,"56":0.05594184640827748,"57":-0.17678209832601818,