{"layers":[{"r":{},"g":{},"b":{}},{"0":{"bias":0.08877281819643629,"weights":{"r":-0.008898846533729346,"g":-0.19160159840807645,"b":-0.12917863388269238}},"1":{"bias":0.1964526047690225,"weights":{"r":-0.2966231416574959,"g":0.11898053844492275,"b":-0.3345999154286407}},"2":{"bias":-0.1883495270721297,"weights":{"r":0.3010302478547573,"g":0.20852979611564945,"b":-0.027078829943455136}},"3":{"bias":-0.18584137430766073,"weights":{"r":-0.08894472624141518,"g":-0.2031315523265819,"b":-0.18595765278821438}},"4":{"bias":0.04529050011630055,"weights":{"r":0.3199546541573731,"g":0.2768846397355222,"b":0.48753186506615376}},"5":{"bias":-0.08979505330371504,"weights":{"r":0.2592042938525397,"g":0.12817821464531434,"b":0.35798301938786686}},"6":{"bias":-0.2194775197351059,"weights":{"r":0.5076406151036565,"g":0.29643152357803043,"b":0.3956488737983763}},"7":{"bias":0.07224276312873061,"weights":{"r":0.14651704612432864,"g":-0.06887717037466608,"b":0.016703916657251912}},"8":{"bias":0.18745609504122013,"weights":{"r":-0.30204780611086185,"g":0.128265380182757,"b":-0.12714720569955362}},"9":{"bias":-0.06515449910514899,"weights":{"r":0.0026328468438915164,"g":-0.001287242395541297,"b":-0.2735667605111284}},"10":{"bias":-0.09148096265320663,"weights":{"r":-0.17593559637246559,"g":-0.23313430965751356,"b":-0.127547234310801}},"11":{"bias":0.08775653332216521,"weights":{"r":-0.13493728486043288,"g":0.06736015674649137,"b":0.15109693657783466}},"12":{"bias":-0.013994605104710189,"weights":{"r":0.13141057596031774,"g":-0.20470210898811103,"b":0.07737311303714016}},"13":{"bias":0.05059376995448415,"weights":{"r":0.13303732688967276,"g":0.15003557941562043,"b":0.006920160136898264}},"14":{"bias":-0.10696258228495724,"weights":{"r":0.2981227026215946,"g":-0.06069503952003319,"b":0.1518970808776899}},"15":{"bias":-0.021370943244351973,"weights":{"r":-0.2659800743247234,"g":0.10298101751359016,"b":0.003601980161965288}},"16":{"bias":-0.2015455981784903,"weights":{"r":-0.1073628162716244,"g":0.11214387041596272,"b":-0.11239046421119325}},"17":{"bias":0.09669653689009723,"weights":{"r":-0.2532721552338093,"g":-0.16078299565658208,"b":-0.09789080984757986}},"18":{"bias":-0.1436682977546605,"weights":{"r":0.1153133012863128,"g":-0.16638844688973883,"b":-0.08528350532057473}},"19":{"bias":0.08885648590662037,"weights":{"r":-0.19655523874915798,"g":-0.14874262984900466,"b":-0.0650145720566448}},"20":{"bias":-0.16433890178524269,"weights":{"r":-0.14197524724739816,"g":0.1123153187710053,"b":0.17508064149188032}},"21":{"bias":-0.030014942252787707,"weights":{"r":0.32821729612589323,"g":0.19867452610495873,"b":0.3674873410086459}},"22":{"bias":-0.18111588641412207,"weights":{"r":0.24126548518482666,"g":0.15376290460641232,"b":0.329412773384166}},"23":{"bias":-0.14459202891358694,"weights":{"r":-0.02158966127648962,"g":-0.09142606141751766,"b":0.07947491084769641}},"24":{"bias":0.051752064076631465,"weights":{"r":-0.12665970950411096,"g":0.07573326550549106,"b":0.03623973515463992}},"25":{"bias":-0.11315859268677576,"weights":{"r":0.16962113460998474,"g":0.0609938359441442,"b":0.2485523866852493}},"26":{"bias":0.04014721492107023,"weights":{"r":0.2946340625963626,"g":-0.08196432379057478,"b":0.11516729206794517}},"27":{"bias":-0.19674796020820873,"weights":{"r":-0.0010077888868620507,"g":0.20955418725486694,"b":0.02577198271426605}},"28":{"bias":-0.007190814644905395,"weights":{"r":0.05718895854000544,"g":-0.17909145037442487,"b":-0.06088881132887115}},"29":{"bias":0.10421476247304859,"weights":{"r":-0.4409067255814249,"g":-0.13056283774967586,"b":-0.297992965930686}},"30":{"bias":-0.09239758153998938,"weights":{"r":-0.33989439507643926,"g":-0.04741242302512058,"b":-0.363674290799896}},"31":{"bias":0.015457635371658575,"weights":{"r":-0.17018848654454363,"g":-0.21037933648231572,"b":-0.32753485154654216}},"32":{"bias":0.09796315406310446,"weights":{"r":-0.2620509575594839,"g":0.014703718111442651,"b":-0.2875178657711084}},"33":{"bias":-0.10341976423434182,"weights":{"r":0.27323108257411,"g":0.07277055092690883,"b":0.28866529100059785}},"34":{"bias":0.1045000557464775,"weights":{"r":-0.02760474279242167,"g":0.01259282888776542,"b":0.14373224469197857}},"35":{"bias":0.06927325806965934,"weights":{"r":-0.12258625711351409,"g":-0.21765766392980146,"b":-0.12572703509586083}},"36":{"bias":-0.037351372144231294,"weights":{"r":-0.31414083637505485,"g":-0.11432279908972454,"b":-0.06173099957252695}},"37":{"bias":0.18288927782884026,"weights":{"r":-0.2974507564543706,"g":-0.3001700187186581,"b":-0.450336606014086}},"38":{"bias":0.15448380002922263,"weights":{"r":-0.07334587783739471,"g":0.015568062968364894,"b":0.06381984057154912}},"39":{"bias":-0.14743832125225798,"weights":{"r":-0.24712064211565807,"g":0.01259956334755307,"b":0.06651229798068771}},"40":{"bias":0.1795975047876806,"weights":{"r":-0.13574145841099097,"g":0.019835024352795456,"b":0.0013350735594173859}},"41":{"bias":-0.06473862231862394,"weights":{"r":0.13572029824288548,"g":-0.08501097772017513,"b":-0.028493912218133202}},"42":{"bias":-0.004854282161218868,"weights":{"r":0.1109995850659121,"g":0.1645784036801217,"b":0.12705048516866566}},"43":{"bias":0.1984613406571538,"weights":{"r":-0.11925097037648978,"g":-0.12741995364169645,"b":-0.15002864349347325}},"44":{"bias":0.15937873126608393,"weights":{"r":0.2619253602390098,"g":-0.11614341892457877,"b":0.14992893927393505}},"45":{"bias":0.12601669602881693,"weights":{"r":0.17476391283037374,"g":-0.06369965529228118,"b":0.016488753774699043}},"46":{"bias":0.1293494838540679,"weights":{"r":0.23406017001120705,"g":0.11381158164349821,"b":0.19268030664829974}},"47":{"bias":-0.004772126440668242,"weights":{"r":0.14683784348820322,"g":0.006274363785847044,"b":0.26749371321864984}},"48":{"bias":-0.025944055161093934,"weights":{"r":-0.1620558162618537,"g":-0.04000937704071384,"b":-0.1379908826814367}},"49":{"bias":0.04126874937677429,"weights":{"r":-0.08030014102414113,"g":-0.31327501342245556,"b":-0.46485844074312727}},"50":{"bias":-0.18873918029115605,"weights":{"r":0.04581461783566812,"g":-0.13175242262442596,"b":0.13263691464745583}},"51":{"bias":0.11593247245646537,"weights":{"r":0.38094921263130294,"g":-0.004543575794832384,"b":0.4371111682017609}},"52":{"bias":-0.11981178802526382,"weights":{"r":0.1835651220218325,"g":0.18909306690126618,"b":0.2758093198008088}},"53":{"bias":-0.0014271310739302522,"weights":{"r":0.1932184977619563,"g":0.0753531147081219,"b":0.3222909311149529}},"54":{"bias":-0.05238439176188913,"weights":{"r":-0.36172144476525553,"g":-0.3211698397212085,"b":-0.2528347934915762}},"55":{"bias":-0.10493361842411139,"weights":{"r":-0.19659725421793156,"g":-0.15670081447829462,"b":-0.304159374377434}},"56":{"bias":-0.025743077360546946,"weights":{"r":-0.1971986536135591,"g":-0.17568460779044062,"b":0.03693394137388358}},"57":{"bias":-0.0725681020109906,"weights":{"r":0.3754348813397878,"g":0.1633028798481871,"b":0.02823827750560864}},"58":{"bias":0.018351181345199235,"weights":{"r":0.09455477113951753,"g":-0.14933451215206803,"b":0.13577003377076013}},"59":{"bias":-0.19899583711472235,"weights":{"r":0.0947400567132924,"g":0.05225723668607857,"b":-0.27220934583053435}},"60":{"bias":-0.09252526917921038,"weights":{"r":-0.19777038365943678,"g":0.12066826657964853,"b":0.045761626476359375}},"61":{"bias":0.07839135105985982,"weights":{"r":-0.22712505438157693,"g":-0.12603109439737786,"b":0.09814895716135838}},"62":{"bias":0.12171768017600137,"weights":{"r":0.13394922814409277,"g":-0.0529359178390389,"b":-0.039009378319046766}},"63":{"bias":-0.0311941325757427,"weights":{"r":-0.2167275601146066,"g":-0.022083159936718874,"b":-0.24579513489306973}},"64":{"bias":0.18352646070893858,"weights":{"r":0.17431810611102683,"g":-0.07088170491664458,"b":0.11721605445392623}},"65":{"bias":0.134840123360754,"weights":{"r":0.22353683095315516,"g":0.18068465674846965,"b":0.096229066361454}},"66":{"bias":0.0843908951536927,"weights":{"r":0.3320391158232095,"g":0.09788167450723124,"b":0.32138682673858004}},"67":{"bias":0.1613550897780736,"weights":{"r":-0.02871164329929891,"g":0.13927174703991507,"b":0.06297654115375795}},"68":{"bias":-0.07059206824774192,"weights":{"r":0.11888563947144491,"g":0.1267080104896531,"b":-0.07280985160921273}},"69":{"bias":0.06703874934834289,"weights":{"r":-0.1301377131680949,"g":-0.09870967987182118,"b":-0.1047667118377167}},"70":{"bias":-0.08831946128519441,"weights":{"r":-0.31437005676982654,"g":-0.24431142800877578,"b":-0.2626038358219221}},"71":{"bias":-0.15434234330035412,"weights":{"r":-0.02879529883193562,"g":0.20666464505656293,"b":0.26232159195215093}},"72":{"bias":-0.010444471075909394,"weights":{"r":-0.18136794534934342,"g":-0.08751279268657886,"b":-0.07556577227631371}},"73":{"bias":0.1759423102467997,"weights":{"r":-0.014461966685700359,"g":0.14773759635397782,"b":-0.014333252625993494}},"74":{"bias":0.020958943216686298,"weights":{"r":0.1520041929354008,"g":-0.05881130985390282,"b":0.17750746705360892}},"75":{"bias":0.02982852900125959,"weights":{"r":-0.29243931701477,"g":-0.1297194465655999,"b":-0.05698310650938303}},"76":{"bias":-0.0006392537531494767,"weights":{"r":0.20212197535965343,"g":0.0685450290990745,"b":0.3089322018751494}},"77":{"bias":-0.03335586134158592,"weights":{"r":-0.29015136402327185,"g":0.09697069253303595,"b":-0.3200796382123378}},"78":{"bias":-0.08319308603696406,"weights":{"r":0.043646829060972,"g":-0.17239695280163567,"b":-0.04808120130954894}},"79":{"bias":0.07516825284727585,"weights":{"r":0.11529181095806032,"g":-0.03181849533554832,"b":-0.10660325893333138}},"80":{"bias":0.14370485596366683,"weights":{"r":0.19092241482426248,"g":-0.08567197248546397,"b":0.08873312817456186}},"81":{"bias":-0.058357143977634696,"weights":{"r":0.20475503538552103,"g":0.1710806993873286,"b":-0.16299048137573488}},"82":{"bias":0.14153876016835173,"weights":{"r":-0.058531383024081694,"g":0.1005113754663315,"b":-0.05117862233871975}},"83":{"bias":-0.13782002454602268,"weights":{"r":0.20002290740574055,"g":0.2315862014336295,"b":0.23192162976918523}},"84":{"bias":0.0074309063421652026,"weights":{"r":0.05898184344235004,"g":0.07190102832628852,"b":-0.20351443663635116}},"85":{"bias":0.02109909734163745,"weights":{"r":-0.09503001214166398,"g":-0.045942874476239105,"b":-0.2783986460046075}},"86":{"bias":-0.17624198613331182,"weights":{"r":0.24126626137179996,"g":0.21762063644561208,"b":0.34472555891084544}},"87":{"bias":-0.1438956385411491,"weights":{"r":0.280779239008192,"g":0.007911845030010628,"b":0.017758018555060873}},"88":{"bias":-0.016948026242820366,"weights":{"r":0.0632675703684347,"g":-0.17165659026454183,"b":-0.024020102153398115}},"89":{"bias":0.042121850850358945,"weights":{"r":0.10498154709747314,"g":-0.01118133273519602,"b":-0.04943465672875169}},"90":{"bias":-0.13065095370515561,"weights":{"r":0.0932501207417318,"g":-0.10858391532764433,"b":0.16403483685531497}},"91":{"bias":-0.10197957604105445,"weights":{"r":0.09218363822509591,"g":-0.14455499058021,"b":0.23739468403759934}},"92":{"bias":0.20424674818356994,"weights":{"r":-0.3777019025148505,"g":-0.13830679262824952,"b":-0.1810023562806435}},"93":{"bias":0.0995731930987262,"weights":{"r":0.01056663398868726,"g":0.0403547695472446,"b":-0.05734716741813696}},"94":{"bias":0.15631416536852186,"weights":{"r":0.21190560761437863,"g":0.13068703368134832,"b":-0.03958967101690102}},"95":{"bias":0.036867322334476545,"weights":{"r":-0.21384516339297915,"g":-0.01157070368935321,"b":-0.20437512407719793}},"96":{"bias":-0.10249446484469578,"weights":{"r":0.35939277420251275,"g":0.055277642820964,"b":0.4958532920345235}},"97":{"bias":-0.13840798939766574,"weights":{"r":0.05572355597874253,"g":-0.12606926710120028,"b":0.1885973191443184}},"98":{"bias":0.004999953603334643,"weights":{"r":-0.18275295063616268,"g":-0.11188017441128727,"b":-0.009152812204654668}},"99":{"bias":0.08788528812520827,"weights":{"r":-0.06842054729694491,"g":0.10890919886979804,"b":-0.23573797522612402}},"100":{"bias":-0.13614938031899432,"weights":{"r":-0.07728121312684932,"g":0.15312794940656627,"b":-0.004749295322832007}},"101":{"bias":0.11837358953408256,"weights":{"r":0.07674402189718395,"g":0.016253491450561035,"b":0.23708555982809323}},"102":{"bias":0.05097266730306019,"weights":{"r":-0.2740927101323146,"g":-0.001793611590619161,"b":-0.43771215251888806}},"103":{"bias":0.0424275554364518,"weights":{"r":-0.27622910047786553,"g":-0.1381575125043757,"b":-0.3582052530577774}},"104":{"bias":-0.026136913184044784,"weights":{"r":-0.04367402795934285,"g":-0.04097482673414472,"b":-0.2424333214498861}},"105":{"bias":-0.12693616865707694,"weights":{"r":0.23447253643128033,"g":0.1358105359876166,"b":0.2717624683562106}},"106":{"bias":0.07959264321466993,"weights":{"r":-0.0897365504538753,"g":-0.034752389893417696,"b":0.29800379400772303}},"107":{"bias":0.051415897270303886,"weights":{"r":-0.27009729460661985,"g":0.05196899674935011,"b":-0.0867995491793518}},"108":{"bias":0.022763203633542582,"weights":{"r":0.06345387235339492,"g":-0.0119113585454523,"b":0.20784681988851686}},"109":{"bias":-0.14941744037091584,"weights":{"r":0.03616876214880093,"g":-0.1377880406703956,"b":0.02883879653577617}},"110":{"bias":0.026658525659941756,"weights":{"r":-0.2832588886307655,"g":-0.11770860289477544,"b":-0.14297347742386535}},"111":{"bias":0.17954981781482446,"weights":{"r":0.36932505263466064,"g":0.17070357734355657,"b":0.10577452232475759}},"112":{"bias":-0.049114590711950505,"weights":{"r":-0.1538261168226505,"g":-0.17656798401160728,"b":-0.14407674903025702}},"113":{"bias":-0.12789205674444992,"weights":{"r":-0.2342505201224712,"g":-0.19132080973826077,"b":0.03477165571470723}},"114":{"bias":0.09595631633189013,"weights":{"r":-0.012320811687744947,"g":0.1049097111643309,"b":0.08355623983716712}},"115":{"bias":0.08795224385938379,"weights":{"r":0.0082776894456088,"g":0.23658565519357935,"b":0.38991500675133184}},"116":{"bias":0.0016090270241367038,"weights":{"r":0.05194665078990371,"g":-0.20009873286985647,"b":-0.2004279111378807}},"117":{"bias":-0.15247836417229266,"weights":{"r":-0.32747463842779784,"g":-0.14267026101056096,"b":-0.04861375819325187}},"118":{"bias":-0.09628345045900752,"weights":{"r":0.2292521777439917,"g":-0.16231302068232115,"b":-0.1443977661963219}},"119":{"bias":-0.012164810473913896,"weights":{"r":-0.009204582259033003,"g":0.19111256945533733,"b":0.23310675125105954}},"120":{"bias":0.10113153914646517,"weights":{"r":-0.3801166113164862,"g":-0.3300080210234788,"b":-0.4503327125390829}},"121":{"bias":-0.1353342659752721,"weights":{"r":0.34232758331578933,"g":0.2600410486329854,"b":0.3297827666619456}},"122":{"bias":-0.09454637482177351,"weights":{"r":-0.1292151592454507,"g":-0.1754310946460926,"b":0.02598139256577661}},"123":{"bias":-0.18131193078193253,"weights":{"r":-0.16792851587860752,"g":0.13252089952034013,"b":-0.31625331218991926}},"124":{"bias":-0.16518403343207666,"weights":{"r":-0.2074298341742074,"g":-0.20819445701752093,"b":-0.2752320831887658}},"125":{"bias":-0.1053301511993825,"weights":{"r":-0.09143563787697483,"g":0.1223554980337729,"b":-0.09730330519805735}},"126":{"bias":-0.18570198240109803,"weights":{"r":-0.22196086465602105,"g":-0.17702932603799537,"b":0.06491667312449055}},"127":{"bias":0.08591337827795174,"weights":{"r":-0.11007138136246268,"g":-0.2593661690138289,"b":-0.15345010470730955}},"128":{"bias":-0.13630468175587962,"weights":{"r":0.13204493920546825,"g":0.2600428491835094,"b":0.11792312463031263}},"129":{"bias":0.16039281083903842,"weights":{"r":-0.18731401035496653,"g":-0.2272513587989741,"b":0.04960273447843039}},"130":{"bias":0.08873691509276943,"weights":{"r":0.22651188071123426,"g":-0.10159460446704306,"b":0.2585360696038179}},"131":{"bias":0.07360439684836292,"weights":{"r":0.26227892304180156,"g":-0.033367481469070086,"b":0.04722432260339529}},"132":{"bias":0.17011979439656544,"weights":{"r":-0.05404265748745719,"g":0.18017255215923123,"b":0.1009786358503029}},"133":{"bias":-0.10182406479863954,"weights":{"r":0.18901918452872035,"g":0.2143859932427183,"b":-0.041693657429531045}},"134":{"bias":0.16674513732351579,"weights":{"r":0.07910991068121151,"g":0.021425621993192073,"b":-0.13673810290171798}},"135":{"bias":0.11233139903106841,"weights":{"r":-0.05759678244687498,"g":0.11296279741082864,"b":-0.2243070826827985}},"136":{"bias":-0.1288509924553028,"weights":{"r":0.24257385609229457,"g":-0.13516273659620837,"b":0.039013525480955456}},"137":{"bias":-0.14337906017244104,"weights":{"r":0.10562295330654368,"g":0.26517883358436223,"b":0.07177833941502404}},"138":{"bias":0.005406115143466637,"weights":{"r":-0.2117729401450929,"g":-0.25225871684316076,"b":-0.2923116970575193}},"139":{"bias":-0.07185660830157596,"weights":{"r":0.13938428627366428,"g":0.022429881214864153,"b":0.12181716682693058}},"140":{"bias":0.08129908280560709,"weights":{"r":0.07384017769816875,"g":-0.09649680784085636,"b":0.0863252044230586}},"141":{"bias":0.06879011384084086,"weights":{"r":0.013422564190276987,"g":0.06762463344276325,"b":0.069996487048765}},"142":{"bias":-0.1748220731582161,"weights":{"r":-0.25160237212974607,"g":0.010235065580243622,"b":-0.20053489641343755}},"143":{"bias":-0.006921249101417772,"weights":{"r":0.24483679285680246,"g":0.025781971463360965,"b":0.3194790403210595}},"144":{"bias":0.11828164252290797,"weights":{"r":0.23706906546274534,"g":0.15316363051784784,"b":-0.024456861744422936}},"145":{"bias":0.16979753087385097,"weights":{"r":-0.19144459524567628,"g":-0.10000585638699301,"b":-0.04886290183925335}},"146":{"bias":-0.11421406659390058,"weights":{"r":0.3117384083512131,"g":0.07418745693070163,"b":0.30649787535246387}},"147":{"bias":0.16321323041529553,"weights":{"r":-0.20020705855950166,"g":-0.028480103063584308,"b":-0.2531693390731772}},"148":{"bias":0.12582666000047033,"weights":{"r":0.049860081867473045,"g":-0.06076125122064591,"b":0.24583381983118147}},"149":{"bias":-0.01596000273329374,"weights":{"r":-0.21853277656584258,"g":-0.25854273403423195,"b":-0.2857607041409001}},"150":{"bias":0.16829923027266033,"weights":{"r":0.1385762919632584,"g":0.176614020824622,"b":0.10386908292250445}},"151":{"bias":0.03222288530522359,"weights":{"r":-0.2955438134437494,"g":-0.23318356063347048,"b":-0.1931205907963264}},"152":{"bias":0.055598508724698646,"weights":{"r":0.009499894187743697,"g":-0.07369875736291431,"b":-0.11744739046781012}},"153":{"bias":0.17222205826548506,"weights":{"r":-0.02682251447264131,"g":-0.06555128719222603,"b":-0.057069268736507126}},"154":{"bias":-0.05875011409133981,"weights":{"r":0.053734168402521716,"g":-0.04345893050902343,"b":0.1690609660175011}},"155":{"bias":0.1339267025889781,"weights":{"r":-0.16938206491757313,"g":-0.11200027160531065,"b":-0.15242597960563684}},"156":{"bias":0.09677476239143648,"weights":{"r":0.28338241185395907,"g":-0.0045743299549125425,"b":0.1631900441455442}},"157":{"bias":0.14382476522944937,"weights":{"r":0.28716500187695326,"g":0.220691136950299,"b":0.14820170579871386}},"158":{"bias":0.1722031964767857,"weights":{"r":0.018631870093497024,"g":-0.16075995703929136,"b":-0.015395580215227023}},"159":{"bias":-0.15280477423043518,"weights":{"r":0.020770656886665986,"g":-0.21516771226912199,"b":-0.26380879723907075}},"160":{"bias":-0.14993852663352406,"weights":{"r":-0.06557919455966693,"g":0.1384096013412717,"b":0.0825671747542769}},"161":{"bias":0.11969389330709036,"weights":{"r":-0.040545038134414665,"g":0.11108837554543333,"b":-0.2914581701329786}},"162":{"bias":-0.12994903681534595,"weights":{"r":-0.07161674735281238,"g":-0.00026601947445836435,"b":-0.09308582579886832}},"163":{"bias":-0.01119192340306284,"weights":{"r":0.2732761163990713,"g":-0.07427736490331353,"b":0.23457015067419393}},"164":{"bias":-0.1535837459505645,"weights":{"r":-0.09060954632186764,"g":0.1562050784532423,"b":0.004327154992776867}},"165":{"bias":0.15300384530232716,"weights":{"r":-0.014836997179247626,"g":-0.029694131419485393,"b":0.1830308686966989}},"166":{"bias":0.1715310905471088,"weights":{"r":-0.1750848919879171,"g":0.07587889279159868,"b":0.0009303475781202533}},"167":{"bias":0.125794327543616,"weights":{"r":-0.04587263424227483,"g":-0.14432247091133152,"b":0.17218718740487599}},"168":{"bias":0.13182422839301142,"weights":{"r":-0.08879398447361726,"g":0.08650608894012964,"b":-0.051428583403866045}},"169":{"bias":0.01304667696090071,"weights":{"r":-0.24396617400467108,"g":-0.23509232677271763,"b":-0.31142356711397945}},"170":{"bias":-0.1848599858165172,"weights":{"r":0.013649291294685997,"g":0.1597691173770553,"b":-0.12673045856254986}},"171":{"bias":0.1128537672679169,"weights":{"r":-0.04821366076346466,"g":-0.00833381078446388,"b":0.09725666052993012}},"172":{"bias":0.08429879966062219,"weights":{"r":0.2385859876522125,"g":-0.04718116403495826,"b":0.3703153165242724}},"173":{"bias":0.02695587922639661,"weights":{"r":-0.16427980612453413,"g":0.06311881936646696,"b":-0.42724938137470975}},"174":{"bias":0.06508620163860535,"weights":{"r":-0.13168127556909234,"g":-0.130454226533648,"b":-0.4609854508192684}},"175":{"bias":0.0956323961675666,"weights":{"r":-0.024752780366668992,"g":0.051633956758730226,"b":-0.33101527957955795}},"176":{"bias":-0.14335526074802085,"weights":{"r":0.014345875026827012,"g":0.11179822830328491,"b":-0.25831970858569825}},"177":{"bias":-0.0023124839794547883,"weights":{"r":0.27276039294359317,"g":0.02865989864448239,"b":0.11789995982906037}},"178":{"bias":-0.11993313187205934,"weights":{"r":-0.0086021418796877,"g":0.07581848786644473,"b":-0.30584604997793413}},"179":{"bias":-0.01256477841706646,"weights":{"r":0.20248814288451025,"g":-0.0165095372292256,"b":0.13756020342461636}},"180":{"bias":0.04740633603331812,"weights":{"r":-0.27816069158374335,"g":0.1367301064457737,"b":-0.2292799135242305}},"181":{"bias":0.050255077208725414,"weights":{"r":0.3324582981362821,"g":0.1780379751693795,"b":0.18339006896096155}},"182":{"bias":0.05144940269673965,"weights":{"r":0.020173510571149793,"g":0.0843073688214654,"b":0.055262391421484404}},"183":{"bias":0.13444011719265359,"weights":{"r":0.04882679636909087,"g":0.07067686600602865,"b":-0.2105692255644632}},"184":{"bias":-0.1074405427146764,"weights":{"r":0.22274282822097505,"g":0.24982785014765918,"b":0.46025967363293785}},"185":{"bias":-0.02765842574785302,"weights":{"r":0.1544502601770283,"g":0.2537223989196291,"b":0.3716314324087963}},"186":{"bias":-0.006798157312582946,"weights":{"r":-0.3039063049915804,"g":-0.2835527414391908,"b":-0.3535789174726573}},"187":{"bias":0.13848596387951323,"weights":{"r":-0.3384162798751049,"g":-0.1658757747284951,"b":-0.10168548846385243}},"188":{"bias":0.08122820046487268,"weights":{"r":-0.07138665377497615,"g":0.0756902434375701,"b":-0.005339727296101104}},"189":{"bias":0.009724617631636158,"weights":{"r":-0.13847739128127276,"g":0.03337275051935389,"b":0.029987407530063993}},"190":{"bias":0.012173521317550567,"weights":{"r":-0.012878613194446942,"g":-0.19722304465131849,"b":0.11605749696143658}},"191":{"bias":0.06006998998956059,"weights":{"r":0.17018275485122103,"g":-0.034579333712057354,"b":0.08631625196577625}},"192":{"bias":0.03474497182730215,"weights":{"r":0.042320429966063645,"g":-0.13355381228001723,"b":-0.21587155785086581}},"193":{"bias":-0.10129139027976615,"weights":{"r":-0.1864731820713527,"g":0.14945057946808915,"b":0.09127510035116874}},"194":{"bias":0.13818937560520544,"weights":{"r":0.28756856309343204,"g":0.27564830440961485,"b":0.3678654276434956}},"195":{"bias":-0.07346863444654016,"weights":{"r":-0.106195645058626,"g":0.15072003341483425,"b":-0.007155527921241313}},"196":{"bias":-0.1666336045189189,"weights":{"r":0.14201849362800076,"g":0.0758748982002973,"b":-0.04165380645044858}},"197":{"bias":0.046140019797755796,"weights":{"r":-0.20721102823640836,"g":-0.06962569713295982,"b":-0.13025783741493466}},"198":{"bias":-0.1222328561567764,"weights":{"r":-0.3097645534661475,"g":-0.02120872985516232,"b":-0.493492957168516}},"199":{"bias":0.16998834112836778,"weights":{"r":0.025949077230670012,"g":-0.004108324726508053,"b":-0.14675465307870328}},"200":{"bias":-0.16775216676586538,"weights":{"r":0.0022583700356954093,"g":0.019659191372228695,"b":0.09179587632893066}},"201":{"bias":0.06281396871258131,"weights":{"r":0.1132659117714711,"g":-0.11955245507488405,"b":-0.04687850410685475}},"202":{"bias":-0.030235080268848295,"weights":{"r":-0.2745923603548919,"g":-0.19175661952887194,"b":-0.32557585084183405}},"203":{"bias":-0.18542921540590374,"weights":{"r":0.25483149512067615,"g":-0.07106193311970581,"b":0.30726847179522176}},"204":{"bias":0.024414859914379423,"weights":{"r":0.16447855153951266,"g":-0.178498228612796,"b":-0.1863937100467598}},"205":{"bias":0.00016925043997841548,"weights":{"r":-0.2825383802830167,"g":-0.24117464036494002,"b":-0.6254587437115668}},"206":{"bias":-0.16544875994299946,"weights":{"r":0.04089681905304514,"g":-0.20672322422147116,"b":-0.20778191017037012}},"207":{"bias":0.14483014632591726,"weights":{"r":0.21290058597455475,"g":0.04781079250618564,"b":0.2496606067742007}},"208":{"bias":0.09096964870309066,"weights":{"r":-0.10706982564492361,"g":0.17980046244620973,"b":-0.09172928900415808}},"209":{"bias":0.10558394258329191,"weights":{"r":0.13101013423012248,"g":-0.0374980560227536,"b":-0.1121992631580519}},"210":{"bias":-0.051229166544882514,"weights":{"r":-0.2436490934239743,"g":-0.285664774062473,"b":-0.25126731161296}},"211":{"bias":0.10905261368515115,"weights":{"r":-0.03413036768916079,"g":-0.17886041018220042,"b":-0.15496538686201575}},"212":{"bias":-0.13395337559663664,"weights":{"r":0.013649728612356488,"g":0.13418103666592104,"b":-0.24335633388167818}},"213":{"bias":-0.03169915100088001,"weights":{"r":-0.1349186019522204,"g":0.06495057996513184,"b":-0.21866907098557126}},"214":{"bias":-0.1812179925130685,"weights":{"r":-0.22493225247457693,"g":-0.04043010626749416,"b":-0.1741738584894765}},"215":{"bias":-0.18361449614088562,"weights":{"r":-0.09356411973166096,"g":-0.17162304962554498,"b":-0.15086573368635756}},"216":{"bias":-0.13799495899037456,"weights":{"r":-0.20521084213267013,"g":-0.21203010380665904,"b":-0.1398355583851069}},"217":{"bias":0.0916213762561628,"weights":{"r":-0.12579639256629294,"g":0.06746384568832398,"b":0.09424690526688223}},"218":{"bias":-0.10409220438519305,"weights":{"r":0.326924449060092,"g":0.1296737404028335,"b":0.05459357862666443}},"219":{"bias":-0.10678399446544061,"weights":{"r":0.21694759294850316,"g":0.21342756760494735,"b":0.14301792301614594}},"220":{"bias":-0.02271665297970621,"weights":{"r":-0.1967403719955004,"g":0.014733871066454225,"b":-0.06466738188788901}},"221":{"bias":-0.02208857306595164,"weights":{"r":-0.17711427978658967,"g":-0.06200361699579051,"b":-0.22137986498755974}},"222":{"bias":-0.16506918794068773,"weights":{"r":-0.04250067401458644,"g":-0.044820278907991985,"b":0.05843304808371098}},"223":{"bias":0.11418634916722009,"weights":{"r":-0.37988304818810636,"g":-0.2623634872216059,"b":-0.17657670211850257}},"224":{"bias":0.000893413182700286,"weights":{"r":0.15517344403514038,"g":-0.023175187342271298,"b":0.09461611129171509}},"225":{"bias":0.18169639715076977,"weights":{"r":-0.13885849902041705,"g":0.19926436538645614,"b":0.19925849155834321}},"226":{"bias":-0.012904304942443705,"weights":{"r":-0.058342900594392344,"g":0.15083921349039153,"b":-0.13377273455893987}},"227":{"bias":0.1744768658684863,"weights":{"r":-0.15613593643641244,"g":-0.18251553760864697,"b":-0.3372816578765548}},"228":{"bias":0.018366639335009743,"weights":{"r":-0.11708224339269091,"g":-0.19279863853211823,"b":-0.05659159491062891}},"229":{"bias":0.05810807738246334,"weights":{"r":-0.16798298002856932,"g":-0.17062951827221873,"b":-0.14610635813754394}},"230":{"bias":0.16090338157186945,"weights":{"r":0.19504856503197782,"g":0.06239645804033904,"b":-0.09961479238406373}},"231":{"bias":-0.01911752867919031,"weights":{"r":-0.016688936900404718,"g":-0.042581469990408634,"b":-0.175516428065729}},"232":{"bias":-0.039895726432620016,"weights":{"r":0.32523391135063034,"g":0.04668900338840873,"b":0.3003647879451455}},"233":{"bias":0.09927920219479132,"weights":{"r":0.21537071675507807,"g":-0.05402445665294976,"b":0.07001527901468335}},"234":{"bias":-0.007314614832622311,"weights":{"r":0.18182301026745948,"g":0.042910961658715614,"b":0.10115937658963293}},"235":{"bias":0.1600495555946395,"weights":{"r":-0.17482758782564636,"g":-0.06942809647541115,"b":0.1400849816405945}},"236":{"bias":0.05744934834127386,"weights":{"r":-0.15144608740424434,"g":0.08040240628634954,"b":-0.04391345392003956}},"237":{"bias":0.1720445455892863,"weights":{"r":-0.06245050177458858,"g":0.04515117163710892,"b":0.21144198862345506}},"238":{"bias":0.04177642277879327,"weights":{"r":0.10475036497344016,"g":0.00818152604710649,"b":0.1940581009578499}},"239":{"bias":0.16030034009523694,"weights":{"r":-0.027545497808845618,"g":-0.12289275174004782,"b":0.3192486360407417}},"240":{"bias":0.07113703252089724,"weights":{"r":0.29770378325092695,"g":0.14772776324448378,"b":0.4215895737794615}},"241":{"bias":-0.032562603117846554,"weights":{"r":0.21469965000307706,"g":-0.13536394893298534,"b":0.0898526209285406}},"242":{"bias":0.054635621330659634,"weights":{"r":0.08707973695856003,"g":-0.16403925152494722,"b":0.0778817947975219}},"243":{"bias":0.10558621513895868,"weights":{"r":0.13402750166240668,"g":0.24885584428324298,"b":0.07916082686906305}},"244":{"bias":-0.16601799759031124,"weights":{"r":0.17262560247807915,"g":0.197835352544927,"b":0.25731914493325386}},"245":{"bias":-0.04808738801002835,"weights":{"r":0.07907572936875659,"g":0.11255418385762161,"b":-0.05806854135991815}},"246":{"bias":-0.06593288242143486,"weights":{"r":-0.00279680498573296,"g":-0.21717038866320376,"b":-0.24461590300616354}},"247":{"bias":0.1005715011925799,"weights":{"r":-0.15988033666167314,"g":-0.14442902411465444,"b":-0.08095564018622868}},"248":{"bias":0.16599316992662408,"weights":{"r":-0.003736742740157843,"g":0.05553746182808606,"b":0.07265818757598962}},"249":{"bias":-0.06525503708154552,"weights":{"r":0.03743213705664889,"g":0.11222827188693377,"b":0.03267241692012682}},"250":{"bias":0.0832226562272791,"weights":{"r":-0.028542640168058693,"g":0.15989220951357602,"b":-0.02726647967190434}},"251":{"bias":0.11701979124950586,"weights":{"r":-0.2740236175601477,"g":-0.20011125946502337,"b":-0.20932044624548218}},"252":{"bias":0.02385124249060173,"weights":{"r":0.03443279245198274,"g":0.07469269700463049,"b":0.06699168413345234}},"253":{"bias":-0.1234810331811238,"weights":{"r":-0.3387494706309937,"g":-0.1973637811202366,"b":-0.37621162332987196}},"254":{"bias":0.09795194038428648,"weights":{"r":0.32490708981607924,"g":0.19609076880178392,"b":0.25327277409173504}},"255":{"bias":0.10759952495554158,"weights":{"r":-0.30835049992782365,"g":-0.20934164070150993,"b":-0.18229033849316822}}},{"0":{"bias":-0.0711131004766562,"weights":{"0":0.09055171060239534,"1":0.17299016335929832,"2":-0.1665845387926004,"3":-0.04300183117186397,"4":-0.20737054685972972,"5":-0.014184142151310879,"6":-0.1844716747660002,"7":-0.05062063973145284,"8":-0.03630909174632986,"9":0.022856360059822032,"10":-0.15374652648079876,"11":-0.019317256108007,"12":0.0378481949699389,"13":0.11483891610779214,"14":-0.11014922860450846,"15":0.08593401225746242,"16":0.11402266963189822,"17":0.000981200463013349,"18":-0.06211407333365043,"19":0.10597186625775576,"20":0.08478454119106464,"21":-0.1607892023718936,"22":-0.04708634772675471,"23":-0.17389641984814294,"24":-0.03473758177182019,"25":-0.19324477965299158,"26":-0.03291363539545876,"27":-0.04001094192143649,"28":0.15017822333179334,"29":0.09557139684837843,"30":0.22237829994983302,"31":0.07654576436148411,"32":0.09187635743163572,"33":-0.10686789900385774,"34":-0.10590397377885456,"35":0.10895839343161107,"36":0.072762179939754,"37":0.23756011422894546,"38":0.19047544682971745,"39":-0.14509117491846438,"40":-0.054861701107984356,"41":-0.15354081411526105,"42":0.06645152054276582,"43":0.2127454567411585,"44":0.06742234891721788,"45":-0.09230857503392041,"46":-0.1472986710126395,"47":-0.09448811427694112,"48":-0.16177610969338874,"49":0.2101589324586977,"50":0.13116248551469695,"51":0.14104671234370803,"52":-0.02268797264707138,"53":0.01794150534073649,"54":-0.10252143901384174,"55":-0.1212003361122837,"56":0.08048026373723499,"57":-0.013324873909469154,"58":0.010647744161220595,"59":0.16634906278849554,"60":-0.06291430558292828,"61":0.2183655798440277,"62":-0.16067017602808678,"63":-0.10449376561165866,"64":0.13712137582961556,"65":-0.038761557535205,"66":-0.10016737125551133,"67":-0.1815446879166509,"68":0.14791363664600224,"69":0.07908271731535925,"70":0.14286764762330506,"71":-0.21407454753334035,"72":-0.02442806973204514,"73":0.10488214203294237,"74":-0.032236592055644706,"75":-0.07603456500587652,"76":0.02008123667864207,"77":0.13997223288907187,"78":0.1789657475952415,"79":-0.10188408982658916,"80":-0.143401912331531,"81":0.0991608037444732,"82":0.006171111331226861,"83":-0.11099198461967152,"84":0.1723634366453734,"85":0.18676810292582655,"86":-0.14753637990024748,"87":-0.166983087754359,"88":0.175379977688666,"89":0.18748508398938918,"90":-0.1501404538233246,"91":-0.010734662759054433,"92":0.11162193250693805,"93":0.02842911757159021,"94":0.026722085407454355,"95":0.09270761783418877,"96":-0.032576392781467164,"97":0.015520336289532997,"98":-0.0792894669204141,"99":0.20657194665704343,"100":-0.08252553211527594,"101":-0.10969043201874226,"102":0.20535873203230343,"103":0.24622980571632141,"104":-0.0484884243060874,"105":-0.05311365202583024,"106":0.06269802301379815,"107":0.23049523245215742,"108":0.0917505731285845,"109":0.13166716705734638,"110":0.03785591006168614,"111":-0.20044115589557038,"112":0.0352237830263786,"113":-0.1048929428964935,"114":-0.1260762892291541,"115":-0.1994885053459843,"116":-0.08044338469198352,"117":-0.12313328940014166,"118":-0.06845794128776765,"119":0.113383227524633,"120":-0.08974301364417163,"121":-0.02519079841534775,"122":0.028749690764747263,"123":-0.0074690125142407755,"124":-0.012264538500385053,"125":-0.11535730355576358,"126":0.008567069906960934,"127":0.12020009351869297,"128":-0.20699971516594304,"129":-0.06899857900665758,"130":-0.1768951350417451,"131":-0.15879435330033492,"132":-0.16202940899775123,"133":-0.14666575595561798,"134":0.029476267640886393,"135":0.013251982663882445,"136":0.08852708963560535,"137":-0.13431624847525267,"138":0.09362923593602898,"139":0.07518610780604391,"140":0.06978526002477968,"141":-0.1800431042151702,"142":-0.08785217100234274,"143":-0.12448228229342695,"144":-0.07291735620966233,"145":-0.1361203798569468,"146":0.06316925673871196,"147":0.19367023146131263,"148":-0.149267215117246,"149":0.12278630412356478,"150":0.011017965074242166,"151":-0.01132302327287157,"152":-0.034397550171210406,"153":0.0017761102334249562,"154":0.11797785821577962,"155":-0.09466072954808803,"156":-0.09293279476985203,"157":-0.12739958744250798,"158":0.08998484795706495,"159":0.09483267412331285,"160":-0.16663561146989236,"161":0.20526952774106721,"162":0.193774574952988,"163":-0.04878713278742018,"164":-0.12542669386033153,"165":0.08313647047737414,"166":0.06836027446777528,"167":0.18836138657168952,"168":-0.0618301846916675,"169":0.2527898315928304,"170":-0.06275171187982569,"171":-0.0015957425875010916,"172":-0.10780197261270266,"173":0.03169613729039912,"174":0.15960916529237107,"175":0.15290765919948465,"176":0.14103317661782244,"177":0.17178077184087548,"178":0.03739910865810921,"179":-0.13165117772984425,"180":0.18791540641498686,"181":0.03229658053543262,"182":-0.02852777869936618,"183":0.13750503004196998,"184":0.020961289202690487,"185":-0.1639075918570498,"186":0.22027230543063567,"187":-0.017762554528014864,"188":0.16178673329667603,"189":0.06257574554876238,"190":0.07930495645520869,"191":-0.02240934223440125,"192":0.1957532635533266,"193":0.011759181022209802,"194":-0.16799448645989848,"195":0.08297372067634945,"196":0.14556166078053054,"197":0.13387029952537988,"198":0.18860074996375628,"199":-0.1611956955512849,"200":0.17201702688312737,"201":0.11944625248206019,"202":0.17437991377075734,"203":0.12808613476618314,"204":0.13484802414632713,"205":0.15631129535768976,"206":-0.004294052943386617,"207":-0.20499156867654067,"208":-0.02242364825290172,"209":0.06410920157856051,"210":0.24767615313969774,"211":-0.009492781890440938,"212":-0.04179458481545343,"213":0.10210410597229051,"214":0.08337604146328326,"215":-0.15135770210341354,"216":0.06390607228413428,"217":0.0009701631716541651,"218":0.09804993280755729,"219":-0.09087787705969483,"220":0.1768046912666429,"221":0.008655037156264003,"222":0.01572228648704098,"223":0.16008975299203718,"224":0.09277798248114254,"225":-0.07589508094527687,"226":-0.14410708583847842,"227":0.22438335266823772,"228":-0.09788795186269306,"229":0.18897256900755927,"230":-0.10187484446013079,"231":0.10987782252603473,"232":0.07635524536597026,"233":0.08523187347337012,"234":-0.07399544447691832,"235":0.04821824122781382,"236":-0.11105575022885464,"237":-0.19947449642525475,"238":-0.031233687047243473,"239":-0.11255902434569405,"240":-0.2415295330136128,"241":0.1768348442377814,"242":0.013453860384367277,"243":-0.1602001379696969,"244":-0.18428550943788607,"245":-0.06455652672259946,"246":0.059174805264524594,"247":0.08620958903174301,"248":-0.16665618231151252,"249":-0.15426815573063535,"250":0.14813514319053053,"251":0.0598633833157865,"252":-0.20006330788647433,"253":0.05411300924660262,"254":-0.18100632460967062,"255":0.07937313840084534}},"1":{"bias":0.08401615802543047,"weights":{"0":0.0317710146996279,"1":0.10889603359658766,"2":0.14100302092094819,"3":0.10307186106133483,"4":-0.17792474188094884,"5":0.17094229227626023,"6":-0.012656779158853689,"7":0.1782508506478139,"8":-0.12447968298764793,"9":-0.20264946352709062,"10":-0.14305648606321,"11":-0.15284081475212952,"12":0.06224359633534562,"13":0.162452473138159,"14":0.058562455647834986,"15":-0.11433729198746302,"16":-0.12916121049151047,"17":-0.16913260046410164,"18":-0.1786885943760877,"19":-0.12586034581840186,"20":0.11036346323596999,"21":0.08595820616061252,"22":-0.1626027759768833,"23":0.13022812389987923,"24":0.09118367141976977,"25":0.1373906504340926,"26":-0.05528148798755156,"27":-0.07468353549125774,"28":-0.1999799279151583,"29":-0.16225213429603802,"30":-0.13867358949587683,"31":-0.03135009478377605,"32":0.09211824761323342,"33":0.10747450286120336,"34":0.15988784254087088,"35":-0.024894516455274053,"36":0.19093181967269288,"37":0.017617125467978716,"38":-0.028325651722803075,"39":-0.16337529157339525,"40":-0.08232816441827422,"41":0.18060308922625762,"42":0.06710205548419787,"43":0.14700838408221514,"44":-0.1388044326626898,"45":-0.14724999976406708,"46":-0.16865026854559031,"47":-0.16650288557925544,"48":0.02174172743028821,"49":-0.11940887657330236,"50":0.17894116948036642,"51":0.1880011489545679,"52":0.0000064500092835528965,"53":-0.1535382609029266,"54":0.1721624045238068,"55":-0.194561869121884,"56":-0.024429755042833335,"57":0.06041491904686113,"58":0.18893807298388296,"59":0.036336377250056444,"60":-0.02187541529601222,"61":-0.042389184007112696,"62":-0.038054826981053336,"63":0.1467908932509259,"64":-0.17726828243317574,"65":0.1157994293657935,"66":0.14796104775372543,"67":-0.12504471153861096,"68":-0.027407880015530683,"69":-0.0030796203448706155,"70":-0.05901348450585205,"71":-0.029835480271319437,"72":-0.03220772648057224,"73":-0.1302782182048225,"74":-0.1962996288886942,"75":-0.05607159013545334,"76":0.030878374240507746,"77":-0.05038880411107878,"78":0.18450916494379901,"79":0.16925422727345998,"80":0.1695350184227571,"81":-0.16643733214799258,"82":-0.049272481992102865,"83":0.06690327586387758,"84":0.10370954213420441,"85":-0.07677037899143345,"86":-0.11039464964206859,"87":-0.13543571611753902,"88":-0.0870733038945773,"89":0.06555672664520522,"90":-0.04547293271113747,"91":0.00805504556028284,"92":0.1508790831354081,"93":0.17695748105584205,"94":0.06612552330589001,"95":-0.06526863621795356,"96":-0.08639312810202464,"97":0.030068857344173736,"98":0.1905973976085404,"99":-0.1188273123572292,"100":0.01996748307720934,"101":-0.05296102923343187,"102":-0.1026792312638742,"103":0.017650726852094647,"104":-0.14589752040680082,"105":0.18238163795213602,"106":-0.06295890533477402,"107":0.02236179005648908,"108":0.005734924160500946,"109":0.17127112085453772,"110":0.13658481434643863,"111":-0.15239414696858472,"112":-0.11526794860165934,"113":0.018218411023776956,"114":0.05408997581890108,"115":-0.047881425753444916,"116":0.033397762495998976,"117":-0.048968396227370266,"118":0.1936555541285729,"119":0.08636767283017788,"120":0.0027624685306245826,"121":0.15793789895047017,"122":-0.11434702573471424,"123":-0.10059559535055329,"124":-0.04506829480132671,"125":-0.023250153339293943,"126":0.14211486273977442,"127":0.049765601489334475,"128":-0.13379629261027018,"129":-0.08732656776665092,"130":-0.11372544447799775,"131":-0.020903542988572745,"132":-0.044129740718768275,"133":-0.04366109101109042,"134":-0.11257212230757709,"135":0.004620762462493168,"136":0.022413968585810545,"137":-0.14110661244400816,"138":0.018058706450057915,"139":-0.1458885088970331,"140":-0.16543602730262005,"141":0.01628688088386675,"142":-0.0636699700496645,"143":0.13627553256051736,"144":-0.14771650022587215,"145":0.1869818477717105,"146":0.11037506118050815,"147":0.017399441187906373,"148":0.11851907635722336,"149":0.18773949888068692,"150":-0.1934499775094123,"151":-0.041189280065581514,"152":0.1949920134261986,"153":-0.13639656285905227,"154":0.1272251442062951,"155":-0.03627380686056476,"156":0.1296872947825294,"157":0.1626472082790941,"158":0.08766747728295918,"159":-0.1724274896695498,"160":0.033012120229877914,"161":0.0008853572094559682,"162":0.010786494873107367,"163":-0.024769519478958422,"164":0.13479974834848132,"165":-0.07937864178189598,"166":-0.10335389973062352,"167":-0.012314999846721133,"168":0.16242884208268404,"169":-0.07624722281657646,"170":0.18072954608806457,"171":-0.08615722823747136,"172":0.021553708615507643,"173":0.12320613689814618,"174":0.008640084763010198,"175":-0.046412307227347335,"176":-0.06597174574170163,"177":-0.0962748554379038,"178":0.1468543044960042,"179":0.1109819375045982,"180":-0.19390859673345856,"181":-0.18481336610699448,"182":-0.040639646794904,"183":-0.15306275880370707,"184":-0.08610834928423021,"185":-0.031418513070881046,"186":-0.14780650341787296,"187":-0.01946316357538317,"188":-0.013560288503137969,"189":0.1460012812808469,"190":0.009100536121241657,"191":-0.14594435314652326,"192":0.0032202817857763435,"193":-0.14819003152178195,"194":-0.11037345773768298,"195":-0.034596446810316414,"196":-0.18254966358707062,"197":-0.16606591917691074,"198":-0.027122113614445092,"199":-0.07130255603821069,"200":-0.06399242151375484,"201":0.15779229071745535,"202":0.16359377440123635,"203":0.011352574183988435,"204":0.16931184163122134,"205":-0.14761061727868366,"206":-0.13594923681616453,"207":-0.10694071644052018,"208":-0.17440019496079492,"209":0.13655275932715777,"210":-0.03288402134360261,"211":-0.03382708296059168,"212":-0.17300414992563956,"213":0.1532198354926572,"214":0.07927133931011271,"215":0.15034476494292565,"216":-0.11809020999318258,"217":0.16663592428506124,"218":0.060387993152566335,"219":0.06365543865774351,"220":0.02868371788914073,"221":-0.14438818209883839,"222":-0.11447004647304128,"223":0.013982774368188879,"224":-0.07702837583603644,"225":-0.10561808827243155,"226":0.1800754155513335,"227":-0.14088770511480447,"228":0.12740841294254243,"229":-0.14210938910998452,"230":-0.09493474729551465,"231":-0.07025152225563956,"232":-0.14544218712546034,"233":-0.1599129439729513,"234":-0.004456757777608686,"235":0.026319903110747025,"236":0.1748145881289092,"237":0.09387859664583915,"238":-0.06743023778198254,"239":-0.14324230649763048,"240":0.19905285235809358,"241":-0.17557677972647898,"242":0.1236945852997258,"243":-0.15649362140231587,"244":-0.13101287318971436,"245":-0.17785905071601918,"246":-0.05665560657411254,"247":-0.05467393961082478,"248":0.1089695571003448,"249":-0.05297489890688207,"250":0.02095324452967655,"251":0.02816964545706984,"252":-0.05094295128154192,"253":-0.20881054555494108,"254":0.044889544081958783,"255":0.07181734918120994}},"2":{"bias":0.14523900689375607,"weights":{"0":0.08876247528933134,"1":-0.009628907202442272,"2":-0.06550477258221542,"3":-0.11452229443277799,"4":0.04927601425140798,"5":-0.0582017938743289,"6":0.17960442317623992,"7":0.14474886624930478,"8":0.16818847083387473,"9":-0.08425939616855826,"10":-0.10402655714066983,"11":-0.01962844875571785,"12":-0.01577644740036141,"13":-0.005589295014166115,"14":0.18661332886031876,"15":-0.18194028790159297,"16":0.1946927716471348,"17":-0.13766208572461666,"18":-0.11687165613448883,"19":0.11691781888542771,"20":0.09316097152295165,"21":-0.05408543323248222,"22":0.16380474863974076,"23":-0.138485286429316,"24":-0.13002244216026976,"25":-0.12658445257101122,"26":-0.05494424043285614,"27":-0.10763221671719828,"28":-0.19190656629717806,"29":0.003804632899996037,"30":0.09310265461453497,"31":0.08127649781720592,"32":0.1437363624638087,"33":-0.022513719873539374,"34":0.06669488770607476,"35":0.0913635419908357,"36":-0.011975277486816501,"37":-0.14139387041378246,"38":0.0010267775913302883,"39":0.13343867819163102,"40":-0.18888477896448505,"41":0.10465296884351269,"42":0.18397329554606423,"43":0.03772063760997693,"44":-0.0602381964172893,"45":0.052795131688145376,"46":-0.19131817866810472,"47":0.03128878610840709,"48":0.1747362506948327,"49":-0.03074730080925232,"50":0.05002120602955293,"51":-0.11579890096904366,"52":-0.10500845544847279,"53":0.010206462167809738,"54":0.02334352869064676,"55":-0.1891525291452271,"56":0.08895784157829732,"57":-0.021289054162312117,"58":-0.17801741695004514,"59":-0.05226065437140207,"60":-0.13575730135724368,"61":-0.12138497567955643,"62":0.0496057585878078,"63":0.15938307189935402,"64":0.15562357312474448,"65":0.033277094644673905,"66":-0.11302941239052613,"67":0.043596566271059435,"68":-0.1987720393987731,"69":-0.031107990731436976,"70":-0.026041446845020938,"71":-0.15091061270209938,"72":0.13373459516166217,"73":-0.14617693009273977,"74":-0.14076095999713314,"75":0.080948054308202,"76":-0.014657786844813062,"77":0.09220672490151366,"78":0.11810799967296348,"79":-0.10773860188477213,"80":-0.003580924111340112,"81":-0.016244473315477504,"82":-0.0757607978213937,"83":0.09217485258099502,"84":-0.17546267307587252,"85":0.11639624514747464,"86":0.0005416030586409342,"87":0.08873404756824813,"88":0.13655595627379447,"89":-0.1569720317016844,"90":-0.1319381491008864,"91":-0.06578362417156129,"92":0.167983103672056,"93":0.07315741586230498,"94":0.06766525241149521,"95":-0.05539473350799437,"96":0.08666098077944509,"97":0.14239925572289067,"98":0.1409447878193706,"99":0.15544195037625985,"100":-0.09458378976962344,"101":0.008006996397150837,"102":0.131952761796978,"103":-0.07295691236229511,"104":-0.0367122951833095,"105":0.03201026384368741,"106":0.13917025953456916,"107":0.053901222447848215,"108":0.023672339795533754,"109":0.12959822062956047,"110":0.00296889786419187,"111":-0.16649069373544786,"112":0.09515319567701665,"113":0.14069602616049168,"114":0.024794307083401034,"115":-0.10821786778124552,"116":-0.1369303458847935,"117":0.16342624824771332,"118":-0.08770988886893825,"119":-0.1271982060417444,"120":0.038987366446488,"121":-0.13048239471093073,"122":0.023337491282320946,"123":-0.06835364262767925,"124":-0.10736195663440114,"125":-0.14390571651632236,"126":-0.00832300286087323,"127":0.07529935340599042,"128":0.06013614948723395,"129":0.03596809413179668,"130":0.07944500361006131,"131":0.19053087706031396,"132":-0.17173319371365403,"133":0.021350238030830897,"134":-0.02375461597546584,"135":-0.019102188885914993,"136":0.13760231710291743,"137":0.13526866921715008,"138":0.06515096549004684,"139":0.018201943921497696,"140":0.16539983783792012,"141":-0.04108229220011213,"142":-0.059638066333929714,"143":0.1284514165873943,"144":-0.17103917972909324,"145":-0.12481176041268949,"146":0.05506313746273778,"147":-0.1602976733371599,"148":-0.1370818681885473,"149":-0.06434576608981772,"150":-0.13014794228152732,"151":0.15578982039157288,"152":0.07488299362926741,"153":-0.09672293581606747,"154":-0.10323691158842267,"155":0.11525810905041692,"156":-0.20168594535161746,"157":-0.18232802934438266,"158":0.12905168240442932,"159":-0.1331392859893816,"160":-0.11870024667048457,"161":-0.08455240488591188,"162":-0.17985804210382592,"163":-0.16445329683992665,"164":-0.17937293060523352,"165":-0.029188296453187622,"166":-0.15480578261815003,"167":0.07421821703830768,"168":0.02034913477402538,"169":-0.07642006230954593,"170":-0.07609525148534137,"171":-0.03111187759117771,"172":-0.04370048311601457,"173":0.1943328948215825,"174":0.09366619262215156,"175":0.11902232717071079,"176":-0.032018924359250495,"177":0.10913599377342144,"178":0.10568344853767211,"179":0.07586084737193458,"180":-0.18936028171368077,"181":-0.04651501980998083,"182":0.1455327309751056,"183":-0.12033305423826449,"184":-0.08580327569269097,"185":-0.06245518235153505,"186":-0.16286939971992345,"187":-0.12492808654161153,"188":-0.1413324609611065,"189":-0.15121712488630504,"190":0.005009805030353907,"191":0.12276555592406588,"192":-0.0777612848133951,"193":-0.12140271382363986,"194":-0.06885741609735618,"195":-0.03433731839771866,"196":0.08965928410388309,"197":-0.055816778379277315,"198":-0.19808370912135206,"199":-0.0169140947693151,"200":-0.17361515583982884,"201":-0.16511820516809625,"202":0.02779674108287198,"203":-0.12278799887998776,"204":0.03473381858625633,"205":0.05433706437056616,"206":0.13753181162326028,"207":-0.044282349382850424,"208":0.010047670838008954,"209":-0.05656871922394432,"210":-0.011128928470453712,"211":0.13009999547880083,"212":-0.10136913664514922,"213":-0.1776447445760174,"214":0.09192400880154113,"215":0.19280319886218925,"216":-0.1838148651721418,"217":0.04946413868076184,"218":0.002969232169123959,"219":-0.0292375798670467,"220":0.004857059599516903,"221":0.161161838095657,"222":-0.1490336988206339,"223":-0.043848439082126524,"224":-0.0013812032400171883,"225":-0.02203957183977375,"226":0.034679364212466354,"227":-0.18561618384393236,"228":0.014493965649603723,"229":0.12233896875587015,"230":-0.16515884514104184,"231":-0.07797140990189226,"232":-0.005664470006675277,"233":0.045040742242062025,"234":-0.041631192290195254,"235":-0.09443723804547921,"236":0.08174374002908848,"237":0.15998312629804934,"238":0.14361757913737633,"239":0.10518491188434206,"240":0.09004956164531674,"241":-0.028797393173268442,"242":-0.08326108600222115,"243":0.08953027647762431,"244":0.1183653355709938,"245":0.07053375985556401,"246":0.04917751309064008,"247":0.12389526751995616,"248":-0.10134754266956984,"249":-0.07784066302678902,"250":0.0031170172079229663,"251":-0.15784427525762934,"252":-0.14794876920048125,"253":0.005208083915604552,"254":-0.08854123680145873,"255":-0.09503306472156166}},"3":{"bias":0.061869056431328215,"weights":{"0":-0.06322353847942984,"1":0.0011312505201210583,"2":0.13886406928044176,"3":-0.0026944691368152437,"4":-0.07960593734803446,"5":-0.20824881694809078,"6":-0.20017575777096597,"7":-0.19343517278230313,"8":-0.13983937732351354,"9":0.014590094241795065,"10":0.08456066221045308,"11":-0.10981904585341411,"12":-0.17391348674363227,"13":-0.05915415422674011,"14":0.03409371125066324,"15":-0.02813922290464546,"16":0.12344251497290105,"17":-0.10379905268015434,"18":-0.08586268382604224,"19":-0.015927509365063496,"20":-0.14022362350146822,"21":-0.15852069600803187,"22":0.07717037262043915,"23":-0.18802741352386643,"24":0.09061402583974364,"25":-0.18103664876379844,"26":0.10327615305829758,"27":-0.12570923293194064,"28":0.12278776236666769,"29":0.08918509838706312,"30":0.11229714250049859,"31":-0.1460099381507396,"32":-0.004613348889687015,"33":-0.16358787450091652,"34":0.12603138043595238,"35":-0.15114602709601307,"36":0.19833980569251147,"37":-0.10112436495546313,"38":0.11687375671017619,"39":-0.132436097273891,"40":0.04619768832957325,"41":0.10831127964227487,"42":-0.1914313589600091,"43":-0.1697962851999869,"44":-0.16872281675704648,"45":0.1314561374535512,"46":-0.18951347908075067,"47":0.09599620087544215,"48":-0.1666014884185909,"49":0.003513362661147014,"50":0.09338956268903004,"51":-0.11192224525406272,"52":0.12310450475561244,"53":0.09028949922345378,"54":0.2281107805562231,"55":0.07210535074084348,"56":-0.08332869577280234,"57":-0.11791704600668308,"58":0.018220985234859592,"59":-0.12842298705192212,"60":0.17512583027965686,"61":0.18215538553935845,"62":0.015465161606495699,"63":0.17128464985506137,"64":0.011443229327703414,"65":0.047631546425937435,"66":-0.002989261656780683,"67":0.022674529654517283,"68":-0.1112360079420201,"69":-0.13467627447950434,"70":0.16018689728815566,"71":0.04693131190955052,"72":-0.049216440958342295,"73":0.035343212747245695,"74":-0.17129616795637678,"75":-0.034498645098774254,"76":-0.06924453403371844,"77":0.18814417727519847,"78":0.07943757660065931,"79":0.16743187050303074,"80":0.04496730225609526,"81":0.13716660336536876,"82":-0.024438598909221676,"83":-0.1067004937287654,"84":0.2131573662396337,"85":0.05481027384964754,"86":-0.1475778851830241,"87":0.12467393842734253,"88":0.15231010496029868,"89":0.15859538367341455,"90":-0.04370234107287046,"91":-0.07564247826785668,"92":-0.05889272439169777,"93":-0.18565518802085074,"94":0.08813912354630503,"95":0.028361148088190905,"96":-0.1481413200593846,"97":0.13829516687467808,"98":-0.11148336014696861,"99":0.0199195826531402,"100":0.02378473806574367,"101":-0.2008549671575963,"102":-0.08116475578261213,"103":0.09959275891739171,"104":0.0713736648604689,"105":-0.10662328082197127,"106":-0.11835300009865356,"107":0.0378374627390554,"108":-0.09830462770585648,"109":0.0955654558764113,"110":-0.09482523507447309,"111":0.055635240586835014,"112":-0.068771246669721,"113":-0.0379571534186677,"114":-0.17654333450464552,"115":0.062133542881908525,"116":0.015022416325136578,"117":0.2121453916429583,"118":-0.133894146874397,"119":0.1873203754612348,"120":0.22085123008527685,"121":-0.031249916540012655,"122":0.12151587784138002,"123":0.19341460286282464,"124":0.2041096879232679,"125":0.10181965416996777,"126":0.16709614927022323,"127":0.05153400440350782,"128":-0.03392794618045233,"129":-0.14924961652857577,"130":0.14472440229806602,"131":-0.16646817264111627,"132":-0.010750069600193259,"133":0.07990379016607312,"134":-0.08126292985638887,"135":0.019301969452086214,"136":-0.06873362508743085,"137":0.14007691910648118,"138":-0.027466788252333577,"139":-0.01915111720567591,"140":-0.16578234411135515,"141":0.12779602187887573,"142":0.162766651687753,"143":-0.18668252444238367,"144":0.07139712009460632,"145":-0.09447329163178084,"146":0.10602119419305035,"147":-0.11122220835649972,"148":-0.07074582766804212,"149":0.22447678002006258,"150":-0.0027053033382562304,"151":0.10203216143151751,"152":-0.06561860892037767,"153":-0.1036178637430268,"154":0.06637589270390519,"155":0.22284315596017723,"156":0.006658076553167568,"157":0.022523158808507884,"158":0.10629345622380754,"159":0.07467314934752829,"160":0.2035332888649057,"161":-0.1738807914999401,"162":-0.0985753769649579,"163":-0.12606217938606618,"164":-0.03435159935882924,"165":0.19530121519173432,"166":0.2066429349800374,"167":-0.033807716651978306,"168":-0.09143584359555969,"169":-0.11528424403208652,"170":0.1528077411389446,"171":0.06590596769744869,"172":-0.1645314653563733,"173":0.21682328668578363,"174":0.10816467539463323,"175":0.16241147949042348,"176":-0.10154666878610706,"177":0.17814198348045762,"178":0.007382599038675556,"179":0.14328097094246767,"180":0.030759978994614978,"181":-0.16669393897282697,"182":0.19686965683854646,"183":-0.0968301401650654,"184":-0.005248695829712839,"185":-0.020704872683769276,"186":0.08587116652675156,"187":0.19062492373919968,"188":-0.18885959803521196,"189":0.21349364558892267,"190":0.025659596472453493,"191":0.017180631493214474,"192":0.16553399280857595,"193":-0.17936971778472705,"194":-0.007886394783613514,"195":0.05184048145885776,"196":-0.15181414374083693,"197":0.09452437526745151,"198":-0.0015201462140755654,"199":0.18360018496780262,"200":0.1827068256734345,"201":0.025290643802319924,"202":0.003435489988101816,"203":0.08937236606290952,"204":-0.05809189054720589,"205":0.015914673365371723,"206":-0.1442626696046728,"207":0.13730580982474988,"208":-0.07455062247019208,"209":0.012686299341966158,"210":0.10885380888290126,"211":0.14735169171095117,"212":-0.09991002780990829,"213":-0.015554305490011699,"214":-0.08641863179474839,"215":0.10592222552287886,"216":-0.002063838321208162,"217":0.1830985242414164,"218":-0.11437642328938447,"219":-0.14021791564432773,"220":-0.08658957241430132,"221":-0.06060637797986593,"222":0.14221742492328207,"223":0.1853682732846229,"224":-0.13866797753540389,"225":-0.17842678015106253,"226":-0.18656470619540488,"227":0.08217161464002747,"228":0.06763490388444052,"229":0.05320212693473862,"230":0.07976393692151618,"231":-0.07131254976956221,"232":0.10973344711991745,"233":0.021207809198872694,"234":0.11200541943286603,"235":-0.0050323758453009355,"236":-0.16079581893276443,"237":-0.08163997151665763,"238":0.05782983300343747,"239":-0.1429932939477259,"240":0.12042672877710932,"241":-0.1742897184016544,"242":-0.15878808262473346,"243":0.027712055307619558,"244":-0.11568223653022144,"245":-0.17484814235182117,"246":-0.07277705189187218,"247":0.033334570036803714,"248":-0.1348430130359581,"249":0.0788690079766708,"250":-0.151692043481069,"251":0.018309728137887286,"252":-0.04889884969943991,"253":-0.10061723185492767,"254":-0.06399887195244856,"255":0.010587246972658946}},"4":{"bias":0.08169802919525637,"weights":{"0":0.055764381576887144,"1":-0.006173688317278238,"2":0.19676968354643215,"3":-0.08494363478220866,"4":0.15939262731656942,"5":0.163532192089978,"6":-0.16533605468835336,"7":-0.09447910408573883,"8":-0.19204322012908454,"9":-0.1582952492932907,"10":-0.138779308845581,"11":0.16462951534659728,"12":-0.07788771940787058,"13":0.029730093999056323,"14":-0.158848478668706,"15":-0.0076271521956265504,"16":0.03261891620676757,"17":-0.16055276951228062,"18":0.17910284108477845,"19":-0.08849417784954064,"20":0.0951215342808748,"21":0.15274689263818614,"22":0.03404290785699676,"23":0.007193436516595799,"24":-0.14591255694898045,"25":0.08819547828070609,"26":0.1505212216105618,"27":-0.10205183724341002,"28":0.1336977214785761,"29":-0.16701874508479267,"30":-0.16071824305253005,"31":-0.1153793400753105,"32":0.11283721718157437,"33":-0.1656158518953465,"34":0.07669666358349413,"35":0.16439034559749094,"36":-0.02571814922934371,"37":0.11983762819009076,"38":-0.09004125591678099,"39":-0.13362495916077805,"40":-0.09529102490316847,"41":0.02546278151535796,"42":-0.19030365271448088,"43":0.14209458001630323,"44":0.020167237136443167,"45":0.1668210748635775,"46":-0.19503465711873894,"47":0.1467024509083698,"48":-0.12557699206000483,"49":0.1358287976017309,"50":0.1765531206858994,"51":-0.04564869733857605,"52":-0.033808197839502695,"53":0.17096410619890412,"54":-0.13827629260487573,"55":-0.09988703112154707,"56":-0.007769043940360139,"57":-0.18765243185634822,"58":-0.15111820170214302,"59":-0.05859799262586666,"60":-0.10763993985306937,"61":-0.08312227639410807,"62":-0.002580755915704609,"63":0.06592320219943758,"64":-0.016859135916526005,"65":0.10384155145918542,"66":-0.15214244934967355,"67":-0.154572268146394,"68":-0.004116521404764201,"69":0.0024285999618367114,"70":-0.15574645633161824,"71":-0.19310673722730534,"72":-0.1515940660607855,"73":0.034911378018573094,"74":0.1993646256979394,"75":-0.02133042002642544,"76":-0.11092380526398611,"77":-0.17306926649752155,"78":-0.17557083668294193,"79":0.10229227836223474,"80":-0.1555278622667404,"81":0.17521745706786893,"82":-0.15138910183905538,"83":-0.01821862712365022,"84":-0.10762051754399335,"85":-0.19438798213420005,"86":0.1662939081092792,"87":0.18573673248756203,"88":-0.09812220339540291,"89":-0.1669926896221413,"90":0.10525373652005679,"91":-0.16058405836160985,"92":-0.02755661062909899,"93":-0.1367549121763819,"94":-0.18392645549182637,"95":-0.09898732860101395,"96":0.002074200642394157,"97":0.1987870489632048,"98":0.06544047213974118,"99":0.07873344678167316,"100":0.00200252837095427,"101":-0.07464609805699875,"102":0.09625198372573407,"103":-0.02186330062556798,"104":-0.12020402996380572,"105":-0.10544812031359407,"106":-0.03346495008892246,"107":-0.0462681670155229,"108":0.1779427360925256,"109":-0.09103769506228493,"110":0.15965323721830899,"111":-0.10739254736169063,"112":0.13685468164412945,"113":-0.16628445491971314,"114":-0.1972531613009967,"115":0.09406308626691846,"116":0.10178197276962891,"117":-0.047760137606785026,"118":-0.1607054027719724,"119":0.13352685154232213,"120":0.12071161083327059,"121":0.18121877151355006,"122":-0.12282481538453535,"123":-0.09907794559073219,"124":-0.049003474921967806,"125":-0.005510160803895514,"126":-0.006592899393627551,"127":0.09001774730652827,"128":-0.10441931448969095,"129":-0.17310745867346197,"130":0.12989431835676976,"131":-0.17839571909921437,"132":-0.12271642012348143,"133":0.03821418098660952,"134":0.06675821897250277,"135":-0.1437907719895598,"136":0.0517179190196041,"137":0.08711599032548395,"138":-0.01973821055804721,"139":0.021316804931861458,"140":-0.07652840631323103,"141":-0.04771381256750153,"142":0.10158904736707694,"143":-0.19580845966731955,"144":-0.186114093930245,"145":0.001199660051571348,"146":-0.16795631164372365,"147":-0.12187531685755978,"148":-0.14643922785254168,"149":-0.05294090534198465,"150":0.09922471543646945,"151":0.04167896125803018,"152":0.1850994384289451,"153":-0.027089806238465537,"154":-0.022907178661642935,"155":-0.046387996884642145,"156":0.03923998661245745,"157":0.03306430603443543,"158":0.069296010236223,"159":-0.03158298222658601,"160":-0.02932705632668793,"161":0.08410841526473926,"162":-0.08066261783115217,"163":0.06743111175507112,"164":0.0020262870578238714,"165":0.10147305634343315,"166":0.17545487334700424,"167":-0.1102323552742337,"168":-0.0426724479323829,"169":-0.05289807054785139,"170":-0.062496490803583674,"171":0.191478935441025,"172":0.012183434607962488,"173":-0.17404671435999164,"174":0.13185911122260877,"175":-0.13739914224329441,"176":-0.020385030967585923,"177":0.12420331376563438,"178":-0.13740205308731293,"179":0.11639316626097548,"180":-0.07667647474759395,"181":-0.06675409897886844,"182":0.00460360982275813,"183":0.15894122818137624,"184":-0.17900992573169353,"185":0.05451503547497925,"186":-0.19236034399257376,"187":-0.14525780598225885,"188":-0.049744478370506495,"189":0.10989369782249123,"190":0.13467497998447228,"191":-0.044803257778127534,"192":-0.13877119417965894,"193":-0.11252122475138429,"194":-0.12797832520944016,"195":0.10162110953842267,"196":0.1314282956866585,"197":-0.03884718767477297,"198":-0.16612322140648245,"199":0.05874384240072985,"200":-0.17323922485972593,"201":0.13395223265534734,"202":-0.05844753370965851,"203":-0.09401895196363041,"204":-0.19153233557275784,"205":-0.19353572648595205,"206":-0.17749424744598172,"207":0.07095626622743527,"208":-0.17815516890919816,"209":-0.042674122249548814,"210":-0.1101176829029358,"211":0.099604880105503,"212":-0.04617264487765344,"213":-0.17903671789848494,"214":0.15985488030539216,"215":0.18300621408902046,"216":0.14294690463292165,"217":-0.08869227445264669,"218":-0.017632420234754267,"219":-0.02479386764245642,"220":0.03113697709087251,"221":-0.153968056829176,"222":0.17004080565167204,"223":0.09158866718486199,"224":0.09306390993793874,"225":-0.1919365095918399,"226":0.1673087550499789,"227":0.1276809273428229,"228":0.07930757613947498,"229":-0.09596947071305229,"230":-0.18733114957000047,"231":-0.1259482310335786,"232":0.034793291541799005,"233":-0.1339085494061415,"234":0.06181228136856072,"235":-0.023293594882395886,"236":0.17007912004962858,"237":-0.010294160717254202,"238":0.17589733727312545,"239":-0.1104355534299718,"240":-0.01189370549239917,"241":0.14830146372851555,"242":0.13346685194218894,"243":-0.18664405522613467,"244":-0.1367732118405371,"245":0.11360979232634479,"246":0.050841172911742935,"247":-0.0764154243976241,"248":-0.19272494742003235,"249":-0.07627747539996935,"250":0.12053423014242684,"251":0.1744809628228899,"252":-0.13321498638484416,"253":-0.07302300260691034,"254":0.15396089301591154,"255":-0.08676405512125128}},"5":{"bias":0.10510597356429191,"weights":{"0":0.03441215134223822,"1":0.04604266889376833,"2":-0.14677666435670064,"3":0.035123736560077,"4":-0.2816483871826835,"5":0.02405631079707428,"6":-0.19074033408048277,"7":0.14575291261686357,"8":0.1727344280205804,"9":-0.07683667766791452,"10":0.15658643869621816,"11":-0.07958225479282961,"12":0.09556533636497147,"13":-0.11938186333015029,"14":-0.20587095479618278,"15":0.22054840720667115,"16":0.0042181865465168444,"17":0.050899630561621105,"18":-0.05265309499952633,"19":-0.11563119888440831,"20":-0.05002983882503498,"21":-0.1895818318701304,"22":-0.19132771029981935,"23":0.1238657536409259,"24":-0.10964876484940649,"25":-0.07796865187463123,"26":0.008877333975976105,"27":0.042593482429962776,"28":-0.05408241565799149,"29":0.2760148396504934,"30":0.0763491895971656,"31":0.08107723206752648,"32":0.08686996748626691,"33":-0.1880679667981179,"34":0.004903297020005301,"35":-0.01805146242439828,"36":0.2499617504991672,"37":0.21656435386576497,"38":-0.155884822746331,"39":0.013819435404871466,"40":-0.14189836596827451,"41":0.17523986623327426,"42":0.00622544175957254,"43":0.201163365765803,"44":-0.09659189564280947,"45":-0.18768230498976501,"46":0.02638298588063452,"47":-0.1953490387722998,"48":0.16574252066411996,"49":0.27190070965381874,"50":-0.1290003480491038,"51":-0.13502793106206967,"52":-0.03558996911832822,"53":-0.12429939933468881,"54":0.10352291994561139,"55":-0.10346786010537502,"56":-0.14336698897983483,"57":-0.22007486085911945,"58":-0.07124458583743212,"59":-0.1466428495898879,"60":-0.022343770791219637,"61":0.11348278420964926,"62":0.008066128398970389,"63":0.0583790772981085,"64":-0.18148649837214606,"65":-0.05449715105486341,"66":-0.06247410423433602,"67":0.0009515933654460321,"68":0.040066451275728734,"69":0.02874336997215105,"70":0.23479434130896246,"71":-0.09416958554832754,"72":0.061655141478961686,"73":-0.11889271861026102,"74":-0.07632464536945212,"75":0.20808079593038642,"76":-0.1927442447885712,"77":0.07917400722776072,"78":-0.17425313028242329,"79":0.0017225715383836866,"80":0.01598017859731614,"81":-0.12826517921144406,"82":0.09750520194055957,"83":-0.1609061302503583,"84":-0.10816704562975182,"85":0.20606936935936912,"86":-0.06553545069642583,"87":-0.14387591261163293,"88":0.16085784970644712,"89":0.1233576914902361,"90":0.05065645777032852,"91":-0.21918712311876098,"92":0.2627918776001056,"93":0.14731908610590994,"94":0.13169468317793465,"95":0.22865159787033199,"96":-0.07152463774136072,"97":0.1161894187539574,"98":0.2196394922795965,"99":-0.10972438804641675,"100":0.07513644723174259,"101":0.0858106055242158,"102":0.24828579832466205,"103":0.2945725621507976,"104":0.21925917134515355,"105":-0.14087628087391213,"106":0.003649284588508351,"107":0.02549931633463475,"108":0.0683375837956103,"109":-0.08516526183157991,"110":0.11676908690293983,"111":-0.1840621239255114,"112":0.11133359814640673,"113":0.06633315734326897,"114":-0.17235189148464847,"115":-0.2195607316257029,"116":0.03098591763427227,"117":0.055353804601989215,"118":-0.06927962075072587,"119":0.10722024874171772,"120":0.31215621966470997,"121":-0.20457662318006398,"122":0.003958187769548109,"123":0.18500904095386264,"124":0.12868495437543911,"125":0.12388642874350109,"126":-0.17049466416160586,"127":-0.020548706002089547,"128":-0.2253800771475293,"129":-0.054462983831294436,"130":0.0637889768780894,"131":-0.17795802306999675,"132":0.1010703301932385,"133":0.1697224940335482,"134":0.14984533430694622,"135":-0.11354127808248389,"136":-0.08664263318468689,"137":0.08340393934902122,"138":0.0948476834539902,"139":-0.1771006380636763,"140":-0.06710880382476034,"141":0.13792726983136525,"142":0.07244603985245604,"143":-0.18259961442956962,"144":-0.14815428005096953,"145":0.212874836764495,"146":0.11199979745728497,"147":0.25490674573823147,"148":-0.16035707153694156,"149":0.1424070181660026,"150":-0.19368075370979254,"151":0.20377109517127243,"152":-0.042649620887461576,"153":-0.003655438574396396,"154":-0.03018080374320015,"155":0.25005749701651825,"156":-0.10028631237791917,"157":-0.228145042103322,"158":-0.1019271849214157,"159":0.028805565726402645,"160":-0.02907279191788396,"161":-0.13635725379218458,"162":-0.0513433809986228,"163":-0.06046649909230707,"164":-0.10775153474092557,"165":-0.14779338390996724,"166":0.18299357892372592,"167":-0.08396184994498891,"168":-0.10560070518139517,"169":0.18284048137295345,"170":0.13068402573766738,"171":0.09703732675146377,"172":0.07736194206889997,"173":0.26340201029081434,"174":0.07087521942349578,"175":-0.023411068875473177,"176":0.030286566994825615,"177":-0.18297515551474694,"178":0.06258709800915031,"179":-0.011748523943130364,"180":0.019836305259647847,"181":-0.1292894852908503,"182":-0.050801678704571564,"183":0.1878298331025477,"184":-0.21784113637931615,"185":-0.23677533219711727,"186":0.26330508441191075,"187":0.11530075588312072,"188":0.05283606071860633,"189":0.1332877031042292,"190":0.13209304693768475,"191":-0.04612493477174886,"192":-0.0028329557406647317,"193":0.046475801581009134,"194":0.04657375570188209,"195":0.1807030586471004,"196":0.19003190237238665,"197":-0.11147743803745076,"198":0.23009486596332376,"199":0.09780444587623852,"200":0.1582336917512378,"201":0.12207892300555546,"202":0.10935095035963348,"203":-0.057457570545964294,"204":-0.023920398318407615,"205":0.2534000387350025,"206":-0.12426679929000188,"207":-0.17338216456053332,"208":-0.09492999932955981,"209":0.013764342363850884,"210":0.15630187134045898,"211":-0.09356020102934119,"212":0.19217459307284362,"213":-0.017327479529244225,"214":0.2264483210218993,"215":0.08848201338412298,"216":-0.036890203331090485,"217":-0.14170962439671023,"218":-0.2254049163117329,"219":-0.1411464522254082,"220":0.1573692873934195,"221":0.1250286628170749,"222":0.15299384758122536,"223":0.13849718085909274,"224":-0.1961900991585052,"225":0.05323715143979457,"226":0.21023231468876616,"227":-0.0218114076590689,"228":0.2118685624595914,"229":0.244007669430113,"230":-0.04640299394391589,"231":0.1163164672481908,"232":-0.013405474485064703,"233":0.056622225332753184,"234":-0.16868953177486384,"235":0.17852252039030542,"236":-0.10081195634536465,"237":-0.12756488838486357,"238":-0.051552999888750284,"239":-0.0894395387620234,"240":-0.08341065911188851,"241":-0.07105323121849073,"242":-0.03097144055312063,"243":-0.01779133984975556,"244":-0.03735896346588818,"245":-0.07182417568657226,"246":-0.0709247847236573,"247":0.12519103485845434,"248":0.05428040454932242,"249":0.004264276053161512,"250":-0.10949877361850216,"251":0.11070182089700721,"252":-0.18209595719658417,"253":-0.05220028283882611,"254":-0.02513265403332283,"255":0.1355307472231787}},"6":{"bias":-0.18274648755186249,"weights":{"0":0.015385005904162091,"1":0.09759350261489304,"2":-0.15260848840594957,"3":0.03927641917311431,"4":0.14736050134107004,"5":-0.19219675141462728,"6":0.1803012685629571,"7":-0.19060163541939135,"8":0.040200794859260085,"9":-0.1404917141527929,"10":0.09917994093493518,"11":-0.11198997792505191,"12":-0.040787815386973084,"13":0.0892870530622382,"14":-0.1917786460264702,"15":-0.15609807702630668,"16":0.10252134047903703,"17":-0.06754153791141335,"18":0.19096184424746832,"19":0.037467506766760174,"20":-0.1924625649024364,"21":-0.18033147337408573,"22":-0.153888204124744,"23":-0.08031907449333342,"24":-0.13093163033066657,"25":0.04386523157884396,"26":0.15792360642297193,"27":0.02861951756091235,"28":-0.052332412377615344,"29":-0.13078776631217137,"30":0.04863820262734432,"31":0.1607092386738198,"32":0.0435129249993612,"33":-0.0020319307338467715,"34":-0.09195815309712257,"35":-0.01110930314514825,"36":0.1113252522193275,"37":-0.12114758737791556,"38":-0.19423467397651098,"39":0.16451763599542793,"40":0.18345230365855228,"41":-0.19116105226600855,"42":0.16906942431002947,"43":0.11139375353479884,"44":-0.17398797391693605,"45":-0.12273576057527588,"46":0.1304889185596351,"47":0.0667106103244555,"48":0.15035141007006808,"49":0.17635492492623533,"50":-0.055650732391085624,"51":-0.03929047805751186,"52":-0.20212551998928577,"53":-0.13157862772560028,"54":0.17297218857792518,"55":-0.006684194761007547,"56":0.03992720997607949,"57":-0.06299239544213162,"58":0.08427876928108742,"59":-0.13700677066028352,"60":-0.016231696843034462,"61":-0.0005054275442570353,"62":-0.1930914224458686,"63":0.14356153021739734,"64":-0.11494547817629037,"65":0.1417631526498042,"66":-0.07614300323714347,"67":0.13002383179323201,"68":-0.021385948037850853,"69":-0.20382744636419278,"70":0.18356914705054028,"71":-0.03856666594565116,"72":-0.18226583541559516,"73":-0.1759845131159231,"74":0.07662072686612957,"75":-0.0752257753164118,"76":0.03430098370915633,"77":0.09839835320448877,"78":-0.10058535422449372,"79":0.014947826771118989,"80":-0.02924207227682577,"81":-0.11719745735935423,"82":-0.04108229144296529,"83":0.03768078619017622,"84":0.05908545476665392,"85":0.07606957037851222,"86":-0.0823993222261339,"87":0.08902131613884874,"88":0.027393654495965272,"89":0.12637111910595575,"90":-0.2004852269095138,"91":-0.05216480187924776,"92":-0.19219879285130348,"93":0.08652025247283704,"94":0.10162866885709797,"95":-0.1948562425979339,"96":0.01473986825135051,"97":0.12556219830292656,"98":-0.148511330353957,"99":-0.15788902458874413,"100":0.05227886896093593,"101":0.14498224190378192,"102":-0.12697091421331774,"103":0.10318866309153744,"104":-0.09128104185484893,"105":0.1002030132743669,"106":-0.08515062820917932,"107":0.07665955802595872,"108":0.1800729398161094,"109":0.03526525016770542,"110":-0.2018253143222489,"111":0.17656359140000857,"112":0.152824205470299,"113":0.09269814207430846,"114":0.13124704900728323,"115":0.024057838802902475,"116":-0.04706158196342293,"117":0.16003620357152978,"118":-0.11710235523800666,"119":-0.17121732518197497,"120":-0.1421071571371239,"121":0.11026148594582302,"122":0.15838976450622916,"123":0.028560337066305057,"124":-0.1671639664065023,"125":0.1951689919642533,"126":-0.1758790360591684,"127":-0.13498988638262102,"128":0.18352995143053932,"129":-0.09145832880271197,"130":0.15515211655497985,"131":0.021180277272253353,"132":0.11296189785183197,"133":0.011705788700659445,"134":0.058707019472599965,"135":0.11245598854549861,"136":-0.056441398575606726,"137":-0.19612284610152494,"138":0.04616218495565497,"139":0.059857123409688094,"140":-0.20423031338732398,"141":0.15657131890752818,"142":-0.16817046623504928,"143":0.035776889745840014,"144":0.022875610724712767,"145":0.04662350572179857,"146":-0.05538699091273947,"147":-0.1158099136917347,"148":-0.18497957529877163,"149":0.18078747532925346,"150":-0.04274578756588567,"151":0.05549647853055819,"152":0.12492020959269175,"153":-0.11653370562468131,"154":-0.09636290583100926,"155":0.13942780652796563,"156":-0.16897733357667866,"157":0.09839284206985083,"158":-0.07872733743421911,"159":-0.1853712340014592,"160":-0.13141643376919887,"161":-0.1429834781989885,"162":0.08020930799591278,"163":0.03858494425084127,"164":0.18989806887514127,"165":0.11685127854152384,"166":-0.18436533954818865,"167":-0.06511019512795763,"168":-0.13376618186959252,"169":0.07538121967134659,"170":0.04207000801607022,"171":-0.07597436148782198,"172":0.10837610567036042,"173":-0.07241126293333172,"174":-0.14510702527766622,"175":0.09699027215901845,"176":0.0029758001532833134,"177":-0.1172153520775946,"178":-0.16897444273024248,"179":-0.10630053573930867,"180":-0.04266257209438231,"181":0.18424937643139147,"182":-0.06698427516630319,"183":-0.020569933532768488,"184":0.04816861478078561,"185":0.06689991801182246,"186":0.18360076647978543,"187":-0.04530699532885767,"188":0.13033975963347572,"189":0.06614883809592295,"190":0.04276511516228959,"191":-0.0011096708067513835,"192":0.06136809123480167,"193":0.07561219086518772,"194":0.14162270163617896,"195":0.1869700416364471,"196":-0.06833303814828155,"197":0.12763505733041738,"198":0.12343364399374578,"199":-0.12050619047624336,"200":-0.16996706375928194,"201":0.10163295624668675,"202":-0.18291550185947225,"203":-0.07974489900525387,"204":-0.10880187925443219,"205":0.08058690212936681,"206":-0.003780043389452397,"207":0.16193828686539383,"208":0.11372680466037814,"209":-0.05942473426763035,"210":0.09362972248057887,"211":0.08349886807588495,"212":0.015010806435482074,"213":-0.13037977934987313,"214":-0.18506838993536792,"215":-0.02131194698044015,"216":0.020280117006008878,"217":0.11456650065217971,"218":-0.037769397737256606,"219":0.13993004473806953,"220":-0.0785922967431909,"221":-0.20170129173224366,"222":-0.13276884502028732,"223":0.0026586465788227772,"224":0.08056101720774378,"225":-0.09675567121426801,"226":-0.01672922416098796,"227":0.1383522023337526,"228":0.09450975918293583,"229":-0.04364711427635274,"230":0.12907043439433646,"231":0.1366745349927493,"232":-0.04697197435106913,"233":0.006436872480128771,"234":-0.20296860278147577,"235":-0.09013294174420629,"236":-0.003594594442334201,"237":0.08474025471922625,"238":-0.16087587924139557,"239":-0.08132261950431241,"240":0.1417977342630143,"241":-0.05218906370545086,"242":-0.013887655854744297,"243":-0.07596875444211428,"244":0.009045851382436784,"245":-0.1342356416962233,"246":-0.007774640292428652,"247":0.10942529577925394,"248":0.03202560324170179,"249":0.005331520333253415,"250":-0.13820100556913625,"251":0.041502493123130035,"252":-0.18314955334279379,"253":0.18778996134183104,"254":0.07998639105992189,"255":0.03661152981702738}},"7":{"bias":-0.07365179092508067,"weights":{"0":-0.2100069622400398,"1":-0.1278195946258297,"2":0.11124864882254774,"3":0.15223889936708515,"4":0.2380051430306405,"5":0.006843283466883952,"6":0.21425402985985198,"7":-0.10341041785606452,"8":-0.14659382817403985,"9":-0.17989280821776,"10":-0.13391701061073266,"11":0.1416868829996891,"12":-0.004165807554140378,"13":0.17112638353427892,"14":0.1453694901185367,"15":-0.14748528696858496,"16":-0.1254252890463392,"17":0.028941409622675395,"18":0.11035616357403503,"19":-0.004308137220573335,"20":-0.15174791642399915,"21":-0.07517830402227137,"22":0.09981083715918447,"23":0.13307862561304232,"24":0.09934066039889748,"25":0.18269597178068941,"26":0.20419599454128182,"27":-0.10206531356728232,"28":-0.05281285209756738,"29":0.03764457369044059,"30":-0.06295614866634619,"31":0.005976047555641427,"32":-0.20761691617255779,"33":-0.1670159154018528,"34":-0.05683367481635997,"35":0.15664142376361137,"36":0.16085434033615567,"37":-0.13608289077770624,"38":-0.12794378408779808,"39":-0.023049539863812363,"40":0.18108013278114915,"41":0.11872838650090976,"42":0.1346795979516983,"43":-0.1345170828061316,"44":-0.1814381973739588,"45":0.07078607656671451,"46":0.1733281723882835,"47":0.1828056333704219,"48":-0.16916921259443263,"49":0.046219096822677365,"50":-0.10727679515473579,"51":0.05669587229674098,"52":0.15719301278192685,"53":-0.022685826294173077,"54":-0.16339544808245152,"55":-0.1063709049612206,"56":-0.17313040396654372,"57":0.1692237661937246,"58":-0.09189442451214187,"59":-0.088039273656527,"60":0.02104921969866678,"61":-0.18161481095872828,"62":-0.13102937461320158,"63":0.019556484241270815,"64":0.11713325601997918,"65":0.08503953797789263,"66":0.08191424691081826,"67":0.17322022272578042,"68":0.1496728754669587,"69":-0.18304647734667712,"70":0.07011944382841824,"71":0.044795530067182135,"72":-0.06127972750546727,"73":0.01707750315226841,"74":0.05707006992620061,"75":0.118417867145587,"76":0.12207929883388363,"77":-0.10285090916879959,"78":-0.19082694346095225,"79":-0.038614566656400874,"80":-0.1674811027021721,"81":0.18122052494550148,"82":0.11438478721078829,"83":0.1839502424292718,"84":-0.02981093055141764,"85":0.013555817579966337,"86":0.2017928664254732,"87":-0.08445594904145823,"88":-0.01612881315200059,"89":0.008677863392340812,"90":-0.10072201351648734,"91":-0.05282116359805725,"92":-0.0740423425967381,"93":0.02067048797946955,"94":0.11465482552155308,"95":0.014264358875523875,"96":0.206604035613813,"97":0.14660328778111972,"98":-0.010901170124126875,"99":0.17659744432528343,"100":0.01193017735672777,"101":-0.1378003076074247,"102":-0.07658679232051034,"103":0.07228041488837007,"104":-0.04168837084969913,"105":0.07112176564055166,"106":0.10327258206026312,"107":0.003867210637064197,"108":-0.006975280185604924,"109":-0.07648322165280406,"110":-0.14739879091708383,"111":-0.03194719340873525,"112":-0.0034441223277458517,"113":0.07324384579931412,"114":-0.07839912623348179,"115":0.1629097423296846,"116":-0.15677197446149882,"117":-0.027045054201530427,"118":0.15477514952438745,"119":0.19651020078576406,"120":-0.12285031969159273,"121":0.22132146683047815,"122":0.14066701095809578,"123":-0.10752491857892267,"124":0.13293580890830298,"125":0.08931833104222628,"126":-0.0032824719806617713,"127":0.1291416779284866,"128":0.10955198772059398,"129":-0.12143689200656566,"130":0.011513420078800962,"131":-0.03400282169247891,"132":-0.08866877892964596,"133":0.15234976658210928,"134":-0.012174347957788713,"135":0.10913046926193458,"136":-0.15246650912193532,"137":0.19678609023477575,"138":-0.21846471791457708,"139":-0.044175194102054255,"140":0.13503450619248006,"141":-0.10995442387055604,"142":-0.22090409173146644,"143":0.13148660113062716,"144":0.11255412284254199,"145":-0.1752180788479407,"146":-0.16526982499655046,"147":0.1297226499993441,"148":-0.15016019887755522,"149":-0.026576420139813945,"150":-0.04804700636456776,"151":0.041837689602598906,"152":-0.08219676803717452,"153":-0.04570492268971595,"154":-0.00036622967497652187,"155":-0.176967098388765,"156":0.07017381354738395,"157":-0.01324983396670428,"158":-0.009414064984812525,"159":0.1257179801616687,"160":-0.0034262395443147475,"161":0.05508995646695029,"162":-0.05742586363906041,"163":0.016656024332129114,"164":-0.07130755895020663,"165":-0.18901623215869318,"166":-0.17110137917632176,"167":0.16445283062362592,"168":-0.12282121820361667,"169":0.07513383548128447,"170":-0.05273700986423369,"171":0.09880853540361587,"172":-0.1297746226239295,"173":0.13115218503651782,"174":-0.20273577818389038,"175":-0.17922622157008566,"176":-0.18660647622444163,"177":0.14648751880121139,"178":0.08475992697528165,"179":-0.16852079246366936,"180":-0.1257375733536573,"181":-0.1323977872885876,"182":0.08994806052440035,"183":-0.004908337163137264,"184":-0.01591569822356952,"185":0.0037845640703390395,"186":-0.21130256159678742,"187":-0.009487626629389555,"188":0.08725206598326707,"189":-0.04485992281367599,"190":0.15935700939230207,"191":0.13652305298176118,"192":-0.07313699997637449,"193":-0.045620531292418734,"194":0.12500132482705759,"195":0.10544603458280724,"196":-0.005329840887311038,"197":0.1613062981265527,"198":-0.11221171250026293,"199":-0.2092325677688564,"200":-0.009434953391003023,"201":-0.10596198011098307,"202":-0.07643592724014911,"203":-0.16994727507174504,"204":0.014803368374371965,"205":-0.08190607494922468,"206":-0.18367357684838628,"207":0.11055089483811753,"208":0.09189752786729966,"209":-0.11649019113413281,"210":-0.2194672114880771,"211":0.051932281064643454,"212":0.14989471647033287,"213":0.06084095286080533,"214":0.13012684873938277,"215":-0.02119846011831812,"216":0.09777125796363575,"217":0.010641750309862417,"218":0.06250360373719586,"219":-0.07396824152897144,"220":-0.06753995002290823,"221":-0.13849770815664297,"222":0.05480930715459631,"223":-0.005826657706696207,"224":0.020920180820206875,"225":-0.17314335519042867,"226":-0.04210040101119364,"227":-0.10678804221402008,"228":-0.16339783237690914,"229":0.10095892457960955,"230":-0.15429988966791655,"231":-0.025240234331901014,"232":-0.0062065619473521206,"233":-0.0688285805496555,"234":-0.13192816574226796,"235":-0.15134760889230228,"236":0.045533698672449094,"237":0.12342459976542014,"238":0.13482801352910925,"239":-0.1453980538394169,"240":0.1590621130102198,"241":0.03442768578256404,"242":0.0402697479772837,"243":-0.0009566838688100878,"244":-0.15143661908530084,"245":0.20117205907444907,"246":0.00880113323826519,"247":-0.042574465743905304,"248":0.008018488892882382,"249":-0.079117563542209,"250":-0.054497198533947265,"251":-0.057756871323393605,"252":-0.143211000397712,"253":0.06232908949599537,"254":0.0015135275205719354,"255":-0.0006053175358145723}},"8":{"bias":-0.05876858339078301,"weights":{"0":-0.15109833916833948,"1":0.04981220114637715,"2":0.16363689182312943,"3":0.02067344143782118,"4":0.07973280571575272,"5":-0.10870971597378531,"6":0.10159185794889274,"7":-0.01336978720793733,"8":0.017016818214921445,"9":0.18300142011828102,"10":-0.14534866789304643,"11":-0.14208474460717885,"12":-0.17016418825405102,"13":0.1364562731481689,"14":0.10566643587706659,"15":-0.14535796307157084,"16":0.12209148480030667,"17":0.0391397578229911,"18":-0.15363657711156534,"19":0.008251824632767746,"20":-0.1982258943998192,"21":-0.12410810692814273,"22":-0.12042494029398718,"23":0.15336812210501413,"24":0.11020450254588576,"25":-0.09599379104978087,"26":0.07530374190368756,"27":-0.05562080593242085,"28":0.10478021192579903,"29":-0.00026668392555636856,"30":-0.16678199540836205,"31":0.0262468978014691,"32":-0.16332464689730974,"33":-0.12429773111890575,"34":-0.1617551912029751,"35":0.14098720539288823,"36":0.15560283361486313,"37":-0.19872647241169877,"38":0.09423958113077996,"39":0.12166998316512463,"40":-0.052460508868842015,"41":-0.1688974488059252,"42":-0.09192824484471514,"43":-0.057185028203217754,"44":-0.17200781899205445,"45":0.1718559281642918,"46":0.06879612916257838,"47":0.19938585055682526,"48":-0.100485069450452,"49":-0.21528661209446126,"50":0.16605776468199063,"51":-0.17046920648256256,"52":0.15675038018881646,"53":-0.10669090344362686,"54":-0.06222945582645348,"55":0.1033761005479194,"56":-0.1770153254904907,"57":0.04294293733340281,"58":0.10070376918394382,"59":0.15579368183022116,"60":-0.15290973521596046,"61":-0.20549101946116297,"62":0.17546504577256458,"63":-0.009078669803544465,"64":-0.02994973816987761,"65":-0.055803560515423345,"66":0.10066169472141676,"67":-0.15238057256271353,"68":-0.009669155638139587,"69":0.006420833495887176,"70":-0.19572946047819095,"71":0.11218069342628936,"72":0.1508920388058658,"73":-0.022239967638172105,"74":0.11341024341552602,"75":-0.1289853451270397,"76":0.20270320308034243,"77":-0.00990083736727603,"78":0.1208022076050442,"79":-0.07297862852550503,"80":0.0014492217249514796,"81":-0.12329807606269733,"82":0.1731748569102855,"83":-0.14673597342243797,"84":-0.15514643727634936,"85":0.16090646670447248,"86":0.128229396905033,"87":-0.0733920819909911,"88":0.020095320459916344,"89":-0.039075526978192984,"90":-0.19782125280926283,"91":0.19856960862005746,"92":0.1315978421037472,"93":-0.005627607291302534,"94":-0.1737047498223356,"95":-0.008465701572124833,"96":0.08896570661793454,"97":0.07316069826336201,"98":0.05095867548896599,"99":0.02610414331343285,"100":0.10572130555343426,"101":0.02873492988880137,"102":0.07672290552529255,"103":0.1606420672839465,"104":0.08565999025326261,"105":0.14827111490293618,"106":-0.05899014116204525,"107":0.11774545886134309,"108":-0.1258759053001955,"109":-0.14634021937152702,"110":-0.18913078775405448,"111":-0.07671791461701287,"112":0.09060550294624738,"113":-0.11237632694322586,"114":-0.09455525606416444,"115":0.17377500140603905,"116":0.06463880992577722,"117":-0.13358185515052504,"118":0.05394372136674269,"119":0.04056626204301677,"120":0.13550595100722584,"121":0.08765361493786403,"122":-0.1851511308564761,"123":-0.011482254432070236,"124":0.11430280821303321,"125":0.15086322463849805,"126":-0.1642045091020266,"127":-0.008510585105631529,"128":0.11885135588589296,"129":-0.04492107716287913,"130":0.037791976898912526,"131":0.08581663493578555,"132":-0.10726906777726342,"133":0.07003094033050523,"134":0.0805429510458089,"135":-0.17578402782711353,"136":0.137326028505617,"137":0.17139737221645512,"138":-0.06015966998428829,"139":0.0012088593696772572,"140":-0.20056348772511115,"141":-0.10191817675235645,"142":-0.14777263205510352,"143":0.14391768989970458,"144":-0.1866429931776686,"145":-0.1682027276380901,"146":0.18877170371215626,"147":-0.01194863323009525,"148":0.07261625536792078,"149":0.0999723896718447,"150":0.14873370787233772,"151":-0.033607958067895266,"152":-0.024502248350316662,"153":-0.20313533478269494,"154":-0.03928488491981252,"155":-0.09680218703457952,"156":0.03301740132849705,"157":-0.015779066309262766,"158":0.06044965070645421,"159":-0.0098403034402311,"160":-0.18572984428501643,"161":-0.16853879509263514,"162":-0.04058968199304608,"163":0.16790734413166136,"164":0.15258602244882408,"165":-0.06807240506199619,"166":-0.05056238119950601,"167":-0.12758481836455543,"168":0.1046277496598307,"169":-0.2152887624840856,"170":-0.020033462774295928,"171":-0.14794762419022991,"172":0.07130659834473112,"173":0.12435691504830577,"174":0.146535885473913,"175":0.02895050067385004,"176":-0.18526390544005322,"177":0.14219927520011946,"178":-0.1456367326479096,"179":-0.11166198352185852,"180":0.15658220747527835,"181":0.05905624740249918,"182":0.14224321025183806,"183":0.12244505925638542,"184":0.14547244236137535,"185":0.015041523554599178,"186":-0.11565805741773769,"187":-0.015333336602425486,"188":-0.17096570887754198,"189":-0.15770412936739586,"190":-0.10412941221239855,"191":0.1464538061447352,"192":-0.0878998057174174,"193":0.086438597033973,"194":-0.1114225272194225,"195":-0.032593701780221807,"196":-0.1904057939177277,"197":-0.11645632561738076,"198":-0.20719230731054583,"199":0.13371213548059444,"200":0.1599289168729153,"201":0.10438364294283639,"202":-0.175724781391281,"203":0.06231347733153055,"204":-0.054846991481527683,"205":0.04622767615667129,"206":-0.11713965930051849,"207":-0.1887018905323217,"208":0.07683630833852442,"209":0.05296934181004802,"210":0.15141096526491812,"211":0.012771356313476031,"212":0.030360648609017733,"213":0.08332092313493589,"214":-0.19964136365379181,"215":-0.005129401361964491,"216":0.004248538638563694,"217":0.10362332493918136,"218":-0.004917812402791549,"219":0.038598188306046936,"220":-0.03997686207122651,"221":0.1053224647462534,"222":0.15318046100428914,"223":0.038151931297819394,"224":-0.15559849015976127,"225":-0.09021640645690665,"226":-0.06366578659233682,"227":0.11425800244352786,"228":-0.15127185344922164,"229":-0.13722381661988814,"230":-0.10230157538261399,"231":0.03025444424542282,"232":-0.1419849140213906,"233":-0.13331916472591715,"234":0.021943874020695767,"235":0.03780994814072981,"236":0.16065996678205824,"237":-0.17365561676970093,"238":-0.13576127363336252,"239":0.18234038217901824,"240":0.1143562381101558,"241":0.0640834638686299,"242":-0.01708742369884157,"243":-0.03251274965929347,"244":0.2002642135180353,"245":0.06411968313524426,"246":0.07575999450758666,"247":-0.005873066218022279,"248":-0.0440726728739446,"249":-0.16510104217679017,"250":-0.03459727082482019,"251":0.000244680787266458,"252":0.14834051208852717,"253":-0.0267735762684498,"254":-0.13125098670029467,"255":0.07859117240240841}},"9":{"bias":0.03935759436067776,"weights":{"0":0.17194640877046652,"1":-0.24437379566659156,"2":-0.044368530074041866,"3":-0.19663264681946038,"4":-0.029956356199847295,"5":-0.016262554345208978,"6":0.001186636492727483,"7":0.20015094851200574,"8":-0.03894970556255762,"9":0.13961789945138653,"10":0.06140099831934555,"11":-0.06522094686729764,"12":-0.14129210892503774,"13":-0.029397514445350794,"14":-0.07373049004578781,"15":-0.006028741801050558,"16":0.09815983440153561,"17":0.09057219604824845,"18":0.05601006475519977,"19":0.08360855302346519,"20":-0.030928289815453806,"21":0.008241800400323832,"22":0.01335281438972624,"23":0.002970879914387339,"24":-0.11465071727474056,"25":0.051703802460585854,"26":0.19919984619015324,"27":0.1872105361755779,"28":0.12522400832288513,"29":-0.19387825079974932,"30":-0.08829981290125467,"31":-0.1876658127366091,"32":-0.22041462053119568,"33":0.19838301555615118,"34":0.13289513402506575,"35":-0.18399594542747666,"36":-0.06966160064644757,"37":-0.23578606501882168,"38":-0.09945434829454619,"39":-0.17693248314870402,"40":0.11958305273562114,"41":0.007046935811428978,"42":-0.10331762033423747,"43":-0.15767813247278753,"44":0.2164529097577027,"45":-0.023146912402428818,"46":-0.051314245441000675,"47":-0.10037101294522073,"48":-0.062330273728408686,"49":0.024417328532690387,"50":-0.10089744598387142,"51":0.0966519419482826,"52":-0.045092389982556776,"53":0.05558255617078451,"54":0.021095356882143285,"55":-0.2092350481055006,"56":0.09315126742152946,"57":-0.09130793833024355,"58":0.01724684331789291,"59":-0.08277416036502586,"60":-0.10066784705185942,"61":-0.1628037771556425,"62":-0.1708843561955783,"63":-0.23917280176526126,"64":-0.052964578830533314,"65":-0.04879029680420685,"66":0.03713771842477612,"67":0.06471078079305179,"68":0.11133908949823958,"69":-0.05072591583257817,"70":0.0808113798246348,"71":-0.1178531356038586,"72":0.07113602026691404,"73":0.0012429623727098914,"74":0.12008582681161196,"75":-0.03275134724584122,"76":0.009154689261337303,"77":0.14042318603010787,"78":-0.012386709880559104,"79":-0.11948392504527258,"80":-0.17174084350026397,"81":0.19631155685112864,"82":-0.1304469508835588,"83":0.12537340680505776,"84":-0.18999885265042335,"85":0.07915195677148139,"86":0.19175183906235563,"87":0.20160858060761808,"88":0.18860351273371564,"89":0.13914914126383113,"90":-0.09823279456051204,"91":0.12927050959202543,"92":-0.21786379029797567,"93":0.15644024104737864,"94":0.09888156682295976,"95":-0.00591119630163741,"96":-0.04534262132964981,"97":-0.06226511519192231,"98":0.007183418540193936,"99":-0.11626322111779194,"100":0.0159651547370718,"101":-0.07473512990325641,"102":-0.15788904625164962,"103":0.003693108357698273,"104":0.061223291159552475,"105":0.19620629555223784,"106":0.08410055296962685,"107":0.07752092632953465,"108":0.1709564566125724,"109":0.1110811113272876,"110":-0.10396426732191792,"111":-0.12384220551754685,"112":0.1601063937770566,"113":-0.051861164663930454,"114":-0.2006525599913115,"115":0.1273966758735888,"116":0.030087851466746283,"117":-0.16087486713645527,"118":0.15823150174133288,"119":0.2033537421781167,"120":-0.23464524308402884,"121":-0.10161332723734015,"122":-0.10011211629367182,"123":0.10993720828384092,"124":0.07222025833344324,"125":0.001102575842530367,"126":0.035117434463359125,"127":0.05744907386270351,"128":0.03140281137774648,"129":-0.0718143669290969,"130":0.2035742195708904,"131":-0.16280693002567936,"132":0.07888829919539601,"133":0.16372560266206804,"134":0.08322250512891753,"135":0.08974734638296782,"136":0.14655697529976927,"137":0.18330085353810943,"138":-0.17995876373821806,"139":0.06155087911162963,"140":0.17337926894016586,"141":-0.1307778573099446,"142":0.056669182698546955,"143":0.06877098003688605,"144":0.0033289291754994878,"145":0.17772584299576158,"146":0.04962023380408299,"147":-0.1677366562621038,"148":-0.06897539036383572,"149":0.1466280988319665,"150":0.14286970217710965,"151":-0.1770784064057371,"152":-0.06244690087620884,"153":0.16440694799607755,"154":-0.15911406193686647,"155":0.1421912032137769,"156":0.20758750679062674,"157":-0.10638615139450044,"158":-0.004483052208018277,"159":-0.19360534497353502,"160":-0.19609810830204158,"161":0.07246655991840745,"162":0.04000335930478727,"163":0.20857640987611517,"164":-0.1345413468252723,"165":0.13945899751426385,"166":-0.19405550227793725,"167":0.06543271854826148,"168":-0.08268298778773546,"169":0.12276176118645354,"170":0.031188011644244337,"171":0.01885910803837279,"172":0.08658999884734556,"173":-0.19554310606700792,"174":0.08112714640064353,"175":-0.05657958877908536,"176":-0.16138035624637131,"177":-0.14432492309348213,"178":-0.18996405011976217,"179":-0.056489086622643035,"180":-0.13690844972080177,"181":0.04123962711858412,"182":-0.16954152751403595,"183":-0.19049811353770799,"184":0.20628893621247585,"185":0.09592401451638698,"186":0.040863744096170995,"187":0.13022708686456091,"188":0.09893562780883866,"189":0.10292665591238714,"190":-0.023570491611749275,"191":0.12508992487727746,"192":0.007221084401147401,"193":0.030252172101236034,"194":-0.10603774847748607,"195":0.11865328344429289,"196":0.000019434751200516234,"197":-0.05280329652175201,"198":-0.07809778561442372,"199":0.11741858432282927,"200":0.11441406326279686,"201":0.0340134158813997,"202":-0.02633230681075771,"203":-0.13175296067660638,"204":0.008846075863370304,"205":-0.09172241901913777,"206":0.13924209468318424,"207":-0.15858564006527479,"208":-0.15892006504314743,"209":-0.11389392047467935,"210":-0.0026717078990243564,"211":-0.12031595415657316,"212":0.15647422055571625,"213":0.06594616295050412,"214":-0.11615629684057983,"215":-0.21899625908212117,"216":-0.1572927373960689,"217":-0.11500058198473163,"218":0.10281818344187844,"219":0.16542731917507308,"220":-0.2243407431742352,"221":-0.04960579245582403,"222":-0.1159664225655412,"223":0.13416725858991785,"224":0.07290551646794072,"225":-0.09537156248181008,"226":0.03814780699868737,"227":-0.16381806038330726,"228":-0.12802214311078874,"229":0.15450436438355,"230":-0.1707054318109977,"231":-0.006867772549145488,"232":0.008596646604236596,"233":0.03017312081885999,"234":-0.09400474624690099,"235":0.19537665966319928,"236":0.042314839242048964,"237":0.13507177406237256,"238":-0.02573332678740348,"239":0.047178044312110715,"240":0.0407182235688786,"241":0.17368792486978676,"242":-0.19040586605365234,"243":0.0346026943213185,"244":-0.1596017093086642,"245":-0.0026189285164640503,"246":0.00092920987768112,"247":0.13329259612082728,"248":-0.1797921270129604,"249":0.05766090825635629,"250":-0.18770463510024119,"251":-0.012450854788773346,"252":0.07074190174913564,"253":-0.21563368277143619,"254":0.009782969195420373,"255":0.040015422726239855}},"10":{"bias":-0.17475054324068798,"weights":{"0":0.08089000831413168,"1":0.03015360990539927,"2":-0.14004154862256543,"3":-0.16462730234698386,"4":-0.035056463756813545,"5":-0.11950848562508741,"6":0.11738743327106554,"7":0.02337935474985648,"8":0.14976861768874222,"9":-0.05309398272507575,"10":0.03164552661806853,"11":0.10036068677493612,"12":0.06668972445762293,"13":0.10480489934182594,"14":0.047670028245377555,"15":-0.03539357212534602,"16":-0.012251552324775046,"17":0.05945282313691189,"18":-0.19698832989563622,"19":0.00620890054001407,"20":0.12327692557770771,"21":0.14510120003574492,"22":0.16476231200340952,"23":0.033384001829877864,"24":-0.03400896245359016,"25":-0.16922495907859228,"26":-0.055333279963936534,"27":0.10484634812282427,"28":-0.10212631515341583,"29":0.10460044540692742,"30":-0.16687924249440445,"31":-0.13571884447931434,"32":0.11150153169246768,"33":-0.04524167415776887,"34":-0.06882735593700613,"35":-0.080848327261285,"36":0.0949660027053794,"37":-0.05553819090481035,"38":0.051447924011562444,"39":0.15838218547402358,"40":0.1339250933505484,"41":-0.1219088940326622,"42":-0.1911655647388564,"43":0.1073943386994642,"44":-0.19133500055909528,"45":-0.025722397263236302,"46":-0.09659073328783992,"47":0.15289689982493262,"48":0.14087444803291693,"49":0.02105871573834356,"50":0.003279953866317384,"51":0.011461185487301469,"52":0.09738267865934452,"53":-0.07071838564849597,"54":0.01733781023831735,"55":-0.10566424404879968,"56":-0.1218751420360228,"57":0.03807440011491176,"58":-0.030864611754784693,"59":0.17378797992257503,"60":-0.13542809213686918,"61":-0.015097145142373624,"62":-0.10698566660217855,"63":0.08697468967743228,"64":-0.06644389095227343,"65":0.19395043409474144,"66":-0.016734568374656034,"67":-0.16766554334577694,"68":-0.05807365885249793,"69":-0.1964349432752531,"70":-0.14203038531345147,"71":-0.0793969998630067,"72":-0.17594567194792765,"73":0.1099434272311656,"74":0.11483426948810509,"75":-0.06710535586710735,"76":0.1007735285384117,