{"layers":[{"r":{},"g":{},"b":{}},{"0":{"bias":0.16038385388241502,"weights":{"r":-0.25940539837909776,"g":0.04755797825067948,"b":-0.17467633654676698}},"1":{"bias":-0.06404293499867904,"weights":{"r":-0.4430344913443993,"g":-0.024256210880451677,"b":-0.1925085604049724}},"2":{"bias":-0.06148706679057181,"weights":{"r":0.229587374681668,"g":-0.09193289940637155,"b":0.04260405493234466}},"3":{"bias":0.0878325537427093,"weights":{"r":0.06158357756513366,"g":0.06741822067679026,"b":-0.15873220973745614}},"4":{"bias":0.14821790600976797,"weights":{"r":-0.07597278431068719,"g":-0.21513904254094013,"b":-0.02288355101786335}},"5":{"bias":-0.044176440647585295,"weights":{"r":-0.15695433554474694,"g":-0.11261091639182104,"b":-0.07533420779423618}},"6":{"bias":-0.13440204110436196,"weights":{"r":-0.12971761336108414,"g":0.03376285659795893,"b":-0.2259810063793913}},"7":{"bias":-0.07654131770415842,"weights":{"r":-0.16736369708469395,"g":-0.2756751407326939,"b":-0.38961407689799754}},"8":{"bias":-0.02469036466243477,"weights":{"r":0.057727826692594075,"g":-0.05513275411477176,"b":0.3081865361320769}},"9":{"bias":-0.08067723034953626,"weights":{"r":0.17376973198935164,"g":-0.06789599475279615,"b":0.28314468889277017}},"10":{"bias":0.07649416044991042,"weights":{"r":0.138098629873241,"g":-0.10379477972457495,"b":0.08339616658773256}},"11":{"bias":-0.0925597668423343,"weights":{"r":-0.318361529823181,"g":-0.2218400068090399,"b":-0.3101058813609188}},"12":{"bias":0.16130666776786487,"weights":{"r":-0.18065467910674515,"g":0.11774919561794839,"b":-0.0285233890913841}},"13":{"bias":-0.08039150467225095,"weights":{"r":-0.28750339020772053,"g":-0.08677913151107292,"b":-0.3603080570793918}},"14":{"bias":-0.10178524024346547,"weights":{"r":0.05570696811207407,"g":0.19951684475592135,"b":0.2752591133209336}},"15":{"bias":0.04150353928696399,"weights":{"r":0.2222050077732612,"g":-0.0612916782678914,"b":0.02156611522727631}},"16":{"bias":-0.10604175812255318,"weights":{"r":-0.30362561244850717,"g":-0.23696213484790282,"b":-0.12785656860451583}},"17":{"bias":-0.10205830352873767,"weights":{"r":-0.0983764938110861,"g":0.04681381030142775,"b":-0.15282117609304985}},"18":{"bias":-0.010715924786564517,"weights":{"r":0.3965936531050916,"g":0.21537898591430443,"b":0.33705375490644923}},"19":{"bias":-0.020398419813772824,"weights":{"r":0.2396341211595314,"g":-0.06481663169194611,"b":0.215627387528478}},"20":{"bias":0.07445082651629747,"weights":{"r":0.009412299943927865,"g":-0.1349284993721489,"b":-0.1596024423603749}},"21":{"bias":-0.16942710849197584,"weights":{"r":0.3207013671070133,"g":0.03928344659194641,"b":0.3503512717628339}},"22":{"bias":0.16300731597171528,"weights":{"r":-0.29296352629704825,"g":-0.17858941116209762,"b":-0.25541340672722723}},"23":{"bias":0.18851058142798144,"weights":{"r":-0.1828520693620226,"g":-0.2630697535988939,"b":-0.32024033192752543}},"24":{"bias":0.1757924146557123,"weights":{"r":-0.13379234398718304,"g":-0.16168841422190097,"b":-0.30058134087714916}},"25":{"bias":-0.0026840576653609587,"weights":{"r":0.04517389488615877,"g":-0.16566043282685525,"b":0.14627514853002674}},"26":{"bias":-0.11233471986738568,"weights":{"r":-0.15929857059308863,"g":-0.1678847550439134,"b":-0.15408688800683168}},"27":{"bias":-0.018693861917508502,"weights":{"r":-0.12255953184218069,"g":-0.12712787425743707,"b":0.05958249980996727}},"28":{"bias":0.10726180068364571,"weights":{"r":0.1739865567287533,"g":0.0002725046067795653,"b":0.10291791773616688}},"29":{"bias":0.13120238314417276,"weights":{"r":-0.3166973977261933,"g":0.11230077089727274,"b":-0.07145259288251521}},"30":{"bias":0.1822148687292056,"weights":{"r":0.194741208699964,"g":-0.12547602688070889,"b":0.006356397702266143}},"31":{"bias":-0.011202645172456028,"weights":{"r":-0.32417103565359584,"g":-0.2146225200652805,"b":-0.24899742581960374}},"32":{"bias":0.05939462532605532,"weights":{"r":-0.11975107033536593,"g":0.09924041335760593,"b":-0.011252434442052778}},"33":{"bias":0.03743021791804774,"weights":{"r":-0.021450540689235208,"g":-0.05984106672502211,"b":0.10114415446633433}},"34":{"bias":0.12593104122033424,"weights":{"r":0.19839100467564458,"g":-0.1015062421805844,"b":0.2835028499001027}},"35":{"bias":-0.07776312280102768,"weights":{"r":-0.31287244645614304,"g":-0.03503493735853364,"b":-0.21995573851263497}},"36":{"bias":-0.1763560426784028,"weights":{"r":0.29899800172711605,"g":0.16952000048674853,"b":0.2874937612344732}},"37":{"bias":0.046039190969258834,"weights":{"r":0.06221731468498181,"g":-0.17378977295001374,"b":-0.01749470206985374}},"38":{"bias":0.004516688287148426,"weights":{"r":-0.22937414049780241,"g":-0.2757341609966571,"b":-0.420126286000613}},"39":{"bias":0.04821252004014318,"weights":{"r":0.04855495686333341,"g":-0.17137766297202617,"b":0.07833270634501954}},"40":{"bias":-0.08733489664401488,"weights":{"r":-0.3715192143483902,"g":-0.1581766237915423,"b":-0.3885010303791596}},"41":{"bias":-0.015417668561152682,"weights":{"r":0.21208282700093067,"g":0.20179064655887874,"b":0.18871536530726413}},"42":{"bias":0.17472011410926663,"weights":{"r":-0.016272844446907322,"g":0.10230282179112779,"b":0.3127709662292755}},"43":{"bias":-0.024365972135931283,"weights":{"r":-0.09234308882944076,"g":0.12038578382720526,"b":-0.1529672357765301}},"44":{"bias":-0.13494115559226305,"weights":{"r":0.18085142019479045,"g":0.1540761877041258,"b":-0.14113224939092733}},"45":{"bias":-0.18266909277162915,"weights":{"r":-0.08375325339948221,"g":-0.15066202291221206,"b":-0.01664785580251312}},"46":{"bias":0.005072632519867688,"weights":{"r":-0.031696354322829356,"g":0.2425854392279679,"b":0.307881438650635}},"47":{"bias":-0.08844290891041841,"weights":{"r":0.0158598658905707,"g":0.10515042460511001,"b":0.33400293978305506}},"48":{"bias":0.05536005182155219,"weights":{"r":-0.21493264146081065,"g":-0.12163879990574335,"b":-0.020472106821417157}},"49":{"bias":0.009158704841583454,"weights":{"r":-0.25288625829132605,"g":-0.24557398662247065,"b":-0.33337421021898517}},"50":{"bias":0.024063018029284282,"weights":{"r":0.13316709934625104,"g":-0.12618385608615856,"b":0.3151745335671094}},"51":{"bias":0.11804880612833164,"weights":{"r":-0.21399596443057756,"g":0.10520540631825809,"b":-0.1978204039746068}},"52":{"bias":0.19684613594767733,"weights":{"r":0.06794597280216118,"g":-0.16290091723431763,"b":0.024016703373239672}},"53":{"bias":0.059095604750028834,"weights":{"r":-0.18225614298861328,"g":0.022899181889150654,"b":-0.05805886624640018}},"54":{"bias":-0.15237689943669375,"weights":{"r":-0.26741789521899223,"g":-0.14101254574775315,"b":-0.3153288818790438}},"55":{"bias":-0.010495335801784871,"weights":{"r":-0.28787470851635627,"g":-0.15047912568521543,"b":-0.07458199099939855}},"56":{"bias":0.05541511847716771,"weights":{"r":0.031182117809453565,"g":0.04803598291284382,"b":0.3064922681880176}},"57":{"bias":0.15727405778438036,"weights":{"r":0.05862509875351338,"g":0.01884545313362236,"b":-0.2327879468729533}},"58":{"bias":-0.0012703975017421569,"weights":{"r":-0.18911266845363203,"g":0.1285348338020337,"b":0.07380770899430811}},"59":{"bias":0.12099657006047296,"weights":{"r":-0.1328050108120169,"g":0.1370643655029001,"b":0.09882835560223673}},"60":{"bias":-0.13727447999651818,"weights":{"r":0.11588128911771758,"g":-0.03806846073263887,"b":0.322741766937327}},"61":{"bias":0.1639070209663683,"weights":{"r":0.19875829818076074,"g":-0.09465707475998453,"b":0.06902246365190354}},"62":{"bias":-0.16647963491703333,"weights":{"r":-0.23679620619366637,"g":-0.03969386827165403,"b":0.013610429018879608}},"63":{"bias":0.0439077178345716,"weights":{"r":-0.1760360244357085,"g":-0.21534708385334514,"b":-0.23168132230562186}},"64":{"bias":-0.1464543539932752,"weights":{"r":0.0574156500390273,"g":0.13066167997899847,"b":0.11966550243305032}},"65":{"bias":0.16643195216631268,"weights":{"r":0.2341009684196729,"g":-0.06274189552299961,"b":0.36082062429288747}},"66":{"bias":-0.07447070848318584,"weights":{"r":0.023022683922128626,"g":0.1393510202602319,"b":-0.056464260382631706}},"67":{"bias":0.01939349263982245,"weights":{"r":-0.03646242394771274,"g":-0.0759631520178152,"b":0.25743945800764606}},"68":{"bias":0.10037108922633546,"weights":{"r":-0.10126022547119087,"g":-0.11815923159949006,"b":-0.27177875514036764}},"69":{"bias":-0.035033611530144455,"weights":{"r":0.025260435406991934,"g":0.10091023309791229,"b":0.027761828624743058}},"70":{"bias":-0.10000249850415081,"weights":{"r":-0.27172971038109456,"g":-0.14357315655860947,"b":-0.35147737869133655}},"71":{"bias":0.026777216837567296,"weights":{"r":-0.27429010375953466,"g":-0.11182624121260347,"b":-0.004743873967722385}},"72":{"bias":-0.02236157708416995,"weights":{"r":0.11923687835962196,"g":0.1449194609190647,"b":-0.044433646593672056}},"73":{"bias":0.0756716547435449,"weights":{"r":-0.06368170451242264,"g":0.013368400719441571,"b":-0.07512555814990977}},"74":{"bias":-0.00447914332487263,"weights":{"r":-0.20512918302328992,"g":-0.09235739598695933,"b":0.06225216362688181}},"75":{"bias":0.021134669023696772,"weights":{"r":-0.28600371924056994,"g":-0.056471374299626724,"b":-0.27253734404378455}},"76":{"bias":-0.03038142000413955,"weights":{"r":-0.21987451591415644,"g":0.13565399621984603,"b":0.08666273195183433}},"77":{"bias":0.0442106981224237,"weights":{"r":-0.10188727660018007,"g":-0.11574624314509993,"b":0.1671227538612497}},"78":{"bias":-0.12012656070657572,"weights":{"r":0.022456930521003778,"g":-0.2527164879280163,"b":-0.34723668272186464}},"79":{"bias":-0.02213094854182877,"weights":{"r":-0.10896647890474125,"g":-0.12194940966622915,"b":-0.21821274563798604}},"80":{"bias":-0.16408759060146302,"weights":{"r":0.027221412199399855,"g":-0.15461799652758415,"b":-0.16802328660169855}},"81":{"bias":0.11761421131770111,"weights":{"r":0.05336048128790154,"g":0.12185222829972547,"b":0.03409382853739271}},"82":{"bias":-0.07432145452690604,"weights":{"r":-0.30839509720574715,"g":-0.14927581940139018,"b":-0.21919800189420727}},"83":{"bias":0.144865720987237,"weights":{"r":-0.1804671149229173,"g":-0.06550624886712272,"b":-0.08032833948859841}},"84":{"bias":0.09355998231404701,"weights":{"r":-0.10275065908727456,"g":-0.008688248237806817,"b":-0.11762078259996368}},"85":{"bias":-0.030348721776829086,"weights":{"r":0.18429919895665092,"g":0.0235997896311768,"b":-0.1395773078463288}},"86":{"bias":0.019930831542644373,"weights":{"r":-0.3292567101598097,"g":-0.05943802456984963,"b":-0.21044597177291835}},"87":{"bias":-0.09746029696121379,"weights":{"r":-0.30757317010287866,"g":-0.006374975546298842,"b":-0.2466825160515631}},"88":{"bias":-0.1308876702439916,"weights":{"r":0.22124267707338768,"g":0.07054509478594276,"b":-0.009351172938475807}},"89":{"bias":-0.014690560966574942,"weights":{"r":0.06735141267995479,"g":-0.07634802476113671,"b":-0.045717793687576606}},"90":{"bias":0.06108975660750222,"weights":{"r":-0.16740837481420456,"g":0.07220346533930784,"b":-0.0037123040085730273}},"91":{"bias":-0.050031845732075045,"weights":{"r":0.011688751938664197,"g":0.03268224403022274,"b":-0.040255084187185236}},"92":{"bias":0.024082323616766106,"weights":{"r":-0.32274721346753577,"g":-0.19018451573207076,"b":-0.317666598413194}},"93":{"bias":0.025370957945283792,"weights":{"r":0.2424872857734425,"g":0.2694878965581631,"b":0.3463413397082308}},"94":{"bias":0.0524669590011842,"weights":{"r":-0.307739997209108,"g":0.00526917164101468,"b":-0.047576317912958195}},"95":{"bias":0.07876961906913246,"weights":{"r":0.11317388795118657,"g":0.18381433669852776,"b":-0.03628437201428791}},"96":{"bias":-0.007130025680371901,"weights":{"r":-0.05853732378190497,"g":0.0635948283117237,"b":0.1846556874442466}},"97":{"bias":0.09035324127666704,"weights":{"r":0.10146165305725291,"g":-0.0681813668195308,"b":0.23450220109333741}},"98":{"bias":0.12257923712690218,"weights":{"r":-0.39826077633085427,"g":-0.20627642438496838,"b":-0.36679313762789684}},"99":{"bias":-0.02902092626433426,"weights":{"r":0.17965411523233812,"g":-0.14360326488916855,"b":0.1207412263817901}},"100":{"bias":0.025934588962880183,"weights":{"r":-0.008924127116529724,"g":-0.14223242218198015,"b":0.03542216453003858}},"101":{"bias":0.1872138747223658,"weights":{"r":-0.3144110983136055,"g":-0.2441385969447139,"b":-0.1323314997530046}},"102":{"bias":-0.144115813348398,"weights":{"r":-0.22853870036019128,"g":-0.08282078235534138,"b":-0.3389136258085601}},"103":{"bias":-0.006422414806609049,"weights":{"r":0.01715548739252497,"g":0.00830508567645026,"b":0.10657238751711964}},"104":{"bias":-0.019021270643162013,"weights":{"r":0.01163255574311414,"g":-0.007689153265133714,"b":0.2385559314700959}},"105":{"bias":0.1628146359392219,"weights":{"r":-0.08750689100424797,"g":-0.10948737146605585,"b":0.24474522778518643}},"106":{"bias":-0.07880485502988543,"weights":{"r":0.1057983913050157,"g":-0.019320506632225325,"b":0.09974125910234521}},"107":{"bias":-0.1889574253617578,"weights":{"r":0.035104198016351854,"g":0.11170338713142143,"b":0.17729447081158795}},"108":{"bias":0.11294568267890855,"weights":{"r":-0.40715681541340937,"g":-0.22927522983354257,"b":-0.39065596130569546}},"109":{"bias":0.1405430613185742,"weights":{"r":-0.05419022631508519,"g":-0.16722297635966418,"b":0.1641685895712335}},"110":{"bias":-0.11171964458538916,"weights":{"r":0.025174624334915543,"g":0.18751838497500095,"b":0.13562743487694992}},"111":{"bias":-0.037126474796304,"weights":{"r":0.019198926790692815,"g":-0.2466826612837243,"b":-0.3134787441805516}},"112":{"bias":-0.023544693816407745,"weights":{"r":0.20766130925382972,"g":0.17242533935749355,"b":0.11888484099129128}},"113":{"bias":-0.07631071849156597,"weights":{"r":-0.07465765498833721,"g":0.03142702678016732,"b":0.18332394908551689}},"114":{"bias":-0.15371999085533405,"weights":{"r":0.25829075321879913,"g":0.33062668392698674,"b":0.45468909845027083}},"115":{"bias":-0.11659009497125848,"weights":{"r":0.42448982075900565,"g":0.1552112831315177,"b":0.2981374732704552}},"116":{"bias":-0.09801935569827727,"weights":{"r":0.2835961971195693,"g":-0.00872184118511126,"b":0.22714040460255952}},"117":{"bias":-0.0893738136931816,"weights":{"r":-0.21111087378572027,"g":-0.22632256621484284,"b":-0.10478759171304321}},"118":{"bias":-0.18701271494809432,"weights":{"r":0.01817582432808361,"g":0.12178347805723898,"b":0.3290396586637413}},"119":{"bias":0.14006536074048329,"weights":{"r":-0.2158442402584274,"g":-0.05987169318786094,"b":-0.5111509704320135}},"120":{"bias":0.068404793634386,"weights":{"r":0.061159374291760354,"g":-0.1558794788365546,"b":0.14099111535400993}},"121":{"bias":-0.09793520226579597,"weights":{"r":-0.24524646331502145,"g":-0.010647187811975522,"b":-0.29207403490934414}},"122":{"bias":-0.03628460499762644,"weights":{"r":-0.022532406316464814,"g":0.15745489768820567,"b":0.28517514599726757}},"123":{"bias":0.11587280464963434,"weights":{"r":-0.32782978740501323,"g":-0.06975077601758306,"b":-0.20016430465011736}},"124":{"bias":0.09895696524558861,"weights":{"r":0.12851904703373954,"g":0.22853469555663455,"b":0.17252896579574417}},"125":{"bias":0.09077927041398884,"weights":{"r":0.16314326222803818,"g":-0.06220697775562728,"b":0.2509340795470102}},"126":{"bias":0.10070710092565027,"weights":{"r":0.30123878841895646,"g":0.03286994996004968,"b":0.10598082531344707}},"127":{"bias":-0.14188094922422673,"weights":{"r":0.15614426403493506,"g":0.13856441935945546,"b":0.2302839526023167}},"128":{"bias":0.0771590703189192,"weights":{"r":-0.2701554517096022,"g":-0.29091452239925875,"b":-0.2732223430457459}},"129":{"bias":0.06580965121080865,"weights":{"r":-0.22749429799677745,"g":-0.17619033072716325,"b":-0.11565314005185817}},"130":{"bias":0.057809646646504016,"weights":{"r":-0.13809963771744985,"g":0.1899277415476141,"b":0.0863715652253851}},"131":{"bias":0.10201556093474604,"weights":{"r":-0.17925764486764928,"g":-0.2183377335473603,"b":-0.2331464436942677}},"132":{"bias":-0.04280226353480847,"weights":{"r":0.31920571030714223,"g":0.24048728095064917,"b":0.20223697733079488}},"133":{"bias":0.05801561078068115,"weights":{"r":0.02395470793350681,"g":-0.051522024888987696,"b":-0.022575487714844418}},"134":{"bias":-0.07417879610938595,"weights":{"r":0.4595681839845476,"g":0.0433230193588396,"b":0.5051433924040094}},"135":{"bias":0.1035491285483728,"weights":{"r":-0.074330358989687,"g":0.029566530166031713,"b":0.13663463652451377}},"136":{"bias":-0.08589137133451923,"weights":{"r":0.11130979184385445,"g":0.1269498810151986,"b":0.09187557425985668}},"137":{"bias":0.009786667596700823,"weights":{"r":-0.18224857182019774,"g":0.13672041730979387,"b":-0.08123749361830963}},"138":{"bias":-0.0461903708537335,"weights":{"r":0.06159940658304606,"g":0.19659385583434383,"b":-0.1066158227317417}},"139":{"bias":-0.04316216524121525,"weights":{"r":0.25379456027847375,"g":0.19919534180267193,"b":-0.021920724246646955}},"140":{"bias":-0.06406754012506174,"weights":{"r":-0.18073831756646191,"g":-0.07432088909435362,"b":-0.2515699691287188}},"141":{"bias":0.1715658694080087,"weights":{"r":-0.13257733300805746,"g":0.03238478447911835,"b":-0.0656201336110209}},"142":{"bias":-0.11361648560958856,"weights":{"r":-0.06769028770014926,"g":-0.1339451081922831,"b":0.0838838825636803}},"143":{"bias":0.05155498775605881,"weights":{"r":0.22270016689460195,"g":0.23602521402741686,"b":0.3345266829745321}},"144":{"bias":-0.08283837650013752,"weights":{"r":0.06322406040269125,"g":0.1778222770360009,"b":0.25291512690789114}},"145":{"bias":-0.03915660837359933,"weights":{"r":0.18960405805870525,"g":0.05977141445491069,"b":0.25946776917939673}},"146":{"bias":0.10281225691575699,"weights":{"r":0.06848968491145786,"g":0.14672006878345456,"b":-0.12851855426700146}},"147":{"bias":0.14158932895612622,"weights":{"r":-0.01175150708423094,"g":0.07194763600967201,"b":0.31923801747095465}},"148":{"bias":0.08568582865833149,"weights":{"r":-0.391679235698818,"g":-0.26194179347361946,"b":-0.17596420696699178}},"149":{"bias":0.1083924868689579,"weights":{"r":0.01672649971104822,"g":-0.16161127048959598,"b":-0.014396745206012999}},"150":{"bias":-0.08210538409579372,"weights":{"r":0.21394173467000369,"g":0.11680819618772667,"b":0.15300221788313192}},"151":{"bias":0.12658729650357467,"weights":{"r":0.026637780311880698,"g":0.08891646909548194,"b":-0.03627112015001141}},"152":{"bias":0.08468285862424073,"weights":{"r":0.04353034448284752,"g":0.21698081088422141,"b":0.3267878613551807}},"153":{"bias":0.16049536986828597,"weights":{"r":-0.18138948799889643,"g":0.1605178893198927,"b":0.1341002325548808}},"154":{"bias":-0.030929109459160612,"weights":{"r":-0.19358004774875887,"g":0.0166164950099316,"b":-0.22179387952849675}},"155":{"bias":0.1710213708023277,"weights":{"r":-0.136608099625166,"g":-0.04868163654502306,"b":0.12759678328454177}},"156":{"bias":-0.18009886013329884,"weights":{"r":0.08218499151265214,"g":0.18430478808948708,"b":0.07158635496715794}},"157":{"bias":-0.07008213871711459,"weights":{"r":0.30145207170861,"g":-0.00332021518154096,"b":0.3230048125443232}},"158":{"bias":0.1280355908367441,"weights":{"r":-0.021419856419530255,"g":-0.045156923252915065,"b":0.012373975195016327}},"159":{"bias":0.015299623461261529,"weights":{"r":0.3151257969377093,"g":-0.06796247503566688,"b":0.29545544856581196}},"160":{"bias":0.01392187968556362,"weights":{"r":-0.06405056589296218,"g":0.12311591435639965,"b":-0.25314280997534205}},"161":{"bias":0.1524581208702216,"weights":{"r":0.029454963330143902,"g":0.007513569409877361,"b":0.16955836622091072}},"162":{"bias":-0.0021809280940846667,"weights":{"r":-0.18833933329246458,"g":-0.004047933173456408,"b":-0.16134167883630546}},"163":{"bias":0.047929131137599966,"weights":{"r":-0.025941228326003624,"g":0.049329317552581284,"b":-0.048136079863865304}},"164":{"bias":-0.1425239867103243,"weights":{"r":-0.3199681908992352,"g":0.05642939296164736,"b":-0.2902154162421402}},"165":{"bias":-0.03408578584005198,"weights":{"r":-0.08214746911383838,"g":-0.15519155985243377,"b":0.08773504979543853}},"166":{"bias":-0.0697962563300434,"weights":{"r":-0.3385552936662262,"g":-0.1721012811619784,"b":-0.18492940811650652}},"167":{"bias":0.07847016620776211,"weights":{"r":-0.0846417622950734,"g":-0.23333440198542957,"b":-0.3232563758291432}},"168":{"bias":-0.1428905593581234,"weights":{"r":0.0008823804201023537,"g":-0.1883575449144953,"b":-0.04409484610011011}},"169":{"bias":0.1853812046296519,"weights":{"r":0.21588522744910035,"g":-0.022646221109378466,"b":0.20438508725185286}},"170":{"bias":-0.06377881038070063,"weights":{"r":0.08375148097107153,"g":0.2015388173993866,"b":0.11794656905655637}},"171":{"bias":0.116395295353904,"weights":{"r":0.002952696401812663,"g":0.1276077617864791,"b":-0.061014335078503054}},"172":{"bias":-0.19746517367457597,"weights":{"r":0.08350296920104115,"g":-0.1514551154266955,"b":0.16601850969136708}},"173":{"bias":-0.08093041070087606,"weights":{"r":0.019651062679950586,"g":0.09913688139787971,"b":0.2413426405095766}},"174":{"bias":0.18090321904924908,"weights":{"r":-0.12154307906826144,"g":-0.0774745428719085,"b":-0.17909454172538575}},"175":{"bias":0.1360552861789976,"weights":{"r":-0.07516429176133291,"g":0.062414214401417326,"b":0.11844376057800203}},"176":{"bias":-0.17757376150845766,"weights":{"r":-0.20896957741428362,"g":0.1366221048224029,"b":-0.036413021053443455}},"177":{"bias":0.01748149200505261,"weights":{"r":-0.08670309206529764,"g":-0.1613377789609759,"b":0.216569146305998}},"178":{"bias":-0.1644546315275028,"weights":{"r":-0.10787427002409104,"g":-0.17947339875608737,"b":0.07669877840316867}},"179":{"bias":0.13128657122976448,"weights":{"r":-0.09680421787495867,"g":0.16411824883064513,"b":0.08830715358312241}},"180":{"bias":0.025034461070603475,"weights":{"r":0.07872897157011786,"g":0.06602208293568118,"b":0.15276649387657448}},"181":{"bias":-0.08291565032328627,"weights":{"r":0.15230182756467492,"g":-0.08401204990186097,"b":0.3078734539133839}},"182":{"bias":-0.01232169481139816,"weights":{"r":0.06940404012361955,"g":-0.11902129769612216,"b":-0.015300122811223612}},"183":{"bias":0.02285573145621227,"weights":{"r":-0.1637452974090109,"g":0.17288252271319896,"b":-0.03539304682411353}},"184":{"bias":0.10385992991522038,"weights":{"r":-0.06310144316044049,"g":-0.13468955741411653,"b":-0.20139828439030286}},"185":{"bias":0.0030678603428365447,"weights":{"r":-0.1488102186618364,"g":-0.004712286189276642,"b":0.12797313128760962}},"186":{"bias":0.038241137757309085,"weights":{"r":0.24754284681524685,"g":-0.132136245752799,"b":0.030495946836922895}},"187":{"bias":-0.1821544328546302,"weights":{"r":0.14729922153126934,"g":-0.03521401977227308,"b":-0.011345008692382775}},"188":{"bias":0.16683455978995815,"weights":{"r":0.2188236546497742,"g":0.12429402941246358,"b":0.2098592805591474}},"189":{"bias":0.006765842597754267,"weights":{"r":0.10167579269258746,"g":-0.04373756903214109,"b":-0.05674862979730913}},"190":{"bias":0.18745681842872478,"weights":{"r":-0.10765373570744884,"g":-0.11573791035021518,"b":0.11823022798490142}},"191":{"bias":-0.12615357391931628,"weights":{"r":-0.09232030612892753,"g":-0.21949978127403466,"b":-0.13722361259385105}},"192":{"bias":-0.1599757564101925,"weights":{"r":-0.2228746511176916,"g":-0.10330630166678803,"b":0.02737850187145946}},"193":{"bias":-0.09040333176890886,"weights":{"r":-0.0988968071865723,"g":-0.08330041759501192,"b":0.1607825688705911}},"194":{"bias":0.09054425113143746,"weights":{"r":-0.34268441557396095,"g":-0.2163092321534645,"b":-0.43487997331834166}},"195":{"bias":-0.02407675668623618,"weights":{"r":0.0032092786261020355,"g":-0.016995661808551384,"b":0.09924181039648623}},"196":{"bias":0.0146967460427665,"weights":{"r":-0.22705159075726086,"g":-0.08665674070424106,"b":-0.033407249575233916}},"197":{"bias":0.0241011413674867,"weights":{"r":-0.17941434377287946,"g":0.17405242427302675,"b":0.183936361611245}},"198":{"bias":-0.1409571881073592,"weights":{"r":0.022247645725275152,"g":0.04576259074533908,"b":-0.12054128394927935}},"199":{"bias":0.15737335835536895,"weights":{"r":0.17524601335296558,"g":0.13076946802337072,"b":0.42386037361989565}},"200":{"bias":-0.11274465254241034,"weights":{"r":0.1439156750437536,"g":0.19827142824843025,"b":0.31255212218134687}},"201":{"bias":0.16533058380716353,"weights":{"r":0.1270035946480188,"g":0.05801908819920062,"b":0.0839503954746083}},"202":{"bias":0.15643019129404018,"weights":{"r":0.16018991574801825,"g":0.06513562606825418,"b":-0.027870024325105276}},"203":{"bias":-0.08984160425476385,"weights":{"r":0.383520881207919,"g":-0.07458741643294584,"b":0.2756308118094466}},"204":{"bias":0.0035823982740805045,"weights":{"r":-0.15949029884424437,"g":-0.19260960864969762,"b":-0.039067511924890753}},"205":{"bias":0.16513880814592333,"weights":{"r":-0.13015355212243485,"g":-0.1759846182128798,"b":-0.2362843816979496}},"206":{"bias":0.1357544805680261,"weights":{"r":-0.1331884150382213,"g":-0.21569049500528625,"b":-0.19348149637683837}},"207":{"bias":-0.12745151977946131,"weights":{"r":-0.002048855383168352,"g":-0.11000405790814591,"b":-0.1095501469389279}},"208":{"bias":-0.19269366332924562,"weights":{"r":0.22830204778712856,"g":0.13232053108176015,"b":0.2626061499626763}},"209":{"bias":-0.05155653619618466,"weights":{"r":0.050574566473539875,"g":-0.08212336992839027,"b":0.05196945386645324}},"210":{"bias":-0.10736457650386573,"weights":{"r":0.3315106862465269,"g":0.09883096671331935,"b":0.25940223410115076}},"211":{"bias":-0.09286929161494314,"weights":{"r":-0.005763703331415942,"g":0.128576125293032,"b":-0.040854385686650355}},"212":{"bias":0.05218378024908236,"weights":{"r":-0.05751436355644241,"g":-0.1347669893289237,"b":-0.19542055061043312}},"213":{"bias":0.15041886550860165,"weights":{"r":-0.24002984513496764,"g":-0.11249079760653224,"b":-0.4136823285046547}},"214":{"bias":-0.016950543358885677,"weights":{"r":-0.09698664783234479,"g":-0.045791300040506376,"b":-0.10039365669917613}},"215":{"bias":0.01955064053362636,"weights":{"r":-0.14487203053232797,"g":-0.05755062700166428,"b":0.13224771615593833}},"216":{"bias":-0.16267831806084923,"weights":{"r":0.08547328369525488,"g":-0.16378448206519697,"b":0.10356735991147965}},"217":{"bias":-0.07844262559743882,"weights":{"r":-0.095889523577426,"g":0.16587213661608874,"b":-0.03903331180084659}},"218":{"bias":-0.008443594189102106,"weights":{"r":-0.3433019847752767,"g":-0.002161626649541487,"b":-0.31028350672657606}},"219":{"bias":0.002028988695314015,"weights":{"r":-0.13066065732939441,"g":0.020153302144080384,"b":-0.28042629084217585}},"220":{"bias":-0.12265509283219629,"weights":{"r":0.23476260810980315,"g":0.04551144767586027,"b":0.43679447367933755}},"221":{"bias":-0.07380445288737561,"weights":{"r":0.1828289324976512,"g":0.09806791909961615,"b":-0.047514884742830596}},"222":{"bias":0.12864430620678377,"weights":{"r":-0.2896208321078973,"g":-0.11135412343829587,"b":-0.15318523817246343}},"223":{"bias":0.0015593875916149063,"weights":{"r":0.08535708211476324,"g":0.14963379786386208,"b":0.21486626092571046}},"224":{"bias":0.034632436400898574,"weights":{"r":0.3814732743205461,"g":0.196906653470164,"b":0.3531890813642796}},"225":{"bias":-0.11297131775279967,"weights":{"r":0.12261843434817182,"g":0.05723772817296988,"b":0.23613065526983748}},"226":{"bias":0.03952627348702684,"weights":{"r":0.09024318396409602,"g":0.1768222022996671,"b":-0.03664701292344879}},"227":{"bias":-0.07625989767297099,"weights":{"r":0.1134154972135083,"g":0.19481291206431808,"b":0.0075974730828091}},"228":{"bias":0.16285234221922099,"weights":{"r":-0.23911595627311646,"g":-0.043551092428540085,"b":-0.15090663023171236}},"229":{"bias":-0.04693446813518289,"weights":{"r":-0.005912986971661114,"g":0.05236726093221443,"b":-0.05447468206298175}},"230":{"bias":-0.06486225679078354,"weights":{"r":-0.1736291061931025,"g":-0.1483140913564761,"b":-0.17903687548391842}},"231":{"bias":0.10032192024095427,"weights":{"r":-0.04066153713758176,"g":-0.0324678553643556,"b":-0.00158343975570435}},"232":{"bias":-0.060209196857271816,"weights":{"r":0.1650184553012821,"g":0.06433952254318072,"b":0.16156018118157195}},"233":{"bias":0.002762020654943764,"weights":{"r":0.21666670125874823,"g":0.06304878350984337,"b":0.09567682702311249}},"234":{"bias":0.0463673963418241,"weights":{"r":-0.09326150754019893,"g":-0.08240395980219083,"b":0.020426051144834468}},"235":{"bias":0.10600540718027743,"weights":{"r":0.2529147698925106,"g":-0.012770357904212208,"b":0.18213627541032704}},"236":{"bias":-0.16438014010459823,"weights":{"r":-0.22595194839434676,"g":-0.0748601958288562,"b":-0.23314668915601178}},"237":{"bias":-0.13520710367630795,"weights":{"r":0.12596633585833272,"g":0.10703829755205689,"b":0.03642213545404645}},"238":{"bias":0.16488158327502248,"weights":{"r":-0.30741185626305656,"g":-0.12752349502716598,"b":-0.08911662828942894}},"239":{"bias":0.05036362623558973,"weights":{"r":0.07798180533903236,"g":0.21665431078583666,"b":-0.13667258764683013}},"240":{"bias":-0.1607249366620459,"weights":{"r":-0.30507947497351406,"g":-0.17730486896550873,"b":-0.24651080709351375}},"241":{"bias":-0.045955815718367585,"weights":{"r":-0.22336390815615423,"g":-0.025590514749748813,"b":-0.03157469319425821}},"242":{"bias":-0.16405351325931278,"weights":{"r":0.18031284854884375,"g":0.1672191863129336,"b":0.3676499082805695}},"243":{"bias":-0.180194613453841,"weights":{"r":-0.1111949714041483,"g":-0.03684461422431167,"b":0.06430744793876873}},"244":{"bias":0.008346997097755394,"weights":{"r":-0.17739974459858915,"g":-0.21710924583241054,"b":-0.38468891539213146}},"245":{"bias":-0.07575800570351332,"weights":{"r":0.17086007765081712,"g":0.11484295925442166,"b":0.09869835709097094}},"246":{"bias":-0.20301916754920715,"weights":{"r":0.1350089255328663,"g":-0.17641916962874607,"b":-0.05844631962490925}},"247":{"bias":0.013959112893066975,"weights":{"r":0.257717175168772,"g":-0.07860576501453788,"b":0.10382346047102073}},"248":{"bias":0.09898362361080716,"weights":{"r":-0.05652132598446714,"g":0.1820251900567835,"b":-0.002830519109895449}},"249":{"bias":0.026780567807193033,"weights":{"r":-0.3405577761374891,"g":-0.2911952013815808,"b":-0.3976020810182295}},"250":{"bias":-0.03803685669814207,"weights":{"r":-0.3394019982989068,"g":-0.02150949937338773,"b":-0.4399884021247347}},"251":{"bias":-0.108529815212144,"weights":{"r":0.09012492646776712,"g":0.18684509837866387,"b":-0.02103425761792244}},"252":{"bias":0.20719065258365477,"weights":{"r":-0.4147278525088679,"g":-0.11582354103981829,"b":-0.4291628603998846}},"253":{"bias":-0.1186496706580969,"weights":{"r":-0.3622727169021003,"g":-0.10142846102788841,"b":-0.08091716118950218}},"254":{"bias":-0.1198355104087263,"weights":{"r":-0.1734169859559625,"g":-0.1903197080056165,"b":-0.22112693853405999}},"255":{"bias":0.10622994655861002,"weights":{"r":0.004974979654825489,"g":0.08853231794805595,"b":-0.12424548088106543}}},{"0":{"bias":-0.08723722388834325,"weights":{"0":-0.17356966033847968,"1":-0.1976688368154223,"2":-0.12255835433471618,"3":-0.09730941406185055,"4":-0.07789167181119135,"5":-0.10001891646385676,"6":0.1827298972255825,"7":0.05748494031651618,"8":0.11078900752132799,"9":-0.1402259896764093,"10":-0.03600574655152974,"11":-0.1335293430117333,"12":0.002262882429394625,"13":-0.15260899835034641,"14":-0.10796545018116692,"15":0.085999175598192,"16":-0.14946096344834695,"17":-0.11494029372620307,"18":0.20511724968350137,"19":0.2290234227024117,"20":0.05029091453755355,"21":0.2401565338882749,"22":-0.18825888402878574,"23":-0.18688059053778688,"24":-0.17991903160768397,"25":0.14370497464276125,"26":-0.00988959320761465,"27":-0.09602025578377561,"28":-0.14352609406412217,"29":0.0916335943726455,"30":0.022567198278530435,"31":-0.23619925087177732,"32":0.2007337338744093,"33":-0.08414736397488942,"34":0.15482782714239277,"35":0.03506459904958004,"36":0.12051029876328237,"37":-0.049658823439546786,"38":-0.23151969474464404,"39":-0.12877709274250376,"40":-0.08662443094386471,"41":0.06197358537334036,"42":0.19985235506743615,"43":-0.011334924661563708,"44":-0.06298123456024332,"45":0.11165786386748644,"46":-0.08294557736593931,"47":-0.07481835172207536,"48":0.14183948575878827,"49":-0.18431111266739952,"50":0.19698687046391158,"51":0.13347338654454963,"52":-0.08964065949946602,"53":-0.04513709641747176,"54":0.06212713711806002,"55":-0.10598693570783088,"56":-0.037314317472818714,"57":0.03648239242879021,"58":-0.11805666125691477,"59":0.1819778576172071,"60":-0.024246338239134756,"61":0.021742682632151282,"62":-0.10089916996242154,"63":-0.1226477691543985,"64":-0.11309108857070348,"65":0.2114646126317431,"66":-0.07446300295798935,"67":0.016265727525845746,"68":-0.22677613419093726,"69":-0.12697822661405775,"70":-0.10527432653398026,"71":0.07620220161947763,"72":-0.0025876343699740316,"73":-0.1564280490894872,"74":0.14852576327222108,"75":-0.19465047085804194,"76":-0.09967228028562365,"77":-0.11645427958273177,"78":0.03054460750162873,"79":-0.14810001348487065,"80":-0.09803483711710659,"81":0.024466567382018155,"82":-0.194858725338565,"83":0.10742566085394181,"84":-0.06910990090969998,"85":-0.030195876644259677,"86":-0.13116480427825464,"87":-0.15718266112546583,"88":0.16091118994169235,"89":-0.03041467004817843,"90":0.16586150707692304,"91":-0.029637757790660392,"92":-0.1745052406681895,"93":0.17372105128998527,"94":-0.18786500000901415,"95":0.07335044852132845,"96":0.09714758104123383,"97":0.1825838782833084,"98":0.11869716340902643,"99":0.06426375612700981,"100":-0.1729066950852494,"101":-0.0868707350972884,"102":0.09284120463393275,"103":0.19726667465195163,"104":-0.0011042725469792977,"105":-0.06621733834495341,"106":0.21701732376830635,"107":0.1576798562795287,"108":-0.048398392639544416,"109":-0.08897910538775301,"110":-0.04853817521622768,"111":-0.1664229247404578,"112":-0.06565495261088075,"113":-0.023505115936512885,"114":-0.006752381499281735,"115":0.23305458868141277,"116":-0.0865582056316272,"117":-0.0810458347215114,"118":0.17923295730856847,"119":-0.08145462583848449,"120":0.020043799136325355,"121":-0.07017564822772598,"122":0.1513010008596735,"123":-0.14302465873753462,"124":0.23074549987483736,"125":-0.027923711532403396,"126":0.01111916835870083,"127":-0.033338452847966125,"128":-0.028434962720220357,"129":-0.012158368036175595,"130":-0.15418194337054558,"131":-0.10430717667206987,"132":0.13952535167818816,"133":-0.2006525453581678,"134":0.007766378510088422,"135":-0.10771741421914183,"136":0.11350131185377205,"137":-0.1941785933122766,"138":-0.05509627499150244,"139":0.12306169927595458,"140":0.1289000392223979,"141":0.04442241078001582,"142":-0.07005333476834394,"143":0.06034509339692446,"144":0.20964064800431495,"145":0.07845109637644512,"146":-0.13752780517471663,"147":0.16586707749591345,"148":0.12839599573755955,"149":0.05111181292228959,"150":0.21640753206354396,"151":0.10634370766987293,"152":0.1932654013581602,"153":0.09717809489921289,"154":0.1166326320179429,"155":-0.07083991342827776,"156":-0.10741984967328894,"157":0.23949416556749728,"158":0.06768079822429293,"159":-0.07111806024309746,"160":0.1610030030280085,"161":-0.14357359008836584,"162":0.13288585865103594,"163":-0.11175584955996994,"164":-0.24440636085570772,"165":-0.1827761981976752,"166":-0.051234203018742694,"167":-0.058344976369271336,"168":-0.15302807947993993,"169":0.17621742338911378,"170":-0.042703345043366196,"171":-0.011766702486876187,"172":-0.05174830348503051,"173":0.05086629095076763,"174":0.1005536543424545,"175":-0.08752273906586476,"176":0.17582629402809738,"177":0.05745170341898601,"178":-0.07113994667046329,"179":0.07518207747394177,"180":-0.14590513905266678,"181":0.031214013106254358,"182":-0.14052586316325402,"183":0.13159324105421455,"184":0.13611686837154816,"185":0.10671835805581763,"186":-0.07844797024911904,"187":0.1904592238454058,"188":0.07934293666471136,"189":0.03998797438142638,"190":0.17219544325946035,"191":-0.03816233950391897,"192":-0.1986351732763079,"193":0.0731959119751579,"194":-0.24154486942427167,"195":-0.05963498274749532,"196":-0.003421896320324276,"197":-0.12770168466574294,"198":-0.18437903521481583,"199":-0.09409492147903538,"200":0.22724664666268526,"201":-0.12456497898668041,"202":-0.11389631565771678,"203":0.24839804144254515,"204":-0.04452906248498548,"205":0.026893538357338227,"206":0.008720141064716793,"207":-0.14300505841963543,"208":-0.08229679370059545,"209":-0.120052550161097,"210":0.11557330073230612,"211":-0.1298993980119611,"212":-0.1621909754359974,"213":0.01958547410382123,"214":-0.20157315990121474,"215":0.13136072791706171,"216":0.12228416797260129,"217":0.06520051031429938,"218":0.07295570644724951,"219":-0.08612677237101833,"220":0.2559696817087346,"221":0.1595552501381253,"222":-0.06050673167615796,"223":0.0867126588833741,"224":0.10644758239009319,"225":-0.0152557853460936,"226":-0.04957717668625029,"227":0.01157615673902766,"228":-0.042672838569131843,"229":-0.09760396030254127,"230":-0.10324002645893432,"231":0.11390593199347471,"232":0.07672079234499946,"233":0.05529695567910459,"234":-0.008813391354059018,"235":0.0025548167327210684,"236":-0.22584889126350846,"237":0.0024200797265863253,"238":-0.07996817344219768,"239":-0.017552914980043192,"240":0.055264267507354345,"241":-0.11382058037283863,"242":-0.010511671293256726,"243":-0.07300240934887645,"244":-0.07277662147852818,"245":-0.000770884018733984,"246":-0.010198532382491512,"247":0.19582013010766203,"248":0.18504029522101093,"249":-0.15829188632791671,"250":-0.07540048241285048,"251":0.1766279080013922,"252":-0.2602801928624581,"253":-0.02086782245518346,"254":-0.011630095879156387,"255":-0.18033979350841706}},"1":{"bias":0.03491159033803152,"weights":{"0":0.12222835546249353,"1":-0.08975815985951455,"2":-0.08697023078040238,"3":-0.11894764460795519,"4":-0.030976051074351325,"5":0.1724426850175727,"6":-0.13766018528679347,"7":0.09703537812872497,"8":-0.09103090263432514,"9":-0.15687394757256912,"10":-0.06805756187311714,"11":-0.007900579406455957,"12":0.0022119533141397602,"13":0.17954151099461105,"14":0.19447430692365136,"15":0.033300184153331566,"16":0.028529021397581508,"17":0.1360540804044637,"18":-0.009224090216061152,"19":-0.07386110182092,"20":0.05169811893247864,"21":-0.17364816970543318,"22":0.205655422182338,"23":-0.01794650379075977,"24":-0.034123801722532,"25":0.07797823437549775,"26":-0.06645321189091481,"27":-0.03396950597477283,"28":-0.14967893193385026,"29":0.15048908672860103,"30":-0.0808781683662644,"31":0.030067067133994155,"32":0.15613626330127423,"33":-0.15911352458004968,"34":-0.03089995774573807,"35":-0.05723997537374792,"36":-0.056113185265506994,"37":0.09194122151544809,"38":0.09174227702126483,"39":0.1572576848212784,"40":0.06565599949152431,"41":0.0826194779823019,"42":0.049615224928377395,"43":-0.18390960409371243,"44":0.12485474911446989,"45":-0.05820487913023421,"46":-0.13315598872181217,"47":0.17483261273034548,"48":0.14156078981690284,"49":0.02369897089791074,"50":-0.08955932931994633,"51":0.000664957285411385,"52":-0.1530847288601983,"53":0.13413234131564,"54":-0.10369350098356889,"55":-0.1559787816306496,"56":-0.1908763528700965,"57":-0.02279487808181793,"58":-0.05439327568675966,"59":-0.1080649418757555,"60":0.14339311934968366,"61":-0.061581717550781526,"62":0.06968700807704714,"63":-0.11096323063362312,"64":0.1296351316657936,"65":-0.07024501026068104,"66":-0.08032115667865347,"67":0.1604746962990992,"68":0.023509820052434214,"69":-0.19259585447262034,"70":0.06985345712223591,"71":-0.07001869524713547,"72":0.14928920733031895,"73":0.1215242191536271,"74":0.03701782728457389,"75":0.08973429184669314,"76":0.05188680671606486,"77":0.012743208293212628,"78":-0.11049233995197161,"79":0.15715515342010758,"80":0.17472388576394154,"81":0.00828725603550286,"82":-0.09479433749109924,"83":-0.18945522640380127,"84":-0.08632206374417745,"85":-0.09528212466585856,"86":0.19901830467150686,"87":0.04592343467221637,"88":-0.18077288037289643,"89":-0.10817483055176158,"90":-0.1938829006659171,"91":0.13510764129602384,"92":-0.07418234195998628,"93":0.11420650316204334,"94":-0.01684626911405296,"95":-0.10899615380513586,"96":-0.021305404689480386,"97":-0.043493659820323494,"98":-0.0307539379143102,"99":-0.1946839678973243,"100":-0.08727823575108798,"101":-0.022702504356651564,"102":-0.188686829925655,"103":0.11546812640927433,"104":0.0042456102757143215,"105":-0.19998982233201273,"106":-0.029701810369050567,"107":0.11211920978946839,"108":0.05577576279267069,"109":0.1864661390289177,"110":-0.14346147879195265,"111":-0.04255518005838769,"112":-0.02764503119885657,"113":0.035786787050205396,"114":0.1423948819756962,"115":-0.12772135382469751,"116":-0.04202484511253919,"117":-0.12217111646537554,"118":-0.12425866950538068,"119":0.09356389435753784,"120":0.18801161190365853,"121":-0.0634145766410281,"122":-0.030982383593029062,"123":-0.1332917215380298,"124":-0.05368518679939839,"125":-0.06632584491470536,"126":0.17206430252623525,"127":0.02612908918798336,"128":-0.13448049008780658,"129":-0.10159133726448709,"130":-0.13648476524441208,"131":-0.01763303925508848,"132":-0.04477663583993368,"133":-0.16484123019803065,"134":0.17818097729112461,"135":-0.09712647540745714,"136":-0.14410390903366826,"137":0.038120373153693335,"138":-0.10243965717254552,"139":-0.17587020774932124,"140":0.07239147966537647,"141":-0.06285400588104367,"142":-0.14115379202984055,"143":0.09328986399387323,"144":-0.1720578037179936,"145":-0.12005289668954672,"146":-0.12562728110106453,"147":-0.1914378138468491,"148":-0.00577841199035755,"149":-0.09964586421872967,"150":-0.18093518567541084,"151":0.15858683167874735,"152":-0.09003696986374839,"153":-0.09220401790282283,"154":0.0008478764113072947,"155":-0.1818876361209315,"156":-0.10671991306081818,"157":-0.16705998092135707,"158":-0.18442692492534987,"159":-0.054005601823927454,"160":0.09345829702864009,"161":-0.0573779891778916,"162":-0.03755528029544651,"163":0.08883445075545332,"164":0.11508977669797463,"165":-0.029250988683910007,"166":0.03280434961294458,"167":0.1185477377164885,"168":-0.019013818261885206,"169":-0.0009639041942778422,"170":-0.19771741523079572,"171":0.06453342171083394,"172":0.028263611470131594,"173":0.06296772795138292,"174":-0.01779007808659668,"175":-0.19939318631693548,"176":0.11757108329968786,"177":0.14386177361860805,"178":0.1532754368051618,"179":-0.10065500194665224,"180":0.19901231598154348,"181":0.14213150957930917,"182":0.08390765529111036,"183":0.1076788416657594,"184":0.19907960140592457,"185":-0.10636380092875702,"186":-0.08556553485221767,"187":-0.08340548590935823,"188":0.07767248329044703,"189":-0.1712180861038956,"190":-0.16972904256943258,"191":-0.14370158377527872,"192":-0.19059995346379432,"193":0.11268512130734307,"194":-0.04476499578376381,"195":-0.19193232669788832,"196":-0.06435280378152956,"197":-0.04415500341910017,"198":-0.029799139118698647,"199":0.10905325631424242,"200":0.022437462105114037,"201":-0.017584922033993394,"202":0.06839902199622463,"203":0.11567954798884857,"204":-0.17486747651551887,"205":0.0015438458213628875,"206":-0.08556160744420038,"207":0.1343197576998257,"208":0.12059011950595212,"209":-0.15819054853645684,"210":-0.10530462166418247,"211":-0.11256097967064586,"212":0.12369771297016631,"213":-0.08041260527258477,"214":-0.10164650667246243,"215":0.16195148578667587,"216":-0.05871491363318911,"217":-0.12452807456609774,"218":-0.16371306017562565,"219":0.012747998817633352,"220":-0.05006714368763983,"221":-0.00003789954908903102,"222":0.020572610131796735,"223":-0.062385272855083294,"224":-0.07514277068492192,"225":0.12007775278881638,"226":-0.04783431602374129,"227":0.16160651097572304,"228":0.1752124939414979,"229":0.17183377182321494,"230":0.020748000535213904,"231":0.06743755842628843,"232":-0.061306630621143055,"233":0.14537987874893277,"234":-0.18114913383602282,"235":0.08443290204178783,"236":-0.025412365274686315,"237":-0.18683192992041267,"238":0.0027494207838177466,"239":0.09630950361297083,"240":0.1522264177626266,"241":-0.007525550586192621,"242":-0.13002877127285953,"243":-0.054534142506491634,"244":0.08332879573204469,"245":0.1589177294537355,"246":0.16409372464189484,"247":0.17228062968615507,"248":-0.18926543837504875,"249":-0.0701846751095628,"250":-0.1540787083229873,"251":-0.19605416383879454,"252":0.008443517530584674,"253":-0.13642540983347412,"254":-0.029839949917719665,"255":-0.11903065222281624}},"2":{"bias":-0.05625832394528062,"weights":{"0":0.045797540254255434,"1":-0.027925004235962402,"2":0.04125030283605371,"3":-0.12442739353115814,"4":0.09924690396908475,"5":0.150235650431785,"6":-0.18905039312454408,"7":0.20569409313651982,"8":-0.19160216942057423,"9":-0.07056717319962352,"10":-0.02648325468394145,"11":-0.002596163629592498,"12":-0.14765867420318918,"13":0.04267403277164591,"14":-0.08074141112511124,"15":-0.0099524751135084,"16":0.00877410577618284,"17":0.14803312323118867,"18":-0.04551048709218098,"19":-0.13869328978724646,"20":0.0566334637794921,"21":-0.21989768754019712,"22":-0.10422846416498203,"23":-0.0424213606075925,"24":0.06504930401635915,"25":-0.0998775246716978,"26":0.07153731761355489,"27":0.17302715976419222,"28":-0.155892511488793,"29":-0.16164468481124025,"30":-0.14924300674529994,"31":-0.07005031626285976,"32":-0.15158068514435177,"33":0.10982973705341074,"34":0.14724864113374642,"35":0.008201224992805347,"36":0.14759452341316817,"37":0.16408504442451805,"38":0.21968745463505654,"39":0.14350901098454844,"40":0.012969186982188465,"41":0.05932916167880123,"42":-0.06963100116777124,"43":-0.12196419884515763,"44":-0.09386137709770495,"45":0.17452517801620576,"46":-0.0225287852615026,"47":-0.05460582356842345,"48":0.20047604021771848,"49":-0.011474254312323757,"50":-0.1520658565336353,"51":0.14433961632702724,"52":0.19271002092375827,"53":0.06807536640669386,"54":0.09438539526300099,"55":-0.07393853476833007,"56":0.12436207082187949,"57":-0.09081902165079835,"58":-0.1922936005887055,"59":-0.07990317989504883,"60":-0.2004723859651126,"61":-0.12463368823403004,"62":-0.06833160563322746,"63":0.16257838670478117,"64":-0.07875912532805651,"65":0.1457497034817312,"66":-0.05949851738229629,"67":-0.04780538822293054,"68":-0.0763337963199629,"69":0.15474049812002424,"70":0.11837610757958464,"71":-0.06328347265796373,"72":0.19214867591776152,"73":0.10439809667124893,"74":0.15624123287262612,"75":-0.16560006725730086,"76":-0.04795495303696763,"77":-0.055972782462438135,"78":-0.0023865350530078333,"79":-0.006171173486723246,"80":0.1918738950331784,"81":-0.04301721135158197,"82":-0.1828571574297117,"83":0.08396764538858523,"84":0.026504282275686537,"85":-0.18748050609787817,"86":0.18083046903784053,"87":0.10619386350318955,"88":0.01719630103752307,"89":-0.17050469086893433,"90":0.06908916529435638,"91":-0.11379194789971742,"92":0.0016854693431913952,"93":0.1178060749031105,"94":-0.16164984251513206,"95":-0.1691047573538888,"96":-0.11857912274045129,"97":0.12180468159419233,"98":0.015323995500151653,"99":0.0582720557044905,"100":-0.09564015179589415,"101":0.2001357908563844,"102":-0.02394169114648135,"103":-0.18469282676173734,"104":-0.1858882626035441,"105":0.1539255998703381,"106":-0.12127169380625448,"107":-0.023305813375805003,"108":-0.032571123802122834,"109":0.11808000021995901,"110":0.11985786075036448,"111":0.18589678158394632,"112":0.0815848859099079,"113":-0.13719578624857726,"114":0.14042797308288804,"115":-0.06651339572648308,"116":0.12404958222067715,"117":-0.06450076888303047,"118":-0.09808388933738697,"119":-0.07787812836515214,"120":-0.05959753359528223,"121":0.18138374093486156,"122":-0.07609830903990279,"123":-0.13928847278238568,"124":0.048065839563679,"125":-0.002864113219972186,"126":0.1204924538870629,"127":0.038972112124990396,"128":-0.020861245218299122,"129":0.1747736406824026,"130":0.05151196419598316,"131":-0.10474929114975245,"132":-0.18089752348594254,"133":-0.18206424419945544,"134":0.07826863702393964,"135":0.17771344982458073,"136":0.006097148091473758,"137":0.1621415576614046,"138":-0.13611813939848647,"139":0.1606468334490991,"140":-0.12589886202403225,"141":0.034803460515119906,"142":-0.05926872310746684,"143":0.16022923712635564,"144":-0.030918301605350015,"145":-0.1114502935235931,"146":-0.14253993537900092,"147":0.10772738069317371,"148":-0.06848681368460305,"149":0.0842366976211719,"150":0.005215035105234033,"151":-0.17270461537176215,"152":0.13379718152077344,"153":-0.032708707616327826,"154":0.08761399158782608,"155":0.09622411425499575,"156":-0.1066138369688256,"157":-0.11408172729293889,"158":0.057102283045033966,"159":0.15707674982152486,"160":0.13638671693828755,"161":-0.19913048496578659,"162":-0.13206913417601776,"163":-0.1167489072246694,"164":0.15183117280113165,"165":0.021482776308034645,"166":0.15896175229323625,"167":0.1730990388202,"168":0.19313955018944046,"169":0.01658411052398038,"170":-0.021785263583963262,"171":-0.10871757273092474,"172":0.1734150945963683,"173":0.1561245221940206,"174":0.16140161410278073,"175":0.017865804614779147,"176":-0.010622719608689218,"177":-0.02071479810019679,"178":-0.03951910478425347,"179":-0.04552176449799528,"180":0.027058115148706076,"181":-0.18984655499561093,"182":-0.08932129998710048,"183":-0.05577642694277937,"184":0.03724050056964468,"185":0.01043607128626472,"186":0.04250769823555721,"187":0.10297515907490197,"188":-0.2047380269524268,"189":0.030524478630568463,"190":0.031740376658182134,"191":-0.010855710905968988,"192":-0.006655811957582669,"193":-0.17477100944545598,"194":-0.11289296419703018,"195":0.017657816993196022,"196":0.19207932109698816,"197":0.03713307098796473,"198":-0.15780295355939733,"199":0.07899335796777612,"200":-0.04050713784344354,"201":-0.004484009485414705,"202":-0.010837416511997064,"203":0.08235307845458208,"204":-0.06085926923720318,"205":0.14289464199275745,"206":-0.07666930232755745,"207":0.15839465654350127,"208":-0.19619876242180576,"209":0.004715942903941382,"210":-0.104556764293905,"211":-0.07860650480717915,"212":-0.028219234778438622,"213":-0.13757417233270117,"214":0.15341020472690667,"215":0.013312792739838361,"216":-0.1945224704156091,"217":0.017790450135850476,"218":0.2172114802115192,"219":-0.1838681124717599,"220":0.03865996933791926,"221":-0.01782533477217431,"222":0.09816009633394915,"223":-0.2046515643185923,"224":-0.11778385387285399,"225":0.045203572308151044,"226":-0.08288636895700406,"227":-0.1916833329784118,"228":-0.024237051192018164,"229":0.16051866665772255,"230":0.08544492846619473,"231":0.0738029319896403,"232":0.07809556051383744,"233":0.15376400163769105,"234":0.01553424567957324,"235":-0.11389583746272804,"236":-0.07910103910325471,"237":0.0117592120737721,"238":-0.15486940126600052,"239":-0.020472411361142848,"240":-0.048218453055529305,"241":0.14403108059040987,"242":-0.18325071354739356,"243":-0.06640531680812148,"244":0.08731840862060958,"245":0.009567899820217102,"246":0.10472179277401343,"247":-0.129153712288472,"248":0.1474922919505264,"249":0.0033967799441106516,"250":-0.02695100148122772,"251":0.19095456507291836,"252":0.05036963828024213,"253":0.16131109877683472,"254":-0.04157524575038867,"255":-0.016732473852327706}},"3":{"bias":0.05823240813134088,"weights":{"0":-0.061147570302230524,"1":0.20446222309774065,"2":-0.18588040416926369,"3":0.0570841241837622,"4":0.044049913988078906,"5":-0.13193791635177668,"6":0.0173625028033676,"7":-0.09540004876783285,"8":-0.00432272715619291,"9":0.027911380538094683,"10":0.19944882781574655,"11":0.06453041715953622,"12":0.08702471254658421,"13":0.18817996795070238,"14":-0.1481337155106966,"15":-0.11966499323786464,"16":0.021353825516384546,"17":0.2041824744746312,"18":-0.07901265487483917,"19":-0.12292319841464454,"20":-0.18867755865949135,"21":0.07302881069129084,"22":0.01759076361147098,"23":0.06769781342809972,"24":0.042128261954558835,"25":-0.11798313420498996,"26":-0.10815532563035364,"27":0.153612161896256,"28":-0.1516636093072017,"29":-0.1708890129775052,"30":-0.04111955209852555,"31":-0.07892441429988911,"32":0.10057532347996932,"33":0.12196480292731715,"34":-0.18934989005127775,"35":0.017358256498266885,"36":0.11996513669490982,"37":0.08837527977192632,"38":0.020025324114230813,"39":-0.10435199038538853,"40":-0.06517520263824428,"41":0.09107348173968548,"42":0.18520778093102838,"43":0.16589765349041047,"44":0.1113657690233889,"45":0.12220813998517463,"46":-0.15009461265042795,"47":0.09783028775009155,"48":-0.09292219270388034,"49":-0.12172973653852122,"50":0.08680549871635149,"51":-0.03530609700695666,"52":-0.06625180227784588,"53":0.17552223161876093,"54":0.08372498038979619,"55":-0.11654614311973661,"56":0.17672082008215537,"57":0.07933687096525853,"58":-0.03163937258561112,"59":0.12083350496548621,"60":-0.15405989180024743,"61":0.14847682923240801,"62":0.16035562217836644,"63":-0.035319041146627296,"64":0.053044180828520394,"65":-0.05460064135372686,"66":-0.17403868876247444,"67":-0.19307997372654964,"68":-0.14605888805523154,"69":0.04834037607730283,"70":0.17278330058719651,"71":0.028130309926383573,"72":-0.17456912245075346,"73":-0.044984031838389955,"74":-0.1529341508252688,"75":-0.17842909679431784,"76":-0.0708989920143368,"77":0.17205689531110752,"78":-0.10808626190836679,"79":-0.15733594794641068,"80":0.08449661941485105,"81":-0.13166205977093673,"82":-0.05482021834748709,"83":0.059019594450642136,"84":0.036169910077498195,"85":0.017218693186031673,"86":-0.026272086918129836,"87":0.023170683537280946,"88":0.1817535030109345,"89":-0.10204815044525171,"90":0.19185480331637783,"91":-0.15820675343827958,"92":-0.030388936333287868,"93":-0.06849246822139259,"94":-0.15563417161771445,"95":-0.06464829180407437,"96":-0.1929357098649749,"97":-0.19477624189847628,"98":-0.11434668857158474,"99":0.01921952335757796,"100":-0.116461235472469,"101":0.19174776791822687,"102":0.1027124227565677,"103":-0.03891809236166469,"104":-0.042407584942304996,"105":-0.025532589458836595,"106":0.12592574903745346,"107":-0.18690506281577643,"108":-0.03537610096609423,"109":-0.18265625181355963,"110":-0.04026419943680279,"111":0.1301340430610655,"112":-0.15449094164433275,"113":0.14886722888836942,"114":-0.10142986006993807,"115":-0.10620973546297356,"116":-0.09776755323539231,"117":0.12072618446826401,"118":-0.15155863587632037,"119":-0.08964739925852143,"120":-0.013986746771623412,"121":-0.07410177539962338,"122":0.164898038216894,"123":-0.07741601438102376,"124":0.05751491326271336,"125":0.10983144303406164,"126":-0.059316333312181536,"127":0.0069698685833519125,"128":0.08003961212216004,"129":0.15106259611614264,"130":-0.03673028572100548,"131":0.18305412321060133,"132":0.13991181558487278,"133":-0.1720022357605942,"134":-0.13239628999474704,"135":-0.012579827312076203,"136":-0.17056876212009095,"137":-0.04474485428278154,"138":0.028469620082783146,"139":0.10656816166746318,"140":-0.07481169529581658,"141":-0.116825432871152,"142":-0.0861560636824915,"143":-0.11444385081263167,"144":0.008230078972375097,"145":-0.07578981059670344,"146":-0.14036936289510776,"147":-0.05603225527382982,"148":-0.017649001391166003,"149":-0.19336819806770858,"150":-0.18325135156407424,"151":0.013179089622670472,"152":0.1712522933342517,"153":-0.04365298339710538,"154":-0.13606389053393791,"155":-0.008365194106120674,"156":0.13871243025215102,"157":-0.04424039395762938,"158":-0.002760685806027788,"159":-0.019389174324393816,"160":0.18535854550311212,"161":0.12114163646037283,"162":-0.18121680843075488,"163":0.021157957808601344,"164":-0.1706735870239957,"165":0.19623942747739795,"166":-0.00000775395162567938,"167":0.18118688621074408,"168":-0.18032651965381244,"169":0.032073461496400064,"170":-0.18630875816116962,"171":0.058497319861409026,"172":0.031129518889842618,"173":-0.13881801525652934,"174":-0.008721972653777136,"175":0.1374523315061788,"176":0.0956976621684802,"177":-0.11407074657844614,"178":0.050819407650248886,"179":-0.03696620642329684,"180":-0.0826384301449569,"181":-0.13233997589876306,"182":0.08337095455169688,"183":0.012236451913569396,"184":0.06967365603280594,"185":0.17012409721753452,"186":-0.0378937933269494,"187":0.14054750361118645,"188":-0.053476769952167276,"189":0.1995529967493515,"190":-0.10568170741259292,"191":-0.01066894714952822,"192":0.0031182929791646937,"193":0.14415533717439408,"194":0.10096177299752096,"195":-0.005181280307050638,"196":-0.17009732292666008,"197":0.19893375507440036,"198":-0.006281628516376791,"199":0.07527957384654242,"200":0.04851355738282689,"201":0.14152182020993484,"202":-0.1487819420808798,"203":-0.17053887661392686,"204":0.0014282964259555722,"205":0.08658074847088182,"206":0.07349533701965788,"207":0.051581415831117486,"208":-0.02963325705118613,"209":-0.12837927300114832,"210":-0.10644266851547071,"211":0.0008255758871707337,"212":-0.12213786512337564,"213":-0.04129930299214414,"214":-0.11802060210797853,"215":-0.05789230038982342,"216":-0.02971245366402101,"217":0.18070914463621818,"218":-0.08006755557331109,"219":-0.014240352725790746,"220":-0.15138420076022438,"221":-0.029604401586887336,"222":-0.18882900156782986,"223":0.07268075774878419,"224":-0.019354997302100774,"225":0.17808834277699007,"226":-0.023767441397095804,"227":-0.050669055288957494,"228":0.20255165084854587,"229":0.03282899635544374,"230":-0.09072015544822366,"231":0.13558113190903046,"232":-0.19524254072087263,"233":-0.15081215919260188,"234":-0.05303043806084619,"235":-0.01745848280246201,"236":-0.07647202318004181,"237":-0.07649748902816053,"238":0.12353775352033541,"239":0.07119897589254416,"240":-0.015468476623556594,"241":-0.13641683640326124,"242":-0.03511132587686236,"243":-0.11285374931211768,"244":0.027354513964310198,"245":-0.18432520083270074,"246":-0.047023123969721546,"247":-0.11634532622004348,"248":0.02578679259989821,"249":0.03159337478424342,"250":0.18539013694343645,"251":0.10782627038070917,"252":0.17881457779080032,"253":-0.1378544525460741,"254":-0.14975459985688824,"255":-0.051590213015431624}},"4":{"bias":0.10024821311161576,"weights":{"0":0.1682182859943621,"1":-0.05112024345239794,"2":0.10413370806382666,"3":-0.05936452204767338,"4":0.008735781650341284,"5":0.07790443632098343,"6":0.0992985311191261,"7":0.06694585403485584,"8":0.032610052173030646,"9":0.018643320190441817,"10":-0.1607693347968826,"11":-0.21488557792837934,"12":0.11508959743514786,"13":-0.06697198574607459,"14":-0.026477993188716763,"15":-0.06614755501505198,"16":-0.01412137135406241,"17":-0.022255464469918197,"18":0.1964267923745008,"19":0.09615234242618094,"20":0.060356543299160854,"21":0.1687671342427493,"22":-0.10755993654522439,"23":0.08193299533278826,"24":-0.08611653834520662,"25":-0.022432747919670357,"26":0.14612353596010877,"27":0.14896303127043062,"28":0.05236961529366651,"29":0.019790983649350908,"30":0.17463986355690364,"31":-0.07591243943049417,"32":-0.18297593244937463,"33":-0.05146496875404249,"34":0.09284015777694055,"35":-0.033816939563312436,"36":0.2125868918501519,"37":0.07120345509025514,"38":0.025782162041878436,"39":-0.08524098835389152,"40":0.02237797274084669,"41":0.07481518800320727,"42":-0.05328617637188123,"43":0.03159926629901853,"44":0.07217323015994657,"45":-0.20525778419206764,"46":0.17312287186484157,"47":-0.1511022392116032,"48":0.14375111104708582,"49":0.006858958943550023,"50":0.013123049766967916,"51":-0.10223021880655883,"52":0.18601678345806022,"53":-0.08112654888606301,"54":-0.1553473109390227,"55":-0.07574620515273175,"56":0.08854848849108506,"57":-0.16064331877846738,"58":0.1549195210143344,"59":0.180670580688396,"60":-0.057179221468334845,"61":0.18981707311078916,"62":-0.12246931289140918,"63":-0.22134426788946457,"64":-0.01215346416555539,"65":0.2026800867604373,"66":0.08163909538597391,"67":-0.10401752411595545,"68":0.17244595296435608,"69":0.20177662567321344,"70":-0.21823687867672517,"71":-0.04199759439836438,"72":-0.011560108277596246,"73":-0.17982674192285902,"74":-0.003001165265524967,"75":0.08346626332510576,"76":-0.19549317223106835,"77":0.03946164389056226,"78":0.039726579366991005,"79":0.17872003880321713,"80":-0.03468749754278217,"81":0.056249074202449796,"82":-0.12053339570432081,"83":-0.03379391021487526,"84":-0.11933249751778816,"85":-0.1418719949499552,"86":0.1301030422565133,"87":-0.06948124629010675,"88":0.008603954397363115,"89":0.03970960760074494,"90":-0.0030751518059873736,"91":-0.025600948701002286,"92":-0.07498831347091771,"93":-0.01577074076030114,"94":0.12948514437875377,"95":-0.16992790139437916,"96":-0.0919665002206476,"97":-0.015444389824324431,"98":-0.23296957987899986,"99":0.06121381294295224,"100":0.018301224124019605,"101":0.017023150975888267,"102":-0.09839791963591392,"103":-0.19063631737711195,"104":0.15659179964741612,"105":-0.05278627349037427,"106":-0.01921549017725143,"107":-0.061936993921806904,"108":-0.055250160107183255,"109":-0.19055422512251471,"110":-0.1522635908138969,"111":-0.1007018835640726,"112":-0.11382708538079414,"113":0.10678841687610724,"114":0.008445514120861664,"115":0.14664874926344854,"116":-0.08063995907390643,"117":-0.03994502300486369,"118":0.19530814548577421,"119":-0.005919322739360648,"120":-0.12277073714621316,"121":0.10100530951335103,"122":0.12823309777056976,"123":0.04400258257780995,"124":0.016038329898464328,"125":-0.027374213868148388,"126":-0.1597880979040766,"127":-0.1276879730212551,"128":-0.1847772122260587,"129":0.01985793484072539,"130":-0.17798460725304427,"131":-0.02986641883777699,"132":0.007150620720017174,"133":0.1849625820498602,"134":0.16611446830940524,"135":-0.1772542116021812,"136":0.17512017634535693,"137":-0.05831864908209788,"138":0.11909266106507917,"139":-0.0563015804433589,"140":0.012133702676008854,"141":-0.15566534845151833,"142":-0.10154981047382503,"143":-0.011050716811780938,"144":0.13044396270527558,"145":0.032740079313580625,"146":-0.12147720222780369,"147":0.031675810631106666,"148":0.046213866763317825,"149":-0.010137988901830326,"150":0.04224628485978433,"151":0.04226483600080269,"152":0.12468860545337582,"153":-0.1023281031760126,"154":0.026925088650699976,"155":-0.051720249127543104,"156":-0.018488988363593615,"157":0.1769189069291391,"158":0.16354536294524177,"159":0.1770909356045792,"160":-0.033288669361251196,"161":-0.09940714267251831,"162":-0.15662599944629818,"163":0.14803038851187283,"164":0.15899177516532326,"165":-0.10342820732115841,"166":-0.21869999530076953,"167":-0.17612704554983874,"168":-0.07912690132969133,"169":0.08738838861431658,"170":-0.14719959567956659,"171":0.15657565342228663,"172":0.022532208532583146,"173":0.20511561707538312,"174":-0.09753551386131624,"175":0.07999698380998779,"176":0.07502494896285301,"177":-0.0714091843043714,"178":0.19164406421872496,"179":0.055201732080935366,"180":0.09991906956386683,"181":0.12498648908138653,"182":0.07927774704590393,"183":-0.1977375428214406,"184":-0.07852500106033686,"185":0.031631900712399956,"186":0.07463147084412806,"187":-0.17919782595836337,"188":-0.01894456518141953,"189":0.1365118540075286,"190":-0.10633106491120896,"191":-0.16962259028577284,"192":-0.12285669427873398,"193":-0.09517275645763194,"194":0.030166828548304325,"195":-0.1268994756889547,"196":0.08691642407911387,"197":0.024241627905129147,"198":-0.18775782102478145,"199":0.13212737138722955,"200":-0.07106645183048253,"201":0.10973963342021095,"202":-0.05633837206087618,"203":0.15312024420605913,"204":-0.17126465910068067,"205":-0.06921145106543736,"206":0.09337121231255739,"207":0.07643237496670253,"208":0.045173187397717994,"209":-0.1777925726918494,"210":0.14208114244283238,"211":-0.13452887999359214,"212":0.13073350269709727,"213":0.10031447888173804,"214":0.1314809953791832,"215":0.009668645622699711,"216":0.014084262832112433,"217":-0.07531454820504487,"218":-0.1840555592013557,"219":0.032091616351958126,"220":0.03341732941936026,"221":0.04937926310318479,"222":-0.0905995504180976,"223":-0.061041400862134276,"224":-0.14010132745440454,"225":0.05209975030047702,"226":-0.12877450118921113,"227":-0.16798473711716078,"228":-0.179031215632398,"229":0.03668186841652864,"230":-0.03903579835569961,"231":-0.07797060409300334,"232":-0.029464017387979942,"233":0.020276739824662226,"234":-0.061852968288284065,"235":-0.16642332456885345,"236":0.009593779407373267,"237":0.03050524460484696,"238":-0.026288892403772045,"239":-0.19482162391799593,"240":0.1548631156601441,"241":-0.07465496702902039,"242":0.09639367684289579,"243":0.003885881892644265,"244":-0.06432917608149563,"245":-0.15842971514279516,"246":-0.19236771823101576,"247":-0.16797540857586415,"248":0.039698698170007936,"249":-0.2026462736960174,"250":0.06638725267861834,"251":-0.12053858929161891,"252":0.04768015730232444,"253":0.002565424538686787,"254":0.04365670811474455,"255":-0.17546615556067874}},"5":{"bias":0.08227285165276635,"weights":{"0":0.0599642347304875,"1":-0.027274114896863426,"2":-0.0890879348976862,"3":-0.051708462441691035,"4":0.0725732501038076,"5":-0.13477861304240352,"6":0.1304720928849575,"7":-0.1087483214681295,"8":0.038934892398955784,"9":-0.13829397614895955,"10":-0.18262615489723583,"11":0.05055492068296012,"12":-0.12439690687655128,"13":0.09023423449293663,"14":-0.10928044301532704,"15":0.061952324789242286,"16":0.0533403128566181,"17":-0.038186817135030623,"18":-0.2022213957511527,"19":0.05778489015696544,"20":0.19502581078309278,"21":-0.11148108624902292,"22":-0.005054475100693946,"23":0.13982740148743103,"24":0.15454872296345148,"25":-0.09260293151003621,"26":0.04305241605396069,"27":0.09066595414029026,"28":-0.08136816374329092,"29":-0.06705826057391898,"30":0.1982453896448601,"31":0.20233063117758196,"32":-0.15261416243117354,"33":0.07793038915579913,"34":0.16123772017065505,"35":-0.08352277593214667,"36":0.11728711234220626,"37":0.0247930770838863,"38":0.09868997598498282,"39":-0.031949688552937755,"40":0.20857482164697022,"41":-0.19902943598370773,"42":-0.14873673273141702,"43":0.16392136230601315,"44":-0.013810617469551475,"45":0.07870479353039538,"46":0.04754707553239035,"47":-0.05583264356506218,"48":-0.10024023725369992,"49":0.05848223027851966,"50":0.1794801200492117,"51":0.13190209096922276,"52":0.14793571169851868,"53":0.17858641303146552,"54":-0.10080698873868417,"55":0.058259527840635546,"56":0.12998963673686728,"57":-0.04551795591537862,"58":-0.13171034740780607,"59":-0.07499844202820138,"60":0.13178849309530194,"61":0.12769052912666026,"62":0.1992863010913349,"63":-0.06091592917163488,"64":0.0660454339230652,"65":-0.1292499552461125,"66":0.1109471905454666,"67":-0.15544374467533598,"68":0.09928258145123381,"69":0.06052798716398772,"70":-0.14288118844266853,"71":-0.034147294778228,"72":-0.1114473334726475,"73":0.013733952145441706,"74":-0.18242296781843229,"75":-0.15127168050425724,"76":0.16745307214357788,"77":0.04254693020599947,"78":-0.04145359537495335,"79":-0.18159542339821044,"80":-0.16819169039054752,"81":0.051662514469799206,"82":-0.008297373105555152,"83":-0.06502655501946535,"84":-0.18080271998196043,"85":-0.19738571051499554,"86":0.027913012433959335,"87":-0.08821765737902208,"88":0.15469191439251592,"89":0.10476587250780624,"90":-0.11859348500583457,"91":-0.12765709756507912,"92":-0.0643427857778541,"93":0.03691766499616258,"94":0.01092306092485678,"95":0.013946108032082573,"96":-0.003486944741379333,"97":-0.05278980227709752,"98":-0.0060008766394441075,"99":-0.040097768784810424,"100":0.07057629453124745,"101":-0.08373853093762436,"102":-0.13342296740849724,"103":-0.15396528665630538,"104":-0.1381375646237153,"105":-0.08999790028585915,"106":0.16921387753921688,"107":0.08111245180202202,"108":0.1439735799085034,"109":0.19027133573384283,"110":-0.049582811640668134,"111":-0.0856410925959207,"112":-0.15421002325752814,"113":0.13675746614968887,"114":-0.04371699630056871,"115":0.18457441914279427,"116":-0.10831680278048901,"117":-0.08836651103542559,"118":0.026099487039250687,"119":-0.1636660336241928,"120":-0.06366802599389283,"121":0.026219175207845176,"122":0.031803156107050194,"123":-0.09209549764898932,"124":-0.03666525498765368,"125":-0.0740198827534012,"126":0.09745506045222453,"127":-0.1428646836414055,"128":-0.021778812895042084,"129":0.039842271098890256,"130":-0.1054945589243503,"131":0.007189085291544464,"132":-0.1565429602736522,"133":-0.13325087979259229,"134":-0.16892166398661493,"135":0.11127482791310515,"136":0.1268790520328244,"137":-0.12022401915049939,"138":0.17225520730828908,"139":0.14527528601620293,"140":-0.03139575015759924,"141":0.007747068477678835,"142":0.021136374105234414,"143":-0.11940607369291263,"144":0.06715042953155559,"145":0.05552686328324299,"146":-0.0013633191563391745,"147":0.038425377657615195,"148":0.16377035413015006,"149":0.0050771668407361085,"150":-0.1542705818893778,"151":-0.08724031810397803,"152":0.06741789507441058,"153":-0.038086076619002464,"154":-0.042933393711883226,"155":0.0846102474457488,"156":-0.12440943263645447,"157":-0.13013436523407837,"158":0.10170625658043969,"159":-0.10900482399538339,"160":-0.035316074664356996,"161":0.0006513282165370862,"162":0.1706862210414734,"163":0.06621025386177551,"164":-0.15359776661312172,"165":0.03865827273492349,"166":-0.09077291416384985,"167":-0.0672755621904683,"168":0.18214939278573505,"169":-0.01708197650914322,"170":0.0617777515270701,"171":-0.01448207543616865,"172":-0.05737468386885686,"173":-0.1352205807851838,"174":-0.017447841265988025,"175":-0.1448893818455698,"176":0.11201207039088674,"177":-0.012550843101618584,"178":-0.11080623893573474,"179":0.03314765911808045,"180":0.1959727690033566,"181":0.17667192734128703,"182":0.026997705328543144,"183":-0.1582377647706177,"184":-0.06231450693719768,"185":-0.1261396965276812,"186":-0.13714804191114782,"187":-0.03927497443238703,"188":0.07459807213588544,"189":-0.16885485853706786,"190":0.012515841223903233,"191":-0.02446966481262327,"192":0.10471532540177338,"193":0.07863532425656299,"194":0.18308385892109436,"195":-0.18917449318658153,"196":-0.09091935364580399,"197":-0.07031988074153384,"198":-0.0925413827654726,"199":-0.06869430944752138,"200":-0.20146302999140867,"201":-0.12523123848589948,"202":0.1122641396126996,"203":-0.07091993748819198,"204":0.1327851383087628,"205":0.045079705715481005,"206":0.144558412475683,"207":0.06599047343336605,"208":0.07717290166360981,"209":0.028761517768110045,"210":-0.13099725887467698,"211":0.059569380830156254,"212":0.15775678125825113,"213":-0.00526828017900455,"214":-0.17991060123142855,"215":-0.16232695192517566,"216":-0.02093837559236763,"217":0.022092541165515043,"218":-0.03477731242890275,"219":0.030871309756138974,"220":0.15437210912738256,"221":0.15116457816384263,"222":-0.057352961307455014,"223":0.18196032865144324,"224":-0.015546379796978049,"225":-0.10740820711599508,"226":-0.00010671419510872365,"227":-0.09376864810008252,"228":-0.023170291213501087,"229":-0.1792880828558657,"230":-0.07798336467844254,"231":-0.17127277552915995,"232":-0.068734292176567,"233":0.123302758355281,"234":-0.08282766682028143,"235":-0.17613353261604617,"236":-0.1252520538180917,"237":-0.049284606159186714,"238":0.03773229458054308,"239":-0.07275395702540212,"240":-0.0567991200870072,"241":0.020236501572663008,"242":-0.12706349916090137,"243":0.036104409174407714,"244":0.018068221928761084,"245":0.15541954487603502,"246":0.18089468842397344,"247":-0.027880334819129046,"248":-0.039295421353430796,"249":0.19261521636456067,"250":0.08650692818433427,"251":-0.06293629877560096,"252":0.016213383271541114,"253":-0.1076367981374665,"254":0.10957615977314684,"255":-0.1282962439047265}},"6":{"bias":-0.01510239393874161,"weights":{"0":-0.07885898624181951,"1":-0.10082394412790677,"2":0.16862368097049657,"3":0.13847985123893733,"4":-0.16694516865218573,"5":0.03250327587927322,"6":0.08800474306948042,"7":-0.19602219010854469,"8":0.207580351156427,"9":0.08872677727615964,"10":-0.11514415412874172,"11":-0.09847590480541649,"12":0.05784005465787735,"13":-0.08650725312188104,"14":0.1870211427451811,"15":0.17052530219304207,"16":-0.08909088739361358,"17":0.011484443190079855,"18":0.09218134905156551,"19":0.20707953275964916,"20":-0.05338829150934461,"21":-0.014317865431794714,"22":0.03149075081782215,"23":-0.15900479439228923,"24":0.071087069128437,"25":0.03148048947886151,"26":-0.12883898172217695,"27":0.10855692807386831,"28":-0.07910908806637414,"29":-0.06318708356843808,"30":0.17280098903040994,"31":-0.18796385408028612,"32":-0.18648912722521413,"33":-0.13286143075711043,"34":0.131659330621094,"35":-0.11649206480912792,"36":0.06105625035829543,"37":-0.1076670106571207,"38":-0.23054127556429102,"39":0.13976850924462889,"40":0.13360117791826653,"41":0.0467061736473892,"42":0.09639453340174503,"43":-0.08830123825686313,"44":-0.18527489202603722,"45":-0.06540707945035405,"46":-0.16028581240005393,"47":0.1005359013980904,"48":-0.19626138306809604,"49":-0.022372429528144756,"50":0.018253449559654154,"51":-0.0071521287347326825,"52":-0.0184832921162617,"53":0.09004967292474463,"54":-0.05451443247520938,"55":-0.04528685082486246,"56":0.20734883354091355,"57":0.013169894230648061,"58":0.1725785705210006,"59":-0.11456082593600836,"60":0.0651060727180203,"61":-0.12791183274344772,"62":0.17463411858856887,"63":-0.22174428572428326,"64":0.1945746668182732,"65":0.2125015396669572,"66":0.18662650007866777,"67":-0.17382762620374995,"68":0.11498793772470742,"69":-0.07667083241777713,"70":-0.1024714928365997,"71":0.17064564954875436,"72":0.03921724408317987,"73":-0.1100611383854968,"74":0.055630696851563015,"75":-0.22209480194726758,"76":0.02549000277279693,"77":0.03683150084661576,"78":-0.04885751045040839,"79":-0.18466096354379294,"80":-0.11391290720771513,"81":0.08765469964081046,"82":-0.11354405997347286,"83":-0.08725368277211955,"84":-0.16668812750851436,"85":-0.14258861190965177,"86":0.050729034703647743,"87":-0.14212214517993368,"88":0.12542293504598198,"89":-0.030845955038896943,"90":-0.049244306194032465,"91":0.11562281420432444,"92":0.14078756648704135,"93":0.05931901182521986,"94":-0.1165004057052371,"95":-0.014744157875242248,"96":-0.045530578250154996,"97":-0.06451945175243583,"98":0.05384281612269864,"99":0.16437585743069574,"100":-0.18462530547598002,"101":0.10844194309512764,"102":-0.16662854784173367,"103":0.10245430540059572,"104":-0.006972397016192457,"105":-0.04296069060898375,"106":-0.003440365316253911,"107":0.08407877597997925,"108":-0.09333623490432873,"109":-0.160373082404885,"110":-0.1647714886340937,"111":-0.067775677466188,"112":0.019474389139955164,"113":0.06714715546068856,"114":0.15085412880433158,"115":-0.09497354280286013,"116":0.13781916802579283,"117":-0.12585443774857552,"118":0.03667686407380839,"119":-0.20125016674519225,"120":-0.0013040496959782091,"121":-0.06328258730130103,"122":-0.18364281389679488,"123":-0.011282155712961543,"124":0.16246383856899543,"125":-0.11785535148118739,"126":-0.009764205192832944,"127":0.20460964972697418,"128":0.02710407836134268,"129":-0.21801175055833585,"130":0.04564057698197062,"131":-0.21481953773965137,"132":-0.08216733465983947,"133":0.19312486040961624,"134":0.07209817812104197,"135":-0.06535393425887859,"136":0.047661460839304,"137":-0.02613889607224556,"138":0.030651524093122377,"139":0.20118923910701542,"140":0.04998110192590929,"141":-0.20288494227000853,"142":0.1397250589922987,"143":-0.07613426769382663,"144":0.07464792266078273,"145":-0.022623189113339826,"146":-0.18080906979396097,"147":0.12971433376055275,"148":-0.18802285026832063,"149":-0.009091435278707241,"150":0.14174303921964337,"151":0.13506628858479955,"152":0.1239570735029174,"153":0.05040419920330924,"154":-0.050851949683008546,"155":0.12669955360523757,"156":0.20541945966120312,"157":0.19316522051378904,"158":-0.14519623549007857,"159":-0.08898560063517998,"160":0.12695590634815285,"161":-0.07076783917373534,"162":0.10595877097870479,"163":-0.1165359025047506,"164":-0.03835429199661735,"165":0.006991983834112608,"166":0.0021379684072338288,"167":-0.1491563133323278,"168":-0.14016157412114977,"169":-0.1376859727450329,"170":-0.0376731318275842,"171":0.1230088495946923,"172":0.0021268243591186014,"173":-0.18268189908977417,"174":0.032548788659355225,"175":0.14925837020209098,"176":-0.12750818106497097,"177":0.15679839628135592,"178":0.13376693052025923,"179":0.15284255271981945,"180":0.04920714456641613,"181":-0.08056159430837144,"182":0.13663784190544268,"183":-0.06754673171293663,"184":-0.08761867561703239,"185":0.15210465026520917,"186":0.10947848616274573,"187":-0.10355704705799335,"188":-0.04291669313783933,"189":0.05647612803611396,"190":-0.05964046819796349,"191":0.09140976504539573,"192":-0.08510718640744122,"193":-0.06097100138775524,"194":0.08511572788660908,"195":-0.045706676386690424,"196":-0.08579332873140619,"197":0.19838831884857808,"198":0.042813040607166036,"199":0.18445877715126308,"200":0.052953447088034615,"201":-0.0804352516943926,"202":-0.01571494471471334,"203":0.01536771832907092,"204":-0.11905460446407398,"205":-0.05391726693274831,"206":-0.0962582010053263,"207":-0.12988917264933705,"208":0.13807372057865872,"209":0.08253594179567558,"210":0.11720377297465467,"211":-0.12633909797952428,"212":-0.11233095040613784,"213":0.017470948468761714,"214":0.14718370874206907,"215":-0.18423816310756064,"216":0.09948030737249018,"217":-0.1050739196495735,"218":-0.17362557790144928,"219":0.0011535348651123113,"220":0.18060751880565598,"221":-0.09683619154686077,"222":-0.21320927977253276,"223":-0.12304029467852319,"224":0.12054415703496278,"225":0.05897881818109306,"226":0.10631905045514844,"227":-0.0748579953561186,"228":-0.0888527275853672,"229":0.07544162022822892,"230":-0.1621619498948461,"231":-0.018772969641102102,"232":-0.147765668005458,"233":-0.08159004471091241,"234":-0.17236513505333562,"235":-0.17213639024525104,"236":-0.056535052482360224,"237":-0.1710380861519589,"238":0.16216670262766267,"239":0.02016208290689315,"240":0.04608464990386593,"241":-0.20740315648509927,"242":0.03259772868765962,"243":0.1319068960819727,"244":-0.0067562064408498495,"245":0.15570762980874472,"246":-0.1518563972946213,"247":0.17016448993737157,"248":0.10660198903779411,"249":-0.15252245332529127,"250":-0.12918411182031436,"251":0.10344550574859314,"252":0.03823889002316334,"253":-0.030064059127250072,"254":-0.11538441478981722,"255":0.1570352918896865}},"7":{"bias":-0.17707875864518535,"weights":{"0":0.051705780621684724,"1":0.0630027540240302,"2":0.14702552334971436,"3":-0.10300309329001685,"4":0.0913591340341974,"5":-0.19627504638751586,"6":0.1822637961313938,"7":0.15183628314037523,"8":-0.05850744633988706,"9":-0.11972698532113164,"10":-0.14956179737041797,"11":0.16063740802679408,"12":0.10673804720922801,"13":-0.12154759636688024,"14":-0.19874363012344265,"15":0.03596717663512683,"16":0.07603236328485673,"17":-0.08569030763269578,"18":-0.15987078221572196,"19":0.17183855307340098,"20":0.13965461331400064,"21":0.08237598709177159,"22":0.12732274914202685,"23":0.007450144162104006,"24":-0.061347370967051694,"25":-0.06629622928269402,"26":0.017149145102583356,"27":0.04050054411041612,"28":-0.08261339264663942,"29":0.0820545772442377,"30":-0.15780191690721912,"31":0.08240738904992626,"32":-0.03854237017366982,"33":0.13451695187759372,"34":0.052775670510326535,"35":-0.021583353145630396,"36":-0.01743263645663834,"37":-0.08249531186956267,"38":0.09502533764983971,"39":0.028535876479634303,"40":0.1595716117384387,"41":-0.03348426476584151,"42":0.13365273466989339,"43":0.006183675375824066,"44":-0.12563154385711728,"45":-0.2013775225781936,"46":-0.1512097460380178,"47":-0.005186283396116109,"48":-0.17107345703686214,"49":-0.03780316163405412,"50":0.19512951685534063,"51":0.09278853653199788,"52":-0.16917174915782546,"53":-0.1231812929917828,"54":-0.17856411692051652,"55":-0.04667790638751094,"56":0.11601133649612162,"57":-0.1704650585931633,"58":0.15549401225648826,"59":-0.19135080978890306,"60":-0.12562876430971145,"61":-0.08278246931914572,"62":-0.041270293575636434,"63":-0.1913374017021862,"64":0.004116363657855278,"65":-0.08964683667257027,"66":0.025290167956022153,"67":0.10311046748250483,"68":0.12073700357076807,"69":0.08237419591376803,"70":0.05137711752365564,"71":0.04646741987038125,"72":-0.16014038197525654,"73":-0.023673744243837225,"74":0.07004034616073734,"75":-0.03700590900988932,"76":0.03326107687099511,"77":-0.050072270563892636,"78":-0.1573430342646859,"79":0.04309056613622676,"80":-0.02943762762725737,"81":0.054607331102382826,"82":0.1276725828520663,"83":-0.15122685210191977,"84":-0.16790029789765748,"85":-0.03290572096386894,"86":0.12187277786664363,"87":0.1299318080761705,"88":0.12450968609774106,"89":0.011869024970967276,"90":-0.11844145838540004,"91":-0.15911455489772647,"92":-0.02210016386448013,"93":-0.07157259379987423,"94":-0.09961927528942177,"95":0.11823366646944343,"96":0.13807791535623745,"97":-0.1469855561483037,"98":0.12734813998501884,"99":-0.1119572352273589,"100":-0.09378882605621516,"101":-0.0008027834624898772,"102":-0.14933716438159328,"103":0.14362449934148303,"104":0.03577434407237977,"105":0.03889733421710611,"106":0.17381126523016827,"107":0.0385369156397632,"108":-0.1265938870264168,"109":-0.17982246629570572,"110":-0.19606427772041282,"111":-0.044392574976360344,"112":-0.07751775225868682,"113":-0.14087933997331065,"114":-0.11746454241194162,"115":-0.19525769547159824,"116":-0.06560873466174554,"117":-0.03927318951713384,"118":-0.016530010328515397,"119":-0.01212892699976977,"120":0.004030271403054247,"121":-0.08254353178293294,"122":-0.0414222050509951,"123":0.09517796899033891,"124":-0.08701058073988659,"125":-0.09714281429166871,"126":0.13942820156075256,"127":-0.05105533587006825,"128":-0.15824846958314023,"129":0.0560957519971449,"130":0.1951586205922992,"131":-0.1289286296167659,"132":-0.16557243769713145,"133":-0.032203689428516556,"134":-0.18899243159503545,"135":0.02357558862402016,"136":-0.06420289335592355,"137":-0.08281276715121523,"138":0.016312706788128684,"139":0.07777834620393168,"140":0.1389693470911685,"141":-0.12088924969587414,"142":0.1383916921062964,"143":-0.13429231907762418,"144":-0.09389139674703789,"145":0.053629111322465436,"146":0.04314832184271436,"147":-0.15458409111831564,"148":-0.10548999542738062,"149":0.14024632406546259,"150":0.09645484539593939,"151":0.11909925852285222,"152":0.06472196832501276,"153":-0.18269242650431156,"154":-0.1258348093895548,"155":-0.12392944535516634,"156":-0.11342112315792975,"157":0.12565926836993577,"158":-0.1645191524803061,"159":0.010627478512779447,"160":0.09116326245400075,"161":-0.1515763650867345,"162":-0.08157142793489261,"163":-0.051648530158402435,"164":-0.007332294337223435,"165":-0.10741530621914078,"166":0.1452614261836804,"167":-0.09666216443107613,"168":0.13412802658819095,"169":0.1441218978367301,"170":-0.148335026909686,"171":-0.0451712255931927,"172":0.14729455919584414,"173":-0.19284164662897102,"174":-0.12011999396430012,"175":0.15511788981777275,"176":0.15568062801126206,"177":0.004053465866317202,"178":-0.1591200827419906,"179":-0.08651668600631873,"180":-0.1010143374232738,"181":-0.08936271225062418,"182":-0.08910260484717233,"183":-0.07374201338939246,"184":-0.15147160212001146,"185":-0.054050531965061197,"186":-0.006153734387676598,"187":0.19298187178671405,"188":-0.08963114023293756,"189":0.004884775653041918,"190":0.060940168382196375,"191":0.14252445165452454,"192":0.06979453827724547,"193":-0.19371991490616075,"194":-0.043377077174157945,"195":-0.08271995405206505,"196":0.03864681636942332,"197":0.09931395419783043,"198":0.19226788796446734,"199":-0.027918215230276208,"200":0.07509394690148682,"201":-0.16715894477938167,"202":-0.11473720207798185,"203":-0.18156037462469765,"204":-0.012339365430834325,"205":-0.1479737759825602,"206":0.178453522794187,"207":0.11143474927330548,"208":0.09239358914969914,"209":0.17927889316677725,"210":-0.03929268096986671,"211":0.03750523026895207,"212":-0.11249024612742319,"213":0.02123058230209953,"214":-0.08200701717345159,"215":-0.12366657691705549,"216":-0.16512105386608758,"217":-0.0680819325101316,"218":0.05704857131765044,"219":-0.09982019373110398,"220":0.08403114340035354,"221":0.008631089652578687,"222":0.003468847224137075,"223":0.11690429621760919,"224":-0.048208572904895865,"225":0.1246560367390324,"226":0.06205619995126633,"227":-0.01684321172963892,"228":-0.0055080302590693785,"229":0.15314021304145126,"230":-0.036374703882884864,"231":-0.16524241775126072,"232":0.014781618704104263,"233":-0.0614220971910872,"234":-0.10574905016109606,"235":-0.19444063202357378,"236":-0.07632976058568612,"237":0.049838983525091474,"238":-0.13615616297456382,"239":-0.12172163869383719,"240":-0.04973817664381652,"241":0.10872974670397459,"242":0.009461685267054099,"243":-0.12173103509250195,"244":0.008083081208252796,"245":-0.13252300764470362,"246":-0.18913464561525362,"247":-0.12344209014202727,"248":0.10621451224604073,"249":0.19149512637302632,"250":-0.05053997807504372,"251":0.11921548973224112,"252":0.1779859015497606,"253":0.018376017679406678,"254":-0.15256657888912062,"255":0.06446253673129973}},"8":{"bias":0.09959833602633522,"weights":{"0":-0.18895428922433555,"1":-0.04682492813280721,"2":0.10723336110367347,"3":-0.0736740446926085,"4":0.16098716201522875,"5":0.17102378711043587,"6":-0.202396639693691,"7":-0.20168031192830999,"8":-0.10421275350853001,"9":-0.021861710692802988,"10":0.004242809468871525,"11":-0.1728539119108778,"12":0.08842863480850262,"13":0.05097538787382135,"14":-0.059473443117598584,"15":-0.1393947919822981,"16":0.01273007286945257,"17":-0.023012983207231667,"18":-0.128671011747329,"19":0.07979234784628685,"20":-0.09615542210171427,"21":-0.06100715179219404,"22":-0.009175086339550727,"23":-0.11180232964368132,"24":-0.038297153378591735,"25":0.04471216033704725,"26":0.17043486591732931,"27":-0.15303076136907434,"28":0.10262213405670303,"29":0.13071985251934876,"30":0.03719596084329419,"31":0.13653705601038707,"32":0.038340295346997795,"33":-0.17865206566552022,"34":-0.1446048743393043,"35":-0.2067484440375187,"36":-0.18297246984795074,"37":-0.12541255596692416,"38":-0.16866972613871722,"39":0.07216055489536786,"40":-0.031223160137434838,"41":0.08040432483444751,"42":0.06961488667257787,"43":-0.15261341010927568,"44":-0.06388729016434576,"45":-0.0881007990818312,"46":-0.07201009537743475,"47":-0.029821422158838193,"48":-0.00048225174226796124,"49":0.030907160301930758,"50":-0.02867891012162367,"51":-0.12867503827667498,"52":-0.16390490952421838,"53":-0.1042640422278639,"54":0.06417538861184176,"55":-0.0942167305858804,"56":-0.1558433068851773,"57":-0.018492325981491937,"58":-0.11030200384385136,"59":0.07604255660635584,"60":0.18891841659919748,"61":0.031623647020393456,"62":-0.06084661977940951,"63":0.10442368315115023,"64":0.06925184916917794,"65":-0.1098530085801702,"66":0.024593745152790624,"67":-0.04042262595113828,"68":-0.11198762396369938,"69":-0.1939313411713595,"70":-0.06902561038894726,"71":-0.12210406775554894,"72":-0.18816234388965428,"73":0.12272733268401671,"74":0.08580648608061402,"75":0.17738116649090285,"76":0.09317126731841875,"77":-0.0322609150191774,"78":0.00971630685320822,"79":0.09502637547229711,"80":-0.20011259733820072,"81":0.11061523725414174,"82":0.03356281332715293,"83":-0.15554277636271857,"84":0.17718662968529242,"85":-0.10201167453353546,"86":-0.204661137640684,"87":0.13531369433964693,"88":0.1141085036111007,"89":-0.03803046723436307,"90":0.131337498974464,"91":-0.14883470938835724,"92":-0.01714492470887205,"93":-0.039931958765070635,"94":0.0983570614519729,"95":0.14065911300967882,"96":-0.09570758762328171,"97":0.09049217220937968,"98":0.039203281490723274,"99":0.10785520979963333,"100":-0.15244163626751214,"101":0.15437598700032448,"102":0.02412915997613345,"103":-0.11075280772003303,"104":0.17958599283975116,"105":-0.16184780630075563,"106":0.055995823062520565,"107":0.004314837606631318,"108":-0.02726479344228795,"109":-0.20068250773724777,"110":0.013201704906161684,"111":0.1699402329694907,"112":0.1748079632285016,"113":-0.09949006971782842,"114":-0.0944989218521794,"115":0.10114933367511289,"116":0.12470443352060809,"117":0.10704241700974569,"118":0.16811675543020407,"119":-0.1951183768491027,"120":0.015829236691927612,"121":-0.19319684110654264,"122":0.0516933360069203,"123":-0.19848617975013041,"124":-0.17017109777480802,"125":-0.07062896940038008,"126":-0.06577700682570074,"127":-0.11585832239486357,"128":-0.13771949789775326,"129":-0.03236441952156554,"130":0.06328051994942506,"131":-0.02193650456360804,"132":0.01961258321630939,"133":0.1865701496799206,"134":0.0628316014622185,"135":-0.06975348045529074,"136":-0.058981772386134626,"137":0.024915325356680788,"138":-0.19486527759312183,"139":0.11884508024804846,"140":0.062414749251428696,"141":0.03444755125251245,"142":0.13920309417076437,"143":0.041479612381242786,"144":0.05354487231609311,"145":-0.01353142806007001,"146":-0.12529242710632074,"147":0.00023017424421869825,"148":-0.0704931398731512,"149":0.194496625324498,"150":0.003995616317857634,"151":-0.19341475675542463,"152":-0.1661206639366721,"153":0.03856458833323502,"154":0.06678771793871478,"155":0.06495542303233988,"156":-0.1521914736983884,"157":0.10115012341979031,"158":-0.1279641890937282,"159":0.12679041958453782,"160":0.12375618756815365,"161":0.19281957796001895,"162":-0.08503933777472643,"163":0.08308640082211717,"164":-0.027558756651908333,"165":-0.042718771667377864,"166":0.09807175233888678,"167":0.1715112626841711,"168":-0.17761704130206638,"169":0.02635413930021194,"170":-0.08463001034044297,"171":-0.0015113600862550463,"172":-0.050304576586432816,"173":-0.11381273491632303,"174":0.11685772657646361,"175":-0.12471797148531812,"176":0.013067119049250916,"177":0.03903383346273676,"178":-0.04376487312118367,"179":0.13322558834357415,"180":-0.05769792441232882,"181":0.17736390620860149,"182":-0.18912847894027235,"183":-0.158583078729537,"184":-0.025607317876719667,"185":0.06864599437275698,"186":0.03494078816105719,"187":0.16101470071969498,"188":0.0380954891375673,"189":-0.036059804935871326,"190":0.06925532842859645,"191":0.17231003531057548,"192":0.12485186400298517,"193":0.04840298295267534,"194":0.17288580280266527,"195":0.15283701018198856,"196":-0.07247226816057992,"197":0.12141585744268003,"198":-0.013799164649283694,"199":0.07263859690536781,"200":-0.007179679426663999,"201":0.07903511461557318,"202":-0.10326041731328468,"203":-0.06787383594402464,"204":-0.11270741781722608,"205":0.020760551676091903,"206":-0.018750689806682527,"207":-0.14066810753961462,"208":0.0852465152525017,"209":-0.04711056004668442,"210":-0.10956558111081541,"211":-0.1370991259804081,"212":-0.07126992735616727,"213":0.12718944648036828,"214":0.006189501832145513,"215":0.008160172359622103,"216":-0.14294031781229624,"217":0.09915691594471293,"218":0.10136024701187966,"219":-0.20465542547869237,"220":-0.03793294744722328,"221":-0.004219460446848465,"222":-0.12626745960321928,"223":-0.11480515037428979,"224":0.18557448623334358,"225":-0.19565111592647932,"226":0.08166407241188861,"227":0.18598723404519826,"228":0.15028548766883318,"229":-0.05272325683408675,"230":-0.16156048140057738,"231":-0.08680516330435163,"232":0.10279922279502653,"233":-0.13775292370224315,"234":0.05908754806000316,"235":-0.18478782708830288,"236":-0.023220065415155033,"237":-0.15486296265633093,"238":-0.05442292222664669,"239":0.17806306296532293,"240":0.10687923672607968,"241":-0.02398276480356519,"242":-0.10860065485571367,"243":0.053706711541558524,"244":-0.1442344151724458,"245":-0.1555607473036824,"246":0.031012131415865535,"247":-0.035830963131228945,"248":-0.0433334065471168,"249":-0.12123109544178044,"250":-0.13543602352333525,"251":0.08890342227330078,"252":-0.08170602718337436,"253":0.040083882222611514,"254":-0.054846274682979854,"255":0.011029135110285675}},"9":{"bias":0.14676852833892295,"weights":{"0":0.012649540581349076,"1":-0.03679763094201104,"2":-0.1874799666151947,"3":0.18757045631535765,"4":-0.06168394128389292,"5":-0.14643551731254717,"6":0.02871857971238266,"7":0.15891051349699264,"8":0.166383100164878,"9":0.15010059364038858,"10":-0.06105029108016103,"11":-0.007499821892416594,"12":-0.13668184433770802,"13":0.08191994219879369,"14":-0.22593585084724993,"15":0.16980222695202257,"16":0.2142474575814744,"17":0.19565168928479296,"18":-0.23592661044589078,"19":-0.09207339539435579,"20":0.19824223605424035,"21":-0.012320134665019779,"22":0.03984646951451352,"23":0.20903679818095228,"24":-0.003661300772142063,"25":0.07623077415124395,"26":-0.0988216879580963,"27":0.16379121349149783,"28":-0.21494882303809365,"29":0.17350156143742188,"30":-0.041977807714422034,"31":0.15101379131371936,"32":0.008495608189109643,"33":-0.03999551464699903,"34":-0.05706046940452594,"35":-0.08198199121004222,"36":0.06910748802944715,"37":0.03449524235448592,"38":0.21679617169994383,"39":-0.15375223613811048,"40":0.14320912233086744,"41":0.0061948648458376694,"42":-0.04696558276415563,"43":0.0022547607571507112,"44":-0.1631352980562008,"45":-0.17156834887309616,"46":0.10344690463673288,"47":-0.08941202860668121,"48":0.15477352142273829,"49":0.15433993025385373,"50":-0.03479116315884106,"51":0.08606742179774288,"52":0.132551593366831,"53":0.06036578716946911,"54":0.110570807612234,"55":0.08324013408943008,"56":0.06823031891880806,"57":0.1781315260975716,"58":-0.08053825547407222,"59":-0.048466124774773744,"60":-0.1053211791282358,"61":-0.015280167241406054,"62":0.1117585136115457,"63":0.06799223752569443,"64":0.15652640353009387,"65":0.033880997782660724,"66":-0.06688394475341104,"67":-0.05970131345038076,"68":0.04553308514075553,"69":-0.13461168909739726,"70":-0.008980448421418276,"71":-0.05260035333394932,"72":-0.05963800184694939,"73":0.1616513393972104,"74":-0.004543246688674158,"75":0.23386718914162002,"76":-0.10433057672777646,"77":-0.030464979159088527,"78":0.07701893671345188,"79":0.10428587159788347,"80":-0.18087448802335956,"81":0.010921524395709037,"82":-0.08099205007461005,"83":-0.1605037323219785,"84":-0.18076501086381241,"85":0.1183177754433018,"86":0.09670615223351596,"87":0.13050015727073044,"88":0.02446085979506125,"89":0.0297696236327345,"90":0.10081365235498964,"91":0.1888087470014076,"92":-0.0691737250830801,"93":0.01521940793475059,"94":0.06746591553298502,"95":0.14659674946184872,"96":0.15299366679157198,"97":-0.18585533086554357,"98":0.014852851346219009,"99":0.16182469754973478,"100":-0.1315006714473197,"101":-0.13073993964125488,"102":-0.02227053583651275,"103":-0.11036287106569949,"104":-0.179135149638635,"105":0.0041467522204864885,"106":0.042655506710877984,"107":-0.005101189233932103,"108":-0.02327882915199429,"109":-0.13043633765408336,"110":-0.12557666501249465,"111":0.16702967739567676,"112":0.08103520167476712,"113":-0.13915399404377743,"114":-0.23921711533750445,"115":0.137412323802369,"116":-0.1763066480429268,"117":-0.04860071100694994,"118":-0.2018839891425753,"119":0.14782211898959785,"120":0.16905135877535502,"121":-0.05743708436371968,"122":0.15109562490439124,"123":-0.011223776892081483,"124":-0.045369228411906014,"125":-0.18602611025337787,"126":0.07569091303177207,"127":-0.2225565262972546,"128":0.1649825131942201,"129":-0.10586844987430054,"130":-0.046392563456520666,"131":0.016201787648227158,"132":-0.016350540619355505,"133":0.08579558011557979,"134":-0.22069165527362156,"135":-0.036605829882201624,"136":0.1010705061627347,"137":-0.09583450521273251,"138":0.048976648075595534,"139":-0.12251129329062567,"140":0.17164238014690902,"141":-0.1869971908368402,"142":0.12181945085379049,"143":-0.12283418215391616,"144":-0.19781049388586033,"145":-0.1464079525399458,"146":0.09619071971936334,"147":0.07460220867563566,"148":-0.058460314088316805,"149":0.15225423186280967,"150":-0.12352095708342976,"151":0.06569014919823211,"152":0.07763142035246381,"153":-0.10495533747207532,"154":-0.1372239503659939,"155":0.12497446046531,"156":0.06411468890387656,"157":-0.05466671673569171,"158":0.1282279400222981,"159":-0.07504203389948906,"160":0.09709320573917543,"161":-0.10711413382358075,"162":0.08579519056153104,"163":0.07039070710902506,"164":0.10907889904366402,"165":-0.07920127137258512,"166":0.16870563867434837,"167":-0.0024305822421518434,"168":0.03159253817082127,"169":0.0626630092408202,"170":-0.08864606755705519,"171":-0.04642042726960097,"172":-0.19664695307994196,"173":-0.01672190604694424,"174":-0.08448462243940667,"175":0.1298445909520473,"176":0.1454669264005082,"177":-0.018052328692155315,"178":0.103107590538441,"179":0.07143029709705856,"180":0.029029372155329455,"181":-0.19764806641516233,"182":-0.02037818071633247,"183":0.14257017790884222,"184":-0.16940460342471028,"185":0.11910016052924516,"186":-0.18371988908370093,"187":-0.1652647020990661,"188":0.11309276989516134,"189":0.0986942758925189,"190":0.08956744274256132,"191":-0.1604623553924146,"192":0.06488824678943833,"193":-0.05397621128711734,"194":0.19451944342363825,"195":-0.10850846520097009,"196":0.011127894740757073,"197":-0.046066867840654016,"198":-0.09751063089680612,"199":0.1502202709661889,"200":-0.05348949280088178,"201":0.03276025967522109,"202":-0.132559128908681,"203":-0.22867578746971165,"204":0.12534643559966466,"205":-0.026358481343091888,"206":0.2176809361341716,"207":0.04359676571056235,"208":-0.09677089859548879,"209":0.09460439875591165,"210":-0.02992358116741864,"211":0.01859446704209857,"212":-0.10906690357226788,"213":-0.07661719211502738,"214":-0.044002060242098115,"215":-0.12706836928594004,"216":0.07919412774447393,"217":0.14280037773871335,"218":0.06205027368894407,"219":0.21203229489900288,"220":-0.22635391548782616,"221":0.14512311752150153,"222":0.09837994601528387,"223":-0.11517235359610235,"224":0.006032663421232825,"225":-0.1768984548470634,"226":-0.14784322294353405,"227":-0.005243273159394069,"228":-0.11434298883529684,"229":0.12088287040276928,"230":-0.030790275735491552,"231":0.16215477789380417,"232":0.03209429533468116,"233":0.021676199873408346,"234":0.15269389291729596,"235":0.01125728656893467,"236":-0.019874157886941444,"237":0.014658127482634608,"238":0.11618889259009806,"239":-0.20054326859841565,"240":0.07820849402153728,"241":0.11750238126182777,"242":-0.21599562050117002,"243":0.09685795555866973,"244":-0.08295389291479398,"245":-0.106784627877345,"246":0.1171881856361612,"247":-0.00477375749157167,"248":-0.14582898771387018,"249":-0.01810269704903489,"250":0.23467102874550877,"251":0.02464389677265003,"252":0.11453552938828461,"253":-0.0020071068831196484,"254":-0.05271114256426523,"255":0.17096644349634135}},"10":{"bias":-0.055872386286137644,"weights":{"0":-0.16878404095855473,"1":0.1929497203222348,"2":-0.1954316631577774,"3":-0.1385304159368348,"4":-0.038447769183628216,"5":-0.17342544947935132,"6":-0.028971428311576498,"7":0.14988142739714422,"8":-0.07990183266798015,"9":-0.1414062668493544,"10":0.12037503146879412,"11":0.15505062948629464,"12":-0.09864508053095951,"13":-0.06949351090061134,"14":0.11786168063497661,"15":-0.03992858629116381,"16":-0.19392931070035935,"17":-0.18188938583563782,"18":-0.16353373688908437,"19":-0.08775760678245592,"20":0.19672770004007695,"21":0.18511032208641903,"22":-0.0017360598712331601,"23":-0.0011456274765911394,"24":-0.06865616926835412,"25":-0.16153450259209753,"26":0.11629255831594562,"27":0.10812611902062741,"28":0.05989557296265199,"29":-0.09854080748615612,"30":-0.08765255372319102,"31":-0.06593896342081094,"32":0.050094717329945006,"33":0.11974286442551922,"34":-0.06949632003641222,"35":-0.1411549555056034,"36":-0.19533596816327636,"37":0.04638810867097679,"38":0.1926410283320148,"39":0.005057457672008515,"40":-0.01229025098082046,"41":0.028563797002766848,"42":-0.009092877759521716,"43":-0.17967015562724337,"44":-0.07178384031500362,"45":0.059497769569096394,"46":0.1707750185714663,"47":-0.055603391610944956,"48":-0.021675308953507028,"49":0.04357603245792946,"50":-0.005638613826169339,"51":-0.04037092081412205,"52":-0.1227389910732426,"53":0.033235172385113865,"54":-0.0061649717108936165,"55":0.057904058403422366,"56":-0.10096519140772513,"57":-0.0444184229072279,"58":-0.04157628143363942,"59":0.09705453923537975,"60":-0.12520526235844484,"61":0.09914223539149554,"62":-0.07816670898387872,"63":-0.016546420791142727,"64":0.04421259050839519,"65":0.13498823913017596,"66":0.1771334710157356,"67":-0.18345710432008305,"68":-0.19070485906152254,