{"layers":[{"r":{},"g":{},"b":{}},{"0":{"bias":0.017200752145789217,"weights":{"r":-0.13347226349321115,"g":-0.18381845850212095,"b":0.06700351493054411}},"1":{"bias":-0.11307691133718034,"weights":{"r":0.18975964638294937,"g":0.02645406681122136,"b":0.12608401421091767}},"2":{"bias":-0.10901092388431603,"weights":{"r":0.27495814784706624,"g":0.03105521738452144,"b":0.15348841081701797}},"3":{"bias":0.1381358928345416,"weights":{"r":0.007265261065985111,"g":0.08220583060330725,"b":-0.18470253900033382}},"4":{"bias":-0.17541358292087786,"weights":{"r":0.09498531965468492,"g":0.06544864148640347,"b":-0.062496978077958676}},"5":{"bias":-0.1418360581464219,"weights":{"r":-0.02431648774383984,"g":-0.19411789981922642,"b":-0.35831009964367433}},"6":{"bias":-0.05273908637303688,"weights":{"r":-0.032512449231035995,"g":0.09155152349590849,"b":-0.0052450495589015204}},"7":{"bias":-0.18305074291091294,"weights":{"r":0.21726958223255383,"g":-0.043871179743545125,"b":0.29161288241174643}},"8":{"bias":0.11888171553491485,"weights":{"r":0.02501831906114969,"g":-0.12651337324811932,"b":-0.11789849289258783}},"9":{"bias":-0.12775383524230208,"weights":{"r":0.040693620470425136,"g":0.25648222743939636,"b":0.32610675464511424}},"10":{"bias":-0.04962859068061516,"weights":{"r":-0.12247345923123278,"g":0.11254810344765642,"b":-0.07621897619249335}},"11":{"bias":0.013885133748079457,"weights":{"r":0.16116717060864563,"g":0.1834589263246844,"b":0.2675063074252818}},"12":{"bias":-0.1080362855126416,"weights":{"r":-0.3599497517861027,"g":0.056253551683377305,"b":-0.28701233785248415}},"13":{"bias":-0.04747997053102269,"weights":{"r":0.06648323305107431,"g":0.021047682129311317,"b":-0.25355034839368407}},"14":{"bias":0.16237099393957824,"weights":{"r":-0.29197871063598124,"g":-0.17554405571291223,"b":-0.19412124658633212}},"15":{"bias":-0.13918174723867643,"weights":{"r":-0.29756133334000384,"g":-0.23141365699887445,"b":-0.22735965262304988}},"16":{"bias":0.08043364903108317,"weights":{"r":-0.016474583886993674,"g":-0.08605256090481567,"b":0.046163230098676636}},"17":{"bias":0.1991929421731932,"weights":{"r":0.11716078434403812,"g":-0.1546815073519028,"b":-0.047504420016921685}},"18":{"bias":0.03531877319837012,"weights":{"r":-0.009974742543752045,"g":-0.16512647474412345,"b":-0.11395634452430099}},"19":{"bias":0.18898834936949202,"weights":{"r":-0.14442991135921573,"g":-0.03480518222401174,"b":0.25681982801648673}},"20":{"bias":-0.07911587963800397,"weights":{"r":0.06964183993809338,"g":0.011184076295474556,"b":-0.25416427782740925}},"21":{"bias":-0.1592765236039056,"weights":{"r":0.015634941302632346,"g":0.12923149507042694,"b":0.12999687040703303}},"22":{"bias":0.09408308939963907,"weights":{"r":-0.14522124549154042,"g":0.007385489167195741,"b":-0.21116101851055916}},"23":{"bias":-0.15691586594052392,"weights":{"r":-0.05429783407723605,"g":0.18257400842023827,"b":0.06623466826052835}},"24":{"bias":-0.1334842472113256,"weights":{"r":0.41478804311899614,"g":0.055296033260969435,"b":0.3784189502701842}},"25":{"bias":-0.013038908157674597,"weights":{"r":-0.03503284140156129,"g":-0.02061160163569454,"b":-0.19873401343399316}},"26":{"bias":0.17861165935029355,"weights":{"r":-0.058117824971648156,"g":0.07955442237400825,"b":-0.26022126636665477}},"27":{"bias":0.09086925272887085,"weights":{"r":-0.07367193855962068,"g":-0.11373877709392624,"b":-0.14527243945339025}},"28":{"bias":0.19860416656568453,"weights":{"r":-0.08202520740760236,"g":0.0754611009479206,"b":-0.1525658295257694}},"29":{"bias":0.09834197643879079,"weights":{"r":-0.3186544702862766,"g":-0.06641880358130137,"b":-0.240658771075181}},"30":{"bias":0.05393653466809899,"weights":{"r":-0.25596945155854794,"g":-0.2294606515514401,"b":-0.1755123083405517}},"31":{"bias":-0.014034452186813125,"weights":{"r":-0.31929527869001795,"g":-0.1742469899142159,"b":-0.328179339183044}},"32":{"bias":-0.11539595968150052,"weights":{"r":0.28143986838672985,"g":0.09051633972542497,"b":0.06711355904693225}},"33":{"bias":0.09224185781408255,"weights":{"r":0.08771031274569496,"g":-0.08309303158978526,"b":0.10238190934161262}},"34":{"bias":0.1332704640841148,"weights":{"r":-0.12147256563655753,"g":0.20525906430112015,"b":0.09152671939852483}},"35":{"bias":-0.061078081408735,"weights":{"r":0.017149523641141307,"g":-0.021051330830534943,"b":0.23942850898207316}},"36":{"bias":-0.11434524558662093,"weights":{"r":-0.19134842971566046,"g":-0.16716379610793972,"b":-0.29923120346164456}},"37":{"bias":0.08996442022337878,"weights":{"r":-0.34586751887771505,"g":-0.07100485685049815,"b":-0.27539034518631356}},"38":{"bias":0.09445107782674253,"weights":{"r":0.27641637945243325,"g":0.22287194064747756,"b":0.14982985591006193}},"39":{"bias":0.15393464017385738,"weights":{"r":-0.19521482920298264,"g":-0.10379219012416266,"b":-0.31956006641750556}},"40":{"bias":-0.07540021582594122,"weights":{"r":0.14492173435934078,"g":0.20425940615830024,"b":0.07917452676051702}},"41":{"bias":0.1303881020968144,"weights":{"r":-0.3033524748752635,"g":-0.02313560627788111,"b":-0.16333526732286144}},"42":{"bias":-0.07871247695659328,"weights":{"r":-0.0045706819845770545,"g":0.0945289322886308,"b":0.23778624737071935}},"43":{"bias":0.11417918740981457,"weights":{"r":-0.16009443219059846,"g":0.053782034331563165,"b":-0.2926421886864203}},"44":{"bias":0.0042752633571070085,"weights":{"r":-0.0495509917107085,"g":0.05312117804687697,"b":-0.4040235214046611}},"45":{"bias":-0.04658380277920074,"weights":{"r":-0.047222457145523346,"g":-0.10785352125720334,"b":-0.0870938168479472}},"46":{"bias":-0.058713874906886704,"weights":{"r":0.1655623709224681,"g":0.11356489158746685,"b":-0.029774552978621572}},"47":{"bias":0.12975810065598703,"weights":{"r":-0.4450130164431807,"g":-0.17269465124877156,"b":-0.423431006814138}},"48":{"bias":0.03354043384673209,"weights":{"r":-0.16189818862024338,"g":0.012583693700454713,"b":0.026294768552119943}},"49":{"bias":0.18010341121056245,"weights":{"r":0.31899140811039123,"g":0.17140549038447495,"b":0.20061069739654655}},"50":{"bias":-0.10073573289232804,"weights":{"r":0.10790911841324277,"g":-0.1752792758097974,"b":-0.18870351968622195}},"51":{"bias":0.0940251462801644,"weights":{"r":-0.15589711853497595,"g":-0.006491533158366189,"b":-0.2672608123657426}},"52":{"bias":-0.18468047884458094,"weights":{"r":0.1515160979052522,"g":0.07748329968032391,"b":0.17838420740580074}},"53":{"bias":-0.16655129871557658,"weights":{"r":0.3632582433281998,"g":0.12831581241544482,"b":0.17512938172517034}},"54":{"bias":-0.03258123847498846,"weights":{"r":0.11501502839210352,"g":-0.07274660611519762,"b":-0.1263087092589844}},"55":{"bias":0.15153919574641256,"weights":{"r":0.08955657892756667,"g":-0.20954447641457716,"b":-0.2045001087541689}},"56":{"bias":0.0342904882907407,"weights":{"r":0.2955260125136767,"g":-0.05611485990602243,"b":0.251318495688351}},"57":{"bias":-0.12873172716011788,"weights":{"r":-0.03955747823197049,"g":-0.01566089302301729,"b":-0.056494995343997156}},"58":{"bias":0.153947780297626,"weights":{"r":0.13601498675595516,"g":-0.025698230432166003,"b":-0.1377823326839331}},"59":{"bias":0.1236402601116367,"weights":{"r":-0.1819038908407621,"g":0.0924918952049743,"b":0.07188598842650513}},"60":{"bias":-0.1392945482723045,"weights":{"r":-0.3329231106884356,"g":0.04356598125384972,"b":-0.25544664885936935}},"61":{"bias":0.15142459867084668,"weights":{"r":-0.26716428315139557,"g":0.14300497088413974,"b":-0.08166569391871818}},"62":{"bias":0.09752500448718263,"weights":{"r":0.047027204403733584,"g":0.1861123578962531,"b":0.26769982755212246}},"63":{"bias":-0.12446368725158082,"weights":{"r":-0.0675256852050211,"g":-0.20843279331751824,"b":0.06430960006161206}},"64":{"bias":-0.030627020041918415,"weights":{"r":0.32930066761203924,"g":0.2852941485141379,"b":0.3896579978696619}},"65":{"bias":0.05121990557320213,"weights":{"r":0.07630998691761644,"g":-0.10112239515104836,"b":-0.06885849986511568}},"66":{"bias":-0.08918681773411412,"weights":{"r":-0.08733318898882038,"g":-0.12744967127340492,"b":-0.19757300144794535}},"67":{"bias":-0.060718385652221554,"weights":{"r":0.1756454931468049,"g":-0.11964358806731085,"b":0.21163333693333825}},"68":{"bias":0.003841432391893201,"weights":{"r":0.0988131203461843,"g":-0.09059351487974898,"b":-0.1365226983113969}},"69":{"bias":-0.04611664820021015,"weights":{"r":-0.13712379313464126,"g":0.09998519394386836,"b":0.027759180576655405}},"70":{"bias":-0.1797020135834681,"weights":{"r":-0.2805071121139545,"g":-0.13624298878556185,"b":-0.32847948696125007}},"71":{"bias":-0.10310083951447517,"weights":{"r":0.0414554409512721,"g":-0.13825606923694458,"b":-0.18482901623320008}},"72":{"bias":0.1646969776334255,"weights":{"r":-0.23981976565955898,"g":-0.22845596047535977,"b":-0.2355365208518423}},"73":{"bias":0.06349505610423078,"weights":{"r":-0.2641047894571302,"g":-0.10217175602223134,"b":-0.2058520598727644}},"74":{"bias":0.16032345491199523,"weights":{"r":0.28796731347074084,"g":0.004440655966026512,"b":0.2862263447637787}},"75":{"bias":0.10297870122998552,"weights":{"r":-0.17233793169992181,"g":-0.1979423168836787,"b":-0.38432610794946365}},"76":{"bias":-0.19078933865283165,"weights":{"r":0.16177895513642404,"g":0.23350747505877262,"b":0.2609562625246133}},"77":{"bias":-0.19519361866298332,"weights":{"r":0.1992784950616866,"g":0.20943830056165755,"b":0.2704544309096251}},"78":{"bias":0.17934493552813321,"weights":{"r":-0.2149094417529957,"g":-0.19793276632749615,"b":-0.06847005528997803}},"79":{"bias":0.17280467105864,"weights":{"r":-0.3113790177477629,"g":-0.014619482820622642,"b":-0.30056980059763067}},"80":{"bias":0.04516521319818214,"weights":{"r":0.03468979653870163,"g":0.15112907594179983,"b":-0.12676225376244177}},"81":{"bias":0.035064806978999594,"weights":{"r":-0.0018305437035965057,"g":-0.0036070961591148985,"b":-0.0520978740737245}},"82":{"bias":0.18172679602045955,"weights":{"r":0.20021830957547598,"g":0.0657731859760713,"b":-0.01189431066277085}},"83":{"bias":-0.0015852105530630304,"weights":{"r":-0.20169162270346125,"g":-0.02658723333502021,"b":0.11458380555857706}},"84":{"bias":0.12812416831792586,"weights":{"r":-0.2655433575970187,"g":-0.24434075358902396,"b":-0.4145945888276578}},"85":{"bias":-0.04382163657875028,"weights":{"r":-0.11371628399667273,"g":-0.03125986873114503,"b":-0.23296772653736356}},"86":{"bias":-0.03969202103025292,"weights":{"r":-0.016025678110408618,"g":0.023920313484398565,"b":0.07542050850405914}},"87":{"bias":0.18831811957994546,"weights":{"r":-0.19427191942072403,"g":0.1020627524185299,"b":-0.11387732331360297}},"88":{"bias":0.09552362615182147,"weights":{"r":-0.2963735597237464,"g":-0.20664486161700268,"b":-0.2688506308566361}},"89":{"bias":-0.08210525563195402,"weights":{"r":0.2450702438708578,"g":-0.057991525246419394,"b":0.2498876136639579}},"90":{"bias":0.029974370555009976,"weights":{"r":-0.11295275760611098,"g":0.12375864363331833,"b":-0.10242612302716884}},"91":{"bias":0.13212037703382168,"weights":{"r":-0.16461495052983144,"g":-0.00046517622235268757,"b":-0.26896216467098555}},"92":{"bias":0.07851377485534837,"weights":{"r":-0.32600184340352106,"g":0.08372576601937896,"b":-0.3618637006620459}},"93":{"bias":0.06998190630784544,"weights":{"r":-0.005592060912362668,"g":0.09317779593445244,"b":0.13173050745211845}},"94":{"bias":0.14158459592291667,"weights":{"r":0.16731252349185027,"g":-0.016277108341704375,"b":0.3141826325884098}},"95":{"bias":0.08333717042450567,"weights":{"r":-0.30338441726562865,"g":-0.010522272265550855,"b":-0.3122667284138342}},"96":{"bias":0.07504574677783511,"weights":{"r":-0.05950535845158117,"g":-0.09051350180856498,"b":-0.23806184323487403}},"97":{"bias":-0.06764074167865519,"weights":{"r":0.23636671598046075,"g":-0.09758189510259742,"b":-0.04618544953213039}},"98":{"bias":0.15813537333226446,"weights":{"r":-0.10388132448682674,"g":-0.1831289119677789,"b":-0.3679962678022577}},"99":{"bias":0.04391538165722952,"weights":{"r":0.2654049214904251,"g":0.09653782781037056,"b":0.24396142396391238}},"100":{"bias":0.011477123691018852,"weights":{"r":0.02219820315625272,"g":0.102688303271193,"b":-0.03841174846659114}},"101":{"bias":-0.03605235250512484,"weights":{"r":0.14940705142417565,"g":0.004886132075330137,"b":0.1798494277502114}},"102":{"bias":0.05745924005403586,"weights":{"r":0.07732570724268709,"g":0.14169789400483823,"b":0.21672296402366467}},"103":{"bias":0.15393068527298864,"weights":{"r":0.35846965452160884,"g":0.11014455038627835,"b":0.29559451287315547}},"104":{"bias":-0.10836467866101117,"weights":{"r":0.08504560274361896,"g":-0.040509504569568824,"b":0.10407783623665376}},"105":{"bias":0.04816278678787991,"weights":{"r":0.23885592680762274,"g":-0.04706083269221762,"b":0.030684365990069292}},"106":{"bias":-0.0583019390631993,"weights":{"r":-0.20298327246889464,"g":-0.15426347442076732,"b":-0.2445785736489146}},"107":{"bias":-0.1843968514432926,"weights":{"r":0.11737813697542578,"g":-0.06215469456221918,"b":-0.05631047429056628}},"108":{"bias":-0.03612453900423342,"weights":{"r":-0.0724625080971464,"g":-0.05885375358001557,"b":-0.17508263684259903}},"109":{"bias":0.11916094199768848,"weights":{"r":0.11016989513903573,"g":-0.1677344266895397,"b":-0.1513451376155671}},"110":{"bias":-0.1228307215371754,"weights":{"r":0.16767971477631755,"g":-0.10535177362125378,"b":0.3027419332346992}},"111":{"bias":0.1299418676575608,"weights":{"r":-0.41411018815444167,"g":-0.05516525894952998,"b":-0.20409280197008586}},"112":{"bias":0.11200641100621182,"weights":{"r":-0.3947637551737555,"g":-0.0035094536170617477,"b":-0.4139718505593247}},"113":{"bias":0.12349584005246507,"weights":{"r":0.23059751119976815,"g":0.23514493690395702,"b":-0.03400324468107806}},"114":{"bias":0.06930225472492682,"weights":{"r":-0.037284975516579937,"g":-0.047805416003128154,"b":-0.34182417824718037}},"115":{"bias":0.13574322589111165,"weights":{"r":0.17613702560672653,"g":-0.012744647420788893,"b":0.05124417684043708}},"116":{"bias":0.08012822601001256,"weights":{"r":-0.07746307817875651,"g":0.0030528311164278663,"b":-0.10694087540937487}},"117":{"bias":-0.126215542827314,"weights":{"r":-0.26193082466639456,"g":-0.16405534859945922,"b":-0.22387841921987106}},"118":{"bias":0.004320015784207201,"weights":{"r":0.1529153593670419,"g":-0.009296429270376083,"b":0.010600103630221179}},"119":{"bias":0.14250013781549356,"weights":{"r":-0.050924067877050824,"g":-0.13467675300204154,"b":-0.2823427822746442}},"120":{"bias":-0.02439581750480918,"weights":{"r":-0.015227450996349817,"g":-0.16885750028095145,"b":0.19681649380548918}},"121":{"bias":0.12541373608622056,"weights":{"r":0.3198880689314757,"g":-0.06021989505971942,"b":0.10214146252597144}},"122":{"bias":0.04143284059856008,"weights":{"r":0.13343886483146686,"g":0.17773354333137115,"b":-0.1893526259243158}},"123":{"bias":-0.14847361210670165,"weights":{"r":0.16193330855296198,"g":0.2325013146254615,"b":0.15530242625123103}},"124":{"bias":-0.016594389266097822,"weights":{"r":-0.10743379163290999,"g":0.07884817642901777,"b":-0.09474522115770329}},"125":{"bias":0.058495557174738255,"weights":{"r":-0.26595536436696804,"g":-0.10263807545875962,"b":-0.3366169595679761}},"126":{"bias":0.08682974543996001,"weights":{"r":0.12727945289150494,"g":-0.03326063952392366,"b":0.27899589770684186}},"127":{"bias":0.1289806303550806,"weights":{"r":-0.18607654509333543,"g":-0.17162112795918355,"b":-0.20477809973653965}},"128":{"bias":0.07029097577704782,"weights":{"r":-0.19130377801084594,"g":-0.028767910998478807,"b":0.07098586112510914}},"129":{"bias":0.08897016242599803,"weights":{"r":0.2981692820413964,"g":0.05136375745822588,"b":0.4052121014231183}},"130":{"bias":-0.09029380213204359,"weights":{"r":0.12570889277085975,"g":0.29879233854325815,"b":0.3464675080211117}},"131":{"bias":-0.12729139561158803,"weights":{"r":-0.20545821978738313,"g":-0.07601858373337977,"b":-0.16525622809078064}},"132":{"bias":-0.17283756318774576,"weights":{"r":-0.13707487150252756,"g":0.03396672157927256,"b":-0.0749417915947398}},"133":{"bias":-0.09778024332185835,"weights":{"r":-0.2952987561832697,"g":-0.2855143626580411,"b":-0.1603569069934493}},"134":{"bias":-0.14220664329037788,"weights":{"r":0.30775793822848646,"g":0.15455023742474647,"b":0.3456539371429709}},"135":{"bias":-0.11384545023759506,"weights":{"r":0.34955888759580656,"g":0.04722370130719709,"b":0.41898126383666284}},"136":{"bias":-0.026009951120880826,"weights":{"r":0.09280973254845798,"g":-0.10438352619419865,"b":-0.1362452451571779}},"137":{"bias":0.06843730733465825,"weights":{"r":0.2510899006537176,"g":-0.12670852380595107,"b":0.023151478688358904}},"138":{"bias":0.14153482432658188,"weights":{"r":0.13628527896167714,"g":0.01564377217204194,"b":0.14795287862043302}},"139":{"bias":0.16583105355706232,"weights":{"r":-0.36138454118051694,"g":-0.04086910021621544,"b":-0.3472331849654652}},"140":{"bias":-0.14712572177342578,"weights":{"r":0.08541917395200153,"g":-0.04994285940885185,"b":-0.06772119025750965}},"141":{"bias":-0.13165008809049825,"weights":{"r":0.04351140579345207,"g":0.12253854311071957,"b":-0.029711662226900703}},"142":{"bias":-0.030887412457407802,"weights":{"r":-0.3018029500979109,"g":-0.24875545481636677,"b":-0.21196445445254658}},"143":{"bias":-0.08578802083038332,"weights":{"r":-0.23203005062446175,"g":-0.12119129283426355,"b":-0.2596728738082028}},"144":{"bias":-0.18512537951223548,"weights":{"r":0.15653530634533805,"g":-0.15328107955488926,"b":0.11048146585096902}},"145":{"bias":-0.011615799646595183,"weights":{"r":-0.3148078374685538,"g":-0.09280262632248956,"b":-0.24113630020879387}},"146":{"bias":0.029897097483148602,"weights":{"r":0.09346821473099252,"g":-0.18407782479298912,"b":0.033201336348858995}},"147":{"bias":0.017653988258365623,"weights":{"r":-0.18630071181931612,"g":0.016094300605465097,"b":-0.2188912560909053}},"148":{"bias":-0.067598799856824,"weights":{"r":-0.28480069663706387,"g":-0.05112326591520391,"b":0.034482472302394214}},"149":{"bias":-0.10552699686295836,"weights":{"r":0.10831320439171893,"g":-0.19320229726742058,"b":-0.041651206473545734}},"150":{"bias":0.17080777048254955,"weights":{"r":0.12035632498006094,"g":0.15517458227586917,"b":0.03793486857653838}},"151":{"bias":0.1280334036871026,"weights":{"r":-0.25217338065701644,"g":0.027004450404335037,"b":-0.2675219156439745}},"152":{"bias":-0.015297589753585757,"weights":{"r":-0.05926061344612573,"g":-0.24744988948870222,"b":-0.06299876400050462}},"153":{"bias":0.13821658502523573,"weights":{"r":0.002691437087627606,"g":-0.20141158573371604,"b":-0.19574944140362657}},"154":{"bias":0.04788856864565963,"weights":{"r":-0.10004257727710185,"g":0.07118887889586716,"b":0.03503202462194867}},"155":{"bias":-0.06071537334773094,"weights":{"r":0.15469607195535062,"g":0.17930621737839655,"b":0.21832703998329114}},"156":{"bias":0.1611796836968995,"weights":{"r":0.10913281392561384,"g":0.043506734759537036,"b":0.22987010005194541}},"157":{"bias":0.11838545118290021,"weights":{"r":-0.10377792648058631,"g":-0.040878904511728736,"b":0.009452436382737633}},"158":{"bias":0.11391576714557804,"weights":{"r":-0.34772468031828907,"g":-0.14198612771996189,"b":-0.43239162350295823}},"159":{"bias":0.030029770238803478,"weights":{"r":-0.022774778087302886,"g":-0.046573732495073815,"b":0.1346092344899528}},"160":{"bias":-0.02322255729656955,"weights":{"r":-0.00026349333007993746,"g":-0.09807013012144619,"b":0.2472072722071236}},"161":{"bias":-0.12050772948854223,"weights":{"r":-0.03247087740745054,"g":0.08827007583038426,"b":0.17970125335713077}},"162":{"bias":0.1567586849620925,"weights":{"r":-0.08682905089653294,"g":0.09241246747650804,"b":-0.33388470978830287}},"163":{"bias":0.012935255890975536,"weights":{"r":0.04051871085500724,"g":-0.12146325197064309,"b":0.1604223765561077}},"164":{"bias":0.0915432034882632,"weights":{"r":-0.13678527566627385,"g":-0.03412862787037907,"b":-0.16612056730942268}},"165":{"bias":-0.053382841300215235,"weights":{"r":-0.01996096709297429,"g":-0.22482670053318582,"b":0.02248312193931728}},"166":{"bias":0.04167065898275278,"weights":{"r":-0.0925933263871285,"g":0.09789979412875768,"b":-0.2818064495118301}},"167":{"bias":-0.08719896599910397,"weights":{"r":0.23768861938458843,"g":-0.04239227701590163,"b":0.10607494789563955}},"168":{"bias":0.014629615207923842,"weights":{"r":-0.014623757223272724,"g":-0.006101011896424919,"b":-0.01476006628906283}},"169":{"bias":-0.06456449141604884,"weights":{"r":0.2087128774456647,"g":0.0016891974358982408,"b":0.00117373775782858}},"170":{"bias":-0.09792016122372554,"weights":{"r":0.00795362730647564,"g":0.013145254175027052,"b":-0.2585512759184936}},"171":{"bias":0.08380398362935207,"weights":{"r":-0.10976982233099368,"g":0.14911389254116378,"b":0.15563759667371638}},"172":{"bias":0.02423606296323437,"weights":{"r":-0.4406925845869136,"g":-0.2586385088945165,"b":-0.42247535499018246}},"173":{"bias":0.18345520568061097,"weights":{"r":-0.16133568517219832,"g":0.03098389191160452,"b":-0.19847606255514655}},"174":{"bias":-0.10919571807340159,"weights":{"r":-0.30315362011098157,"g":-0.04343304972448923,"b":-0.2501357649791626}},"175":{"bias":-0.14157103461219822,"weights":{"r":-0.31361316736303796,"g":-0.2802290051604459,"b":-0.33336329851386326}},"176":{"bias":0.0673690995008891,"weights":{"r":-0.26436060024514746,"g":0.14472307802991308,"b":-0.2046657176248202}},"177":{"bias":-0.12401193875652411,"weights":{"r":-0.06341281515870213,"g":0.048172203410724604,"b":0.06021703303147592}},"178":{"bias":-0.06699793546406176,"weights":{"r":-0.019998569106897176,"g":-0.12287948961336034,"b":-0.1256474823749069}},"179":{"bias":-0.185446853408167,"weights":{"r":0.40838756905356155,"g":0.32400836787629217,"b":0.3491690932510661}},"180":{"bias":0.14826512453071425,"weights":{"r":0.26475197666823763,"g":0.035797873488997045,"b":0.04027887038398062}},"181":{"bias":-0.10605209894380832,"weights":{"r":0.20545164258418463,"g":0.006516136565346404,"b":0.28158133942856717}},"182":{"bias":0.1910161130613001,"weights":{"r":-0.05687431938820144,"g":-0.09574086873903735,"b":0.20983826144444884}},"183":{"bias":-0.15316960209389324,"weights":{"r":0.1098030661376253,"g":0.005430632829069306,"b":-0.042171962162509395}},"184":{"bias":0.01899618135077359,"weights":{"r":0.01341472317173677,"g":-0.1746263296496638,"b":-0.15398411884511215}},"185":{"bias":0.12243453540874068,"weights":{"r":0.1517632999111527,"g":0.15776487660643504,"b":0.2204316421019819}},"186":{"bias":0.08254202311567241,"weights":{"r":-0.07339011703995754,"g":-0.10055441616696625,"b":-0.16051786407436136}},"187":{"bias":-0.015441428309112628,"weights":{"r":0.11202592753219935,"g":-0.05646179200534327,"b":0.23163619701348864}},"188":{"bias":0.15205985827754342,"weights":{"r":0.2764379712470771,"g":0.23038384552103047,"b":0.1930536376161881}},"189":{"bias":0.11718904313558177,"weights":{"r":-0.26392790811036704,"g":-0.21951745081640706,"b":-0.41479108906346474}},"190":{"bias":-0.13883395514538108,"weights":{"r":-0.0584926165573897,"g":-0.22937627804112135,"b":-0.054743853145214356}},"191":{"bias":0.14009965616567416,"weights":{"r":-0.32413198143812644,"g":-0.05563562582859218,"b":-0.14106382363811898}},"192":{"bias":-0.17768858092363932,"weights":{"r":0.0962096104401638,"g":-0.14732334399389901,"b":-0.00829629959925812}},"193":{"bias":-0.06797244370189674,"weights":{"r":0.09531800489121782,"g":0.21896536737169428,"b":0.19567503795873203}},"194":{"bias":-0.08663421234066528,"weights":{"r":-0.0197591415506573,"g":0.03854352768392573,"b":0.16785317490192972}},"195":{"bias":-0.05063944983941709,"weights":{"r":0.030311240513922488,"g":-0.013589711815237137,"b":0.019801143763227228}},"196":{"bias":-0.1558866026555649,"weights":{"r":0.2553243827859964,"g":-0.12207809647802206,"b":0.15750688404799934}},"197":{"bias":0.03720173074357872,"weights":{"r":-0.01786199949563193,"g":-0.09807328365209547,"b":-0.11943623382178574}},"198":{"bias":-0.14384401152902548,"weights":{"r":-0.09407028299308921,"g":0.01595186905158141,"b":-0.11814296677316787}},"199":{"bias":-0.03876891127552737,"weights":{"r":-0.05185596155508579,"g":-0.02977466213798678,"b":0.20475648609564787}},"200":{"bias":-0.12303845406013636,"weights":{"r":0.08924019622187532,"g":0.18770646987291859,"b":-0.10534907949803893}},"201":{"bias":-0.11308212898842103,"weights":{"r":0.1613244970960674,"g":0.20397674522185608,"b":0.06577569228872285}},"202":{"bias":-0.060728579949027306,"weights":{"r":-0.2524193617099534,"g":-0.11686838811799902,"b":-0.19210300733418348}},"203":{"bias":0.009099912848115246,"weights":{"r":0.10056683765247557,"g":0.10829755873196813,"b":0.2610019808524538}},"204":{"bias":0.03568927533660932,"weights":{"r":0.0236849626918591,"g":0.17045164000379365,"b":0.16949697997823307}},"205":{"bias":-0.05833436770189987,"weights":{"r":0.022773903793268827,"g":-0.05102050359718147,"b":-0.16677735490315163}},"206":{"bias":-0.01843886082035421,"weights":{"r":0.17629744022519223,"g":0.15006370882425063,"b":-0.05559164657249876}},"207":{"bias":0.15905892454304907,"weights":{"r":-0.24133378537342606,"g":-0.0657892265829254,"b":-0.3193106671315155}},"208":{"bias":0.0030563909415252523,"weights":{"r":0.02953201699146652,"g":-0.24230191677946117,"b":-0.2006390242000954}},"209":{"bias":-0.06223911968680672,"weights":{"r":-0.15432221864969864,"g":-0.10006255933881567,"b":-0.28072273121270236}},"210":{"bias":-0.1282350622035254,"weights":{"r":0.08336892105554304,"g":0.14276469787329546,"b":-0.008728033564306301}},"211":{"bias":0.09871026530732678,"weights":{"r":0.08806015287298986,"g":-0.03293166241401448,"b":0.015630577666902446}},"212":{"bias":-0.1757442080887955,"weights":{"r":0.025163979177655553,"g":-0.15836352274906246,"b":0.12154327248760806}},"213":{"bias":0.1804057647815445,"weights":{"r":0.1839785698853759,"g":0.2441231310786807,"b":0.18340582371295439}},"214":{"bias":-0.18682378940630823,"weights":{"r":0.16905631506605043,"g":0.1794898359239327,"b":-0.016815810713245498}},"215":{"bias":0.1552429568866228,"weights":{"r":0.21709612147903384,"g":-0.000861536054902407,"b":0.29749819066546473}},"216":{"bias":0.10692956428935518,"weights":{"r":0.11004361572737209,"g":0.07497990619257872,"b":0.11051241080091241}},"217":{"bias":-0.14650509281049862,"weights":{"r":0.19742057161440044,"g":0.005490677658359292,"b":0.3621627382661404}},"218":{"bias":0.18934898549777096,"weights":{"r":-0.24446873217125878,"g":-0.2945375538966757,"b":-0.47083655909963074}},"219":{"bias":-0.15953073074671587,"weights":{"r":0.21269748449230785,"g":0.18521835664492065,"b":0.16377532030365605}},"220":{"bias":-0.12612165463911398,"weights":{"r":0.34807455533998327,"g":-0.05224448623867795,"b":0.3955052338094604}},"221":{"bias":-0.07711021825774021,"weights":{"r":0.179176009828943,"g":0.07787853316650524,"b":0.2311561042260697}},"222":{"bias":0.10218892909146536,"weights":{"r":0.1134551142765188,"g":-0.06951925417138978,"b":-0.2033763124195137}},"223":{"bias":0.04158374629442985,"weights":{"r":0.3493462245522042,"g":0.23173492508605134,"b":0.2809220065681013}},"224":{"bias":0.10603948840627171,"weights":{"r":0.17339495880316094,"g":-0.14170961573173163,"b":0.13359988480220875}},"225":{"bias":0.10568122044752265,"weights":{"r":0.27009884399302775,"g":0.1898372505593386,"b":0.1548170892751042}},"226":{"bias":-0.02198163821400414,"weights":{"r":-0.14631275332906882,"g":0.06619062819542751,"b":-0.3495535828819589}},"227":{"bias":0.1706360272691846,"weights":{"r":-0.11305505532976967,"g":-0.1317878480329104,"b":-0.04262305412245912}},"228":{"bias":-0.19318313895397604,"weights":{"r":0.04768043498768567,"g":0.13250496706749706,"b":-0.25713234629313614}},"229":{"bias":0.12768313223611552,"weights":{"r":0.09652436910175215,"g":0.16796625453098513,"b":0.08503985407783567}},"230":{"bias":0.12555818361152996,"weights":{"r":-0.1352029534996105,"g":0.005574179834758741,"b":-0.11047280056341498}},"231":{"bias":0.035857906351834355,"weights":{"r":0.14717554730885743,"g":0.2337822829232992,"b":0.15156074699446231}},"232":{"bias":-0.09554222897308277,"weights":{"r":-0.29917076477157073,"g":-0.24914487988773354,"b":-0.10631114380618438}},"233":{"bias":0.06836729016357633,"weights":{"r":0.292850390125855,"g":0.13854000865891,"b":0.12213561714857463}},"234":{"bias":0.031076455579644745,"weights":{"r":0.12232683796673112,"g":0.05559592488219165,"b":0.13966905531604007}},"235":{"bias":0.08556154725232139,"weights":{"r":0.3653571580162106,"g":0.03279734725420003,"b":0.29874156652617295}},"236":{"bias":0.006217746129880414,"weights":{"r":0.1939616018489549,"g":-0.19428714002066105,"b":0.03398948144317302}},"237":{"bias":0.07224861260833364,"weights":{"r":-0.427728166619242,"g":-0.30289414612938587,"b":-0.3498448296892284}},"238":{"bias":-0.0005090770498059446,"weights":{"r":-0.07104108074842774,"g":-0.1422492543934838,"b":0.10883591803537392}},"239":{"bias":0.00663652783442499,"weights":{"r":-0.2682442150415354,"g":-0.24248942327518727,"b":-0.24942972501677313}},"240":{"bias":-0.060385973616504274,"weights":{"r":0.12896574373823014,"g":0.14167012769136808,"b":0.17092584060930213}},"241":{"bias":0.10591300116447093,"weights":{"r":-0.2020785109184317,"g":0.13304550833506068,"b":-0.18128957626806988}},"242":{"bias":0.15448556042792272,"weights":{"r":0.20024335615186586,"g":0.01988307215039233,"b":0.11303376109618471}},"243":{"bias":-0.05295930386941188,"weights":{"r":-0.10593927008500498,"g":-0.12148460384718594,"b":-0.05776962141130103}},"244":{"bias":-0.16776195213921175,"weights":{"r":0.023054230437468168,"g":-0.1362823979509943,"b":0.06925316411923774}},"245":{"bias":-0.013054693510626835,"weights":{"r":-0.005494373893831019,"g":-0.015892223430386505,"b":-0.3287239108814485}},"246":{"bias":0.1657845917945364,"weights":{"r":0.25904498663451886,"g":0.2176455522265648,"b":0.15875769913956034}},"247":{"bias":-0.18438722738326332,"weights":{"r":-0.29366065650803264,"g":-0.10194308451554134,"b":-0.09210824627880268}},"248":{"bias":-0.00954659487224094,"weights":{"r":-0.21167369228933985,"g":-0.1512459915585467,"b":-0.0348596773744476}},"249":{"bias":0.09748607016268304,"weights":{"r":-0.3221144164919922,"g":-0.2888006958032121,"b":-0.31978377281729603}},"250":{"bias":-0.18619365011265906,"weights":{"r":-0.016615268205344293,"g":-0.22185645569096618,"b":-0.06707828227453544}},"251":{"bias":0.1536756054869719,"weights":{"r":-0.24697215785456544,"g":-0.11422561996784356,"b":-0.33522135242447965}},"252":{"bias":0.007472192006488835,"weights":{"r":-0.06479894429806426,"g":-0.10693515668027562,"b":0.29597417167904627}},"253":{"bias":-0.10940451239858277,"weights":{"r":-0.1088925001392303,"g":-0.037094951570362085,"b":-0.10974561202259686}},"254":{"bias":-0.07347774830475931,"weights":{"r":0.057334102952578354,"g":0.018180753282202877,"b":0.08881972624135936}},"255":{"bias":0.027263171914307768,"weights":{"r":-0.18068436914418706,"g":-0.23843235149403444,"b":-0.2365467841921747}}},{"0":{"bias":0.12787733504214108,"weights":{"0":0.00420017500340506,"1":0.00919899391208878,"2":0.15969724820906672,"3":0.13966172474568572,"4":-0.011735895081208784,"5":-0.045167679620117744,"6":0.1815609963203744,"7":0.025000126335860774,"8":0.01629953496895149,"9":-0.08422578216416932,"10":-0.11377077250101113,"11":-0.1424952485280731,"12":-0.18072841971172518,"13":-0.07361619452974187,"14":0.04979182236872881,"15":-0.12466284054833392,"16":-0.11798892383922696,"17":-0.045853299250787724,"18":-0.18779693203812395,"19":-0.1392783428797265,"20":-0.16867196548640664,"21":-0.005006616477493443,"22":-0.13697708556091917,"23":0.06508052359474112,"24":0.22864768225798243,"25":-0.15532263014350048,"26":0.13359240547649495,"27":0.18710234771920137,"28":-0.16812071592570202,"29":0.14323114342450333,"30":-0.089851753835307,"31":0.11027058153484773,"32":-0.08031893487655274,"33":0.003064513717104321,"34":-0.006185164745802172,"35":0.07122435523563399,"36":0.03197650636733636,"37":-0.12018592281589524,"38":-0.10305270679842081,"39":-0.015678763902993092,"40":0.1860321136622059,"41":-0.19007505601636193,"42":0.12252066405455973,"43":-0.011659404879908184,"44":-0.10392563847129331,"45":0.16296079870173802,"46":-0.18893379538084956,"47":-0.06739581752279623,"48":0.004928021172737441,"49":-0.040228960989025675,"50":0.06904835644084129,"51":0.06652051442134592,"52":0.11829792112280954,"53":0.09451483576070736,"54":-0.16852397831420712,"55":-0.10280047859481782,"56":0.20873291756061385,"57":-0.016867812270023853,"58":0.1835602141702422,"59":0.06273921326197814,"60":0.08945772008314012,"61":-0.1011172137175844,"62":-0.08846934609070627,"63":0.018117438089523392,"64":0.13258391665101488,"65":0.014252169650617786,"66":-0.14901600071752286,"67":-0.08072200231817742,"68":0.16223188130626456,"69":0.049816333121440654,"70":-0.20135995381047994,"71":0.15941404117541824,"72":-0.2188064836062377,"73":0.07397802276608006,"74":-0.13088065341836408,"75":-0.0592215130974211,"76":0.09709462631663394,"77":0.06221887941868292,"78":-0.194111361908225,"79":0.13226800789113796,"80":-0.0077310094068041525,"81":0.1565521776922087,"82":0.10183589184237617,"83":-0.19383400395860798,"84":-0.06191876942295189,"85":-0.17135701190315075,"86":0.01932517292300855,"87":0.1478221482659061,"88":0.11605440471905781,"89":0.03659897356394268,"90":0.12784724532127795,"91":-0.20852693025087293,"92":-0.15251985759763062,"93":-0.13007796158100957,"94":0.20041770820758056,"95":-0.0358422108197981,"96":-0.04300395609157637,"97":0.07119510408154547,"98":-0.10759354167171112,"99":0.1147457505777049,"100":0.07265493031106236,"101":0.10913918229407775,"102":0.1812743310524999,"103":0.12063426822162512,"104":-0.007252170877132947,"105":-0.07378698035397563,"106":-0.04565660518996901,"107":0.05910996135697543,"108":0.17705912389829911,"109":0.19016969692599717,"110":0.11319470203767242,"111":-0.15064775451615997,"112":-0.13627782525331447,"113":-0.15781069987538462,"114":0.012428768208595068,"115":-0.15740485376011806,"116":-0.05853762044015249,"117":0.0899645175341753,"118":0.16541259767002037,"119":-0.07567010070767125,"120":0.12418417654690225,"121":0.10402589922891672,"122":-0.054959375972941954,"123":-0.13140032243126112,"124":-0.06548576465310207,"125":-0.21469941336360368,"126":-0.1358451662173699,"127":-0.18261199578512652,"128":0.15249917021753134,"129":0.10028737525873357,"130":0.16863066027210732,"131":-0.121926140435859,"132":-0.08068559366454794,"133":0.08080113961154303,"134":-0.15352585761543994,"135":0.2132895418021044,"136":-0.12375243492198099,"137":-0.11373908712009331,"138":-0.1699293949919918,"139":-0.07727344401697167,"140":0.1700586128263916,"141":-0.13423065784165403,"142":0.034522663886807615,"143":-0.13252946235202775,"144":-0.14458354452893765,"145":0.11051279901126883,"146":-0.023847065522190448,"147":-0.06564276321879424,"148":-0.17392030493535557,"149":-0.07561812769462053,"150":-0.052310857411732976,"151":-0.15109405649967245,"152":-0.1763424777807227,"153":0.12008985836097023,"154":-0.1153365594312811,"155":-0.008284553860745093,"156":0.008509165025839462,"157":-0.04265739581524565,"158":0.1381367597906843,"159":0.0672620107098734,"160":0.18301947779319824,"161":-0.06693098531484504,"162":-0.0866229401013616,"163":-0.08473357995600862,"164":-0.04384956168461607,"165":-0.08445665952234266,"166":-0.07641180196940418,"167":-0.09904059814681139,"168":0.06095218542890317,"169":-0.06726982872249981,"170":0.16380747135253643,"171":0.10689385066589079,"172":-0.2092048071533402,"173":0.035995515970577215,"174":0.05566384273602197,"175":-0.0652655712081739,"176":0.06793612822641311,"177":-0.024775736560369886,"178":0.04468939892952017,"179":0.059491609208485445,"180":-0.07470486711937388,"181":0.0632925982687805,"182":0.0931855870526992,"183":0.07327627037646832,"184":-0.0333784459530778,"185":-0.07167988485678731,"186":-0.1779578692288748,"187":-0.04057555871044307,"188":-0.1649720076795532,"189":-0.054665302630868974,"190":-0.13058199730636982,"191":-0.1326173064460906,"192":0.17276505530208197,"193":-0.09022783067902934,"194":-0.09232810239824177,"195":-0.053870666389020494,"196":0.1614919726955439,"197":-0.12287643250996391,"198":-0.1682958776597066,"199":0.02819043609604402,"200":0.12008960732114352,"201":-0.12976776421785352,"202":-0.016605204326841087,"203":0.05983919060836308,"204":-0.06506842125975214,"205":-0.1834345855138837,"206":-0.09849803629356291,"207":0.040969496414267455,"208":0.08684626859711429,"209":-0.013594924637362267,"210":0.08119283766495915,"211":-0.19120817200194407,"212":-0.004892430175568847,"213":0.20777111448388141,"214":0.12390961540882009,"215":0.19951160845192129,"216":-0.1649444983315156,"217":-0.00882437067970392,"218":-0.041587639404545976,"219":0.14115240506940502,"220":0.07745949291494722,"221":0.08927194127682235,"222":0.1172865593673753,"223":-0.058327650466792454,"224":0.016299173152652363,"225":0.20701722899669234,"226":0.1584029796521305,"227":0.18129118790764565,"228":0.047225702893695085,"229":0.16778668523093998,"230":0.08876464637717119,"231":0.06526247852814077,"232":0.03717889480810584,"233":-0.05231829825636303,"234":-0.11211719440434409,"235":-0.08308873892407519,"236":0.09016893501686231,"237":-0.09953407975336524,"238":-0.19026523849252325,"239":-0.12770133304600656,"240":0.04495421102409869,"241":-0.20437527731040447,"242":-0.06036047860576624,"243":0.05836533630469237,"244":0.06460201749191713,"245":-0.043997571658642806,"246":0.1509055942152234,"247":0.12683254268515612,"248":-0.10771717681576451,"249":0.15166213824637878,"250":-0.07244319509485737,"251":-0.10487882243665018,"252":0.15467078945543092,"253":-0.018285677972473862,"254":-0.033071043337501306,"255":-0.20025975323840783}},"1":{"bias":0.10963980140190747,"weights":{"0":0.18807016864525325,"1":0.19374029878637117,"2":-0.1901390874013317,"3":-0.20573272347987248,"4":-0.06744065082599515,"5":-0.12578113938726093,"6":-0.12179973246083696,"7":-0.08752533644293672,"8":0.11462006836844935,"9":-0.15467385870986475,"10":0.1060331545764613,"11":0.17348220249897683,"12":-0.023606171338752292,"13":-0.02284452762426151,"14":-0.10962701217395902,"15":-0.049277574758523734,"16":-0.021537585405086674,"17":-0.08076296553489061,"18":-0.13930067470129914,"19":-0.15409522651390528,"20":-0.004010558716234833,"21":-0.18659646938234475,"22":0.1684674327096898,"23":-0.06910839217153746,"24":0.046797053224763276,"25":-0.20642307437446977,"26":0.16197628818449822,"27":-0.10065495679837552,"28":0.10473766986065491,"29":0.07565186802788593,"30":0.04827332552498301,"31":0.08431978039562,"32":0.10570316012432023,"33":-0.08576522647305178,"34":-0.181217404050045,"35":-0.20384558276900658,"36":-0.19841188302007373,"37":-0.0651067329401328,"38":-0.07684362152340007,"39":-0.10752472013916684,"40":0.07498208263438741,"41":0.022118354235812304,"42":-0.11809143598027778,"43":-0.03838751857264361,"44":0.04460001768028199,"45":-0.05400123151145015,"46":0.11627788962071349,"47":0.08293770822521403,"48":-0.02378866918466652,"49":0.18194857437068335,"50":0.11305868020886417,"51":0.014963687191222664,"52":0.1472841579821499,"53":-0.05220250648543776,"54":0.020651783148745443,"55":0.0370992108128765,"56":-0.03910900726818661,"57":0.02056990275045386,"58":0.05486294692881315,"59":-0.06771770055211508,"60":-0.20718204696832535,"61":-0.1903024249753204,"62":-0.15939560823163976,"63":-0.10507382667355768,"64":0.14468681955747129,"65":-0.028007707502428553,"66":0.04340732550681189,"67":0.09467489607410683,"68":-0.061836623541873526,"69":0.01439540845858021,"70":-0.12421054029335554,"71":-0.02708400707795754,"72":-0.10733591847776824,"73":0.033480127870420116,"74":0.048308329592365265,"75":-0.035203845775200554,"76":0.021388146249359224,"77":-0.18291070754174804,"78":-0.14831808894156834,"79":0.009834355726315355,"80":-0.01596741716024826,"81":0.08875078162870181,"82":0.013311610612489377,"83":0.15616175602940788,"84":0.13675394816089673,"85":-0.11554458713222714,"86":-0.20530795582554173,"87":0.07275111003963448,"88":-0.04396100584296886,"89":0.048128678752505205,"90":-0.0062641461790538385,"91":-0.03225547421768768,"92":0.16696721529342748,"93":0.17931071141862984,"94":0.1230173708999192,"95":0.06627776186366852,"96":-0.094367020726237,"97":-0.13268543300968727,"98":0.006364299443998912,"99":0.06745881245983239,"100":0.1335271168568078,"101":0.044352417499507364,"102":0.02377367297578765,"103":0.14482862562126328,"104":-0.16977588547724526,"105":-0.05270049957851049,"106":-0.0857163828246999,"107":0.06736950429911141,"108":0.0670428187504344,"109":-0.004130233084795737,"110":-0.09205959507771862,"111":-0.14181779299560002,"112":-0.1921975321673079,"113":0.011972371122821726,"114":-0.058888440028202434,"115":0.08998465066857197,"116":-0.06294372734984476,"117":-0.18557148498429546,"118":-0.11935165720218681,"119":0.06700932564470981,"120":-0.019818731562361355,"121":0.07679892872447217,"122":0.1414485101309681,"123":0.08474524824701966,"124":-0.11526814485041632,"125":-0.1612582115034422,"126":-0.02866086233723203,"127":0.010300247960803848,"128":0.1126254883622491,"129":0.17105029194479693,"130":-0.04804728220936328,"131":0.16864693494123825,"132":0.10508287169040134,"133":-0.10557551545653758,"134":-0.1746492865794677,"135":0.05960261218479853,"136":0.058986502637943805,"137":0.09302209517337401,"138":-0.020987338975419823,"139":-0.14761306981461222,"140":0.10026825414428459,"141":-0.18217899413904365,"142":0.16812393176801335,"143":-0.07360923729379476,"144":0.030525654872589437,"145":0.05338715445405175,"146":0.12391765117295854,"147":0.13270006680167187,"148":-0.04846662112977819,"149":0.16641767911417926,"150":0.03834449696028601,"151":0.05949229237942378,"152":-0.01292941002145991,"153":-0.11566588975204929,"154":-0.1785573386783957,"155":0.1748851255490543,"156":0.006184218055171453,"157":-0.12279754303755314,"158":0.09530794115679926,"159":0.15728466047337178,"160":0.13899850530380714,"161":-0.11842821129555262,"162":0.18626658168850171,"163":-0.09974497116784667,"164":0.1343791813071467,"165":0.050363662394800765,"166":0.18930376487908346,"167":0.029933817368408576,"168":0.15333792493023365,"169":-0.052215308612862325,"170":-0.19630712030216418,"171":0.06078976174545675,"172":-0.08428785653841435,"173":-0.003610160336496781,"174":-0.11636848466886184,"175":-0.06894576897043249,"176":0.018834991665680742,"177":-0.05302468636788961,"178":-0.044194796721742285,"179":0.1036234497438509,"180":0.10636523765822992,"181":-0.09406533067879536,"182":0.14245079196409127,"183":0.1393253676180095,"184":-0.13170276795486693,"185":-0.15192651809022306,"186":-0.16152429521044853,"187":0.1481124164612269,"188":-0.1512357764214219,"189":-0.13247232505997125,"190":0.1264597545439857,"191":0.055814407067460006,"192":0.003661701579474021,"193":0.18867723029631603,"194":0.08723684406272869,"195":0.062172493801573574,"196":0.03547178703103883,"197":-0.08013279158394557,"198":-0.10359937575769658,"199":-0.0305080120716787,"200":0.03369960752936993,"201":0.10594579653245226,"202":-0.05497519572782802,"203":0.09862573236335752,"204":-0.1961262948034179,"205":-0.154168265440507,"206":0.006161059374504742,"207":0.10468668373977075,"208":0.09503614474820139,"209":0.08519738769550383,"210":0.10914776828096094,"211":0.014172987311334182,"212":-0.013481483116015311,"213":0.007292888149884893,"214":-0.20535291153070664,"215":0.06708784573125924,"216":-0.1536084978577322,"217":-0.030095571287104866,"218":0.16174068659884389,"219":0.11564614579086363,"220":0.05391659995429903,"221":-0.0680833529384204,"222":0.1093284224248235,"223":0.04790912369602841,"224":-0.14232348518490562,"225":0.1410089855156574,"226":0.12629249770812284,"227":0.1406545752697094,"228":-0.20058093098252577,"229":0.012785647146364156,"230":0.014010137045476368,"231":-0.19333068227316666,"232":-0.19023261126222393,"233":-0.1490825633583669,"234":-0.07846791979171926,"235":-0.14341137057935865,"236":0.18593869656741388,"237":-0.17719900512217754,"238":-0.11506135222393359,"239":0.13326359761037535,"240":0.0941481992836645,"241":-0.14555301808400783,"242":-0.16063802081282766,"243":-0.18019684533951386,"244":-0.0573988694445962,"245":-0.04122238514287029,"246":-0.18590250615998533,"247":0.12541509525511116,"248":0.16462513759216343,"249":-0.1591853181969615,"250":0.14072489604528668,"251":-0.001403769042256401,"252":-0.145000918944487,"253":0.0359422702138758,"254":0.062318841971505314,"255":-0.14084868488586152}},"2":{"bias":-0.03947951057427909,"weights":{"0":-0.08029826651455235,"1":-0.10369146801920404,"2":0.0621436555494279,"3":0.021259552037795865,"4":-0.19780385496011116,"5":-0.14065806298985606,"6":0.1778277133592743,"7":0.06011024996002551,"8":-0.17799923705537346,"9":-0.1378538151406557,"10":0.1475659198501106,"11":0.06171989027917496,"12":-0.21451481428597452,"13":0.09647350680600966,"14":-0.18579491962174974,"15":0.15768106701307744,"16":-0.08312326478667582,"17":0.1164272411328636,"18":-0.17945352307972112,"19":-0.0877572736179018,"20":-0.05390719512789918,"21":0.09309075187936938,"22":0.14194960389109387,"23":0.14596353656355524,"24":0.11634936557783242,"25":0.17510773366818358,"26":0.059018307529366404,"27":-0.0839097123434742,"28":0.12779465685367036,"29":-0.1558944518186905,"30":-0.03986426712192798,"31":-0.20865348524962052,"32":-0.08540802010474402,"33":0.14093732490460179,"34":-0.032268798900863094,"35":0.19407331806788244,"36":-0.08473272071993912,"37":0.06604942172784299,"38":-0.08070722996743147,"39":-0.09630913357097867,"40":0.03671054065877492,"41":-0.016303655917305086,"42":0.12140650773475264,"43":-0.18790515014593484,"44":-0.12458239023076993,"45":-0.0942593709459333,"46":0.12859372974391686,"47":-0.06555496777445603,"48":0.08282306089543613,"49":0.0017340471401248504,"50":0.1273606359473205,"51":-0.12127701867627423,"52":-0.09605611516362982,"53":0.06664227437227982,"54":0.08892278753552915,"55":0.07938396774662868,"56":-0.06689277424127416,"57":-0.15305009365038894,"58":0.04051226256140455,"59":0.13827079637481152,"60":-0.17624241622959394,"61":-0.189212647825722,"62":0.07185496872825574,"63":0.005759861881243561,"64":-0.02127818908692608,"65":-0.017473693570408528,"66":-0.2148900141858239,"67":0.1502185954403262,"68":-0.17670248081960122,"69":0.10802077133432852,"70":0.0442206394614515,"71":-0.15419109664387454,"72":-0.12115278776197796,"73":0.14575940956014263,"74":0.18426639559350905,"75":0.12963585986102985,"76":0.09852700284740662,"77":0.06363803004331242,"78":-0.15265446838521787,"79":0.08423717175620098,"80":0.14125500069864028,"81":0.03465689149505048,"82":-0.15088383232764913,"83":-0.1344679710878195,"84":-0.17486679079789355,"85":0.08556614923613476,"86":0.0935623567660098,"87":-0.04746930326896971,"88":-0.09909173635402471,"89":0.1380582639347065,"90":-0.16849241894781256,"91":0.031801394475364446,"92":0.15388435239617473,"93":0.11657523377707571,"94":-0.060905523887330525,"95":-0.08381062972494503,"96":0.16060219659131408,"97":-0.054585597542874446,"98":0.11220344459066532,"99":0.00393530863587967,"100":0.021320997269055977,"101":-0.00952309204487478,"102":-0.010299250097784114,"103":0.05093165967565654,"104":-0.13621821327821335,"105":-0.15974862286455913,"106":-0.09559247272078979,"107":-0.11481473920759248,"108":0.006163865802186891,"109":-0.05077310236179418,"110":-0.10247164474763004,"111":-0.14415813459493385,"112":0.03879289304635091,"113":0.11657476579796529,"114":-0.16788128200252603,"115":0.14801764639217083,"116":0.04061759119714317,"117":0.06858592084204446,"118":0.13423462635327976,"119":-0.13379114445632478,"120":0.05846425790576997,"121":0.10676172656513387,"122":0.1433810902073574,"123":-0.15420351491526443,"124":0.08000666695451364,"125":0.08632915224995624,"126":0.15095608589320553,"127":0.06251830276511779,"128":-0.11774867959800166,"129":0.16206452853740913,"130":-0.06767169068556064,"131":-0.04594807951668618,"132":0.05812554851066066,"133":0.13984033021035483,"134":0.19428527255120467,"135":-0.011347908110197778,"136":-0.05476083276895554,"137":-0.1716268058093699,"138":-0.004250209300532637,"139":-0.12641511131732333,"140":-0.12118854562856755,"141":0.14793959599322676,"142":-0.15704722940072066,"143":0.14553376672391036,"144":-0.10316997500738859,"145":-0.050414021970069244,"146":-0.12463388101014788,"147":-0.0004369435249741679,"148":0.0640649937728991,"149":0.13278964981005137,"150":-0.12038566584600317,"151":0.12312311713571372,"152":0.15110473514458744,"153":-0.07270202695499585,"154":-0.14821569715004887,"155":0.062125511510775146,"156":0.03510162463230851,"157":-0.07133340947269379,"158":-0.17584991549129408,"159":-0.02514001709199702,"160":-0.11677453557731411,"161":0.0515088083072385,"162":0.1703188729643915,"163":0.02254844958816138,"164":0.1525368252349725,"165":0.03473091890218064,"166":0.1324164170310809,"167":-0.11467917364497222,"168":-0.13638967036317673,"169":-0.09678787693178145,"170":-0.08176789704645658,"171":-0.1167656911250833,"172":0.13505309480812697,"173":0.09174695846370061,"174":0.15703382833297236,"175":0.1431124671595984,"176":-0.09356755445695417,"177":0.16117694210670147,"178":-0.14843635684928688,"179":-0.11145825698958475,"180":-0.1323527179355187,"181":-0.03160713551178227,"182":0.0061503375792854005,"183":0.146563165928053,"184":-0.010201928562364014,"185":-0.021298513359356525,"186":0.04739214542065568,"187":0.12506172798760185,"188":0.06402005565404437,"189":-0.09010581680972121,"190":0.060605365767356756,"191":-0.10427566697565613,"192":0.08422247631015906,"193":0.049179244426954066,"194":0.13983756221599564,"195":0.1110969700230292,"196":-0.08275404569818098,"197":0.09467559709270329,"198":-0.08706361015173647,"199":-0.15693260175175253,"200":0.129266057174554,"201":-0.14941525882658857,"202":0.05174543898867328,"203":-0.004344748178582712,"204":0.15146759907327695,"205":-0.009652873634807563,"206":0.1789419365542145,"207":-0.02662417977583271,"208":0.045654734590982446,"209":-0.05721019766166106,"210":0.07760334096577481,"211":-0.16249253825326224,"212":-0.07410600267290406,"213":0.16235460466161125,"214":-0.12853090908764495,"215":0.11181756715023575,"216":0.11072665632228845,"217":-0.09952328124969687,"218":0.0048254956893361,"219":-0.039075399977360536,"220":0.05806526561312056,"221":0.15783169122179297,"222":-0.1859309515840069,"223":0.07598405860140842,"224":0.09175348116774702,"225":-0.008242027371947508,"226":-0.05109107840927612,"227":0.008152091213537134,"228":0.09406740858024108,"229":-0.011194221179718999,"230":0.1557453697436145,"231":-0.07583673441958323,"232":0.013287753328536241,"233":-0.10861322523522586,"234":-0.020132813086539865,"235":-0.06365709591788077,"236":-0.15611624423673995,"237":0.04146591027473978,"238":-0.11276769629641561,"239":0.004742658360195442,"240":-0.01894477853164317,"241":-0.1941247431552308,"242":-0.14872527230591576,"243":-0.05031460343553773,"244":0.18568513641305545,"245":0.06501416897629703,"246":0.12950054927414353,"247":-0.19915514129985426,"248":-0.1730372123763517,"249":-0.031689463223140826,"250":-0.1311634956626603,"251":-0.1456338985054327,"252":-0.07515521836052352,"253":-0.11556701923077754,"254":0.028249231743159596,"255":-0.17957404383061593}},"3":{"bias":0.1507658001500741,"weights":{"0":0.06931551071920616,"1":0.19040832359089666,"2":0.06981485153218128,"3":0.043584635685067034,"4":-0.1253904439428141,"5":0.1217783054117307,"6":-0.11181060142533589,"7":0.13992129061849803,"8":-0.13849944963273667,"9":0.016817560452545156,"10":-0.10715072367448251,"11":0.03273600410783966,"12":-0.19769134617636114,"13":-0.16964104175267056,"14":-0.08478898609066161,"15":0.06293785536987792,"16":-0.08828344277023988,"17":0.08505821819780036,"18":-0.09567006391004976,"19":0.14547908782360036,"20":0.1845483058733096,"21":0.07769004935907868,"22":-0.1685233939427735,"23":0.06894226669515137,"24":0.02670623436537063,"25":0.04982982984461046,"26":-0.1330817437099553,"27":0.07493589035573349,"28":-0.20864454016914533,"29":0.04228565245661663,"30":-0.19347918893640687,"31":-0.16162245655360669,"32":0.1288369602424328,"33":0.14037345955017147,"34":-0.04299366163618368,"35":0.05699275355104039,"36":-0.016183388140852104,"37":0.10092828640512445,"38":-0.1219958069738517,"39":-0.17290431610842683,"40":0.21517723060541644,"41":0.038072824130824454,"42":0.12232883010820626,"43":0.04129269602363131,"44":-0.07713751737457089,"45":-0.08965388060479673,"46":0.19464308743107675,"47":-0.18774057413289574,"48":0.06314476404161301,"49":0.011987426431770332,"50":-0.05476508212971902,"51":0.034777371701909525,"52":-0.008601918330532162,"53":-0.01157280892415728,"54":0.15150840164619475,"55":-0.13472331236055762,"56":-0.03960929153468141,"57":0.006894696337045044,"58":0.13867437696715618,"59":0.0992788347593078,"60":0.043454918193044346,"61":0.17708522828907305,"62":0.0741946628661364,"63":0.16897651644063041,"64":0.11166195625516816,"65":-0.0491596882575552,"66":-0.1722372138343187,"67":-0.036182912568273363,"68":0.17408258942988722,"69":0.005506330776239548,"70":0.06843084333062635,"71":0.05471256687914623,"72":0.06638797852172698,"73":-0.16548923871574153,"74":0.22287220128211097,"75":0.10726194272715948,"76":0.0020567749869825056,"77":-0.03839048886436501,"78":0.13805305692482872,"79":-0.01133198381114816,"80":-0.012391125196193183,"81":-0.02117940565066433,"82":0.014044463963232598,"83":-0.10961774461883045,"84":0.08243976743672622,"85":-0.2165519990603475,"86":-0.052281205668660055,"87":-0.1180649569624516,"88":-0.24834521550571306,"89":0.19339951345778977,"90":-0.1305468938635967,"91":0.04797314619401938,"92":-0.03383106171385327,"93":0.0859109305569937,"94":0.002949769979111966,"95":-0.006674005726641604,"96":-0.2310350423879638,"97":-0.07573037675394438,"98":-0.14906657363010212,"99":-0.1113109929078897,"100":-0.06600196764704665,"101":0.21238912796613707,"102":-0.11195881091782475,"103":0.04066743342060287,"104":0.1506904102349542,"105":-0.03907822224530696,"106":0.09165008931852245,"107":0.10515090462503333,"108":-0.007882254144031594,"109":-0.17270372646921067,"110":0.12071484241450492,"111":-0.17143095854118023,"112":-0.18958375591685428,"113":0.076642169741665,"114":-0.22375845700735347,"115":0.06444333704845125,"116":0.13958641744116132,"117":-0.13834761783351887,"118":-0.12320108506176852,"119":-0.23686840918242946,"120":0.15765309966229424,"121":-0.10486959216885744,"122":0.061563355152788865,"123":-0.1382012069690163,"124":-0.008280854168007189,"125":-0.1166013611455601,"126":0.04210123773503895,"127":-0.11040287004291155,"128":-0.05458858243623114,"129":-0.07499171471290257,"130":-0.10743611652972561,"131":-0.1349819815292026,"132":0.08293131303285513,"133":-0.017280087498859013,"134":0.14146807040854203,"135":0.18131595780334694,"136":-0.12066961821682994,"137":0.08261517727854871,"138":0.19958105217101546,"139":-0.016613510989887916,"140":0.02227382031691957,"141":-0.09923166371900355,"142":0.12390144356653507,"143":0.13864902018029818,"144":0.21231348076906728,"145":-0.18215555679471512,"146":0.139999318780875,"147":-0.10380538948534777,"148":-0.08557559822120492,"149":0.15279251005921266,"150":-0.03827942251157437,"151":-0.18239155414121502,"152":-0.18391012002858537,"153":0.0068694525033610706,"154":-0.06745687159914862,"155":0.16023939175701002,"156":0.04407332059474899,"157":-0.05718904163511414,"158":-0.20856772559057052,"159":0.03470485905897309,"160":0.10793287095260157,"161":-0.11179461531913433,"162":0.03825469225492517,"163":-0.025455136914540367,"164":-0.029332742820837254,"165":-0.04203819478789941,"166":0.07402616932915895,"167":-0.07610702295563426,"168":-0.11947259073754601,"169":0.13458958578924735,"170":0.10176602037346288,"171":0.17153076875728498,"172":-0.12884955328192949,"173":-0.17463457905008978,"174":0.11372824036621834,"175":-0.046267571671318626,"176":0.12110198608478392,"177":-0.12227096615560146,"178":0.11820992077336091,"179":0.0860321657440884,"180":-0.05176220381354052,"181":-0.05198692182593994,"182":0.05026148679701626,"183":0.03677732362959702,"184":0.09931563728445303,"185":-0.1292698188669028,"186":-0.1032026438752655,"187":-0.10282997439569116,"188":0.17036355338002537,"189":-0.016228326516216977,"190":0.16822958879166305,"191":0.11910447922887671,"192":0.018029250691559653,"193":0.12610964205943137,"194":0.050313988167874794,"195":0.13009118341981243,"196":-0.06225443071591453,"197":0.18018593936626448,"198":0.12875684749707922,"199":-0.10579491410708865,"200":-0.07166170374144756,"201":-0.07568670059541754,"202":0.07578807323861457,"203":-0.018105234308447127,"204":-0.03597617715645292,"205":-0.19533224073092337,"206":0.18880660163421714,"207":-0.12314428816796116,"208":0.09124735177064672,"209":-0.1413595810177317,"210":-0.18036644287765952,"211":-0.09258373501478583,"212":0.10351492393934775,"213":-0.11564316704462729,"214":-0.10477074755310525,"215":0.13121167333334877,"216":0.12938700337888953,"217":0.19576072718049184,"218":-0.17888022444031157,"219":-0.06922926562515128,"220":0.2064599265953351,"221":0.021922296370443597,"222":-0.13663786019042745,"223":0.017493832891390528,"224":-0.17616305414175357,"225":0.2080938956943746,"226":-0.09360866943865229,"227":0.015206870569669058,"228":-0.09147152997539224,"229":-0.14077143568804093,"230":-0.15884012098493216,"231":-0.04320305077072809,"232":-0.20715942135962453,"233":-0.01034520468199011,"234":0.00695955321326377,"235":-0.021159993322420453,"236":-0.0966380751705615,"237":-0.14873113050271103,"238":-0.02389831057168575,"239":-0.24903827321203945,"240":0.07682359534894312,"241":-0.11345320853680509,"242":0.20173568019580831,"243":0.09926001338329014,"244":0.10328701642222368,"245":-0.01803761937344626,"246":-0.014179558695307992,"247":-0.10055819505701599,"248":-0.002026196656313316,"249":-0.25111231669850087,"250":-0.04680486231815498,"251":-0.13863608982226028,"252":0.054829442533503595,"253":-0.14401366565504073,"254":0.21908742792178418,"255":-0.23212355216651173}},"4":{"bias":0.09256605747724542,"weights":{"0":0.057131090713809896,"1":-0.13238641779645946,"2":0.023594065714963378,"3":-0.18742588515245917,"4":-0.08046313066233775,"5":0.1952543837089505,"6":0.06439582960508687,"7":-0.1718792336576865,"8":-0.022887247256776072,"9":0.08437733337650531,"10":0.09081482203779014,"11":-0.14208413941387407,"12":0.13341573281030666,"13":-0.012497909459767113,"14":0.145054892813822,"15":-0.04163845862596543,"16":0.17409883992803546,"17":0.19358255531340382,"18":0.1569217798844303,"19":-0.16552179459594044,"20":0.11977065336724724,"21":0.10804078309798815,"22":-0.18843917843434263,"23":-0.16214546850458675,"24":0.07217530140957439,"25":-0.10495841388965943,"26":0.10929530957435393,"27":0.12042042904661658,"28":-0.028528142016833208,"29":-0.16352434910607452,"30":0.1713233268926257,"31":0.18637614717058693,"32":0.04358884491299828,"33":-0.0656633768235508,"34":-0.13056315387049483,"35":0.09311956435065075,"36":-0.0029690720647363874,"37":0.04951710066499486,"38":0.1551709855739815,"39":-0.12345548121247281,"40":-0.1440278562238093,"41":-0.04254077390162554,"42":-0.12081686422959838,"43":0.01488043390412621,"44":-0.03889207761796683,"45":-0.020991690394605453,"46":-0.1656103511600428,"47":-0.1810381101142836,"48":0.03697834884305546,"49":0.11587995858975296,"50":0.01743909458812558,"51":-0.060394474650021956,"52":0.19556464625657544,"53":-0.14664341739066453,"54":0.08313445983725856,"55":-0.18392873845505606,"56":-0.029213056453993632,"57":-0.0587586178696131,"58":0.014214277167614179,"59":-0.08195168063350879,"60":-0.005724539649788659,"61":-0.031045844487527764,"62":-0.0954676244396045,"63":-0.0787833192737609,"64":0.013911794594280392,"65":-0.09172750913176521,"66":-0.15994007923300715,"67":0.10480487234920041,"68":-0.03469948283824593,"69":0.08163699254825069,"70":0.0075324019236662765,"71":0.06883553053382793,"72":-0.044151972910874165,"73":0.17505111670826576,"74":0.1123503947487253,"75":0.06856770814483412,"76":-0.07362940366522147,"77":0.1096173110981235,"78":-0.08452135321727226,"79":-0.0035367250808614257,"80":0.18010642040781402,"81":-0.19961497497325909,"82":0.056469318050400126,"83":0.05163677749242796,"84":0.08499937258396684,"85":0.1927391086560625,"86":-0.022523862857989747,"87":-0.11716642651245976,"88":-0.014152180602509409,"89":-0.0719806736732236,"90":0.02451571291429166,"91":-0.04261904368218417,"92":-0.07026140224650926,"93":0.032848903803215465,"94":-0.05998652167054632,"95":0.1503172331809599,"96":-0.10883345740551634,"97":0.1336722723450441,"98":-0.11892203747030988,"99":-0.04839122531493712,"100":0.14763583021256738,"101":-0.027845841997536945,"102":-0.00346649358777699,"103":-0.07096489555289931,"104":0.08248977940430845,"105":0.11116357328895095,"106":-0.12838791968300817,"107":-0.09908625209266202,"108":-0.16434067335425992,"109":-0.05942376095702864,"110":-0.06278256834483743,"111":-0.07673286198966818,"112":0.0015956453199009602,"113":-0.01404460480735758,"114":-0.05687738532645247,"115":0.07705219533245394,"116":0.17599088030523427,"117":0.10655181356915254,"118":-0.16357904311882138,"119":-0.039335760839028164,"120":-0.047194247313129434,"121":-0.1395150616048558,"122":-0.1181071022062358,"123":-0.08728453607639244,"124":-0.058027520827254105,"125":0.06909906422464837,"126":-0.0816993522168292,"127":0.15370175804606337,"128":-0.03436187933893248,"129":-0.0043323659114493105,"130":0.10902387112565719,"131":-0.14307424446129888,"132":-0.18122704263583292,"133":-0.0904381357763679,"134":-0.06277107114846814,"135":-0.020094800835446177,"136":-0.0721097433679899,"137":0.03114430590011874,"138":0.10343168142493782,"139":-0.09455817208703696,"140":0.1711763984416032,"141":-0.1441650590638992,"142":0.030265118806313402,"143":-0.12822746527849754,"144":0.12925589376634114,"145":-0.10535548208547728,"146":-0.17088956543004702,"147":-0.11050375353523485,"148":-0.02590086952417224,"149":-0.0852235755444021,"150":-0.033437415487840697,"151":-0.14785196144200913,"152":-0.11099689026934154,"153":-0.19920559305661228,"154":-0.14380106456030728,"155":-0.10616984051289832,"156":-0.02327652643813293,"157":-0.15983192827674234,"158":-0.09080924356296703,"159":-0.07797955308905442,"160":-0.17808374536352223,"161":-0.12124015455839862,"162":-0.19315083427477817,"163":0.1652424245157077,"164":-0.08701729453782998,"165":0.011002753143286552,"166":0.08695498238589854,"167":0.08126679795111463,"168":0.1373116202081985,"169":0.10409811703833442,"170":-0.1494649459759071,"171":0.11441659943645058,"172":0.08602854031340856,"173":-0.15913153683688638,"174":-0.15910415727727217,"175":-0.09812578477494723,"176":-0.17203496681156893,"177":-0.11906094623124479,"178":-0.14098917188073684,"179":-0.06756995980824891,"180":0.08859530619931948,"181":0.0958263532625343,"182":-0.14697453526885118,"183":0.09525817642869132,"184":0.1550921809975569,"185":0.1895767226964986,"186":0.1936960779070812,"187":-0.07978255033043703,"188":0.16155122051576512,"189":0.0052583681891994125,"190":-0.07748626445151864,"191":-0.10644233805502473,"192":-0.11472474078895353,"193":-0.18899607744336583,"194":-0.02737135940513761,"195":0.1745598288096824,"196":-0.004506907792766187,"197":-0.11383544258802435,"198":0.14757218504296749,"199":-0.16683163269575005,"200":-0.09497986274578325,"201":0.034072867389169495,"202":-0.1167253616624334,"203":-0.011968209274536543,"204":-0.16717117469753845,"205":-0.16987144145731622,"206":-0.1402202590310264,"207":-0.0661941562518249,"208":0.028119088774126635,"209":0.05110704023709162,"210":-0.08366729061299194,"211":0.13204847237877668,"212":0.14097211541062232,"213":0.1200326069795521,"214":0.1911157750460844,"215":-0.033639491661567066,"216":-0.16449182027724127,"217":0.16682666677937913,"218":0.13112850870933826,"219":0.009159331604673644,"220":-0.12922038976882355,"221":-0.006175417047733711,"222":-0.13474919496737744,"223":0.026174928524341265,"224":-0.030469943119757127,"225":-0.02970278116900159,"226":0.005927565294836975,"227":0.18041595907289004,"228":0.1732130574587764,"229":-0.062127802020525646,"230":0.1533528354969409,"231":0.0720771683418612,"232":-0.18755988477199176,"233":-0.13958135016725157,"234":0.06381761062578312,"235":0.030849372975511886,"236":0.06906255851192869,"237":-0.048981959430735945,"238":-0.1428137716373365,"239":-0.19464124720804002,"240":0.11460095981929286,"241":0.12822442906265408,"242":-0.10071314150702688,"243":-0.10270604335554333,"244":-0.07265894567249051,"245":0.1816994891042776,"246":-0.12033927459542619,"247":0.09793924921541657,"248":0.10678202556184373,"249":-0.14100410934562532,"250":0.09241923136378824,"251":0.0793255163210685,"252":0.1893498327054492,"253":-0.1913270716289024,"254":-0.17567746973209789,"255":0.09238730327793869}},"5":{"bias":0.19396413070212223,"weights":{"0":0.19439586604976178,"1":-0.1227581717809205,"2":-0.07474087156109965,"3":-0.03744407424452636,"4":-0.10730562547702004,"5":-0.02141690330370983,"6":0.0037004359442871673,"7":-0.2446957898215143,"8":-0.03675057153239691,"9":-0.24899956485952437,"10":0.04248852388978019,"11":-0.1395323490715162,"12":0.07399550222664933,"13":0.2141164254893139,"14":-0.12017323804764009,"15":0.2365112169437649,"16":0.11102137506454168,"17":0.15746348738094143,"18":0.20463362612269814,"19":0.11474147088722729,"20":-0.03446576734052151,"21":0.10179461891240883,"22":-0.1204640999498934,"23":-0.022531465653375552,"24":-0.21410335048665627,"25":0.21028863230761405,"26":-0.057752280221888226,"27":-0.02737683828204442,"28":-0.037863488043816465,"29":-0.028768447111273684,"30":0.09898557319731424,"31":0.19660329421313616,"32":0.04169526335850046,"33":0.000893802998037239,"34":-0.004558380888163471,"35":0.10507237193687956,"36":-0.018068350107754712,"37":0.25757962450562266,"38":0.0943468813850388,"39":0.10386359891821276,"40":-0.18157576865089695,"41":0.21115096336494132,"42":-0.13715514163176507,"43":-0.05793370715894814,"44":0.05695810690102724,"45":0.16093794402454606,"46":0.05516451536583772,"47":0.27746720198725683,"48":-0.002254398389397233,"49":-0.06810066915287703,"50":-0.05810881865396597,"51":0.2330919741243052,"52":0.021191295282775805,"53":0.02437814146944159,"54":0.1249606389994647,"55":-0.012212156448538325,"56":0.036637236613595955,"57":-0.1619331845610722,"58":0.0525309319921991,"59":0.1766560572155364,"60":0.10149041766289416,"61":-0.170512880290499,"62":-0.21500057618724552,"63":0.08140285230530034,"64":-0.20221360779895778,"65":-0.11379782036123777,"66":-0.12484926201616535,"67":-0.0653807812857552,"68":0.03256318137831686,"69":0.11600568081569884,"70":-0.04158537402226824,"71":0.1860019683286827,"72":0.24273360637297586,"73":0.009204444046668054,"74":-0.09034655485958011,"75":0.09671413633361034,"76":0.046807179904752146,"77":0.11126062613615514,"78":-0.12110197756733534,"79":-0.011927644255901381,"80":0.03810467496271677,"81":0.14476757541562174,"82":-0.054734237804091604,"83":-0.16175667108514927,"84":0.13784089999457638,"85":0.017421336025816612,"86":0.12737622911967864,"87":0.07710982396009314,"88":0.13586828915499274,"89":-0.1558494093830411,"90":0.031295015797913946,"91":-0.03309497156838978,"92":0.014110103821609411,"93":0.002021522210224633,"94":0.043092097671669015,"95":-0.049189147034179176,"96":-0.02229509243785307,"97":0.005844458539011667,"98":0.19824319315331676,"99":0.03521837435830798,"100":0.01655970355380332,"101":0.09920975896380246,"102":-0.20389743567471333,"103":-0.17771204818430958,"104":-0.20247572812983078,"105":-0.11384301419148446,"106":0.02981191721402663,"107":0.07286004813137872,"108":0.1565871903639023,"109":0.10921666420623836,"110":-0.1508050471464003,"111":0.04196171619269212,"112":0.2201052871831795,"113":-0.17510161368364924,"114":-0.07136257890892081,"115":-0.16057906501374047,"116":0.20171511245704712,"117":-0.050018552121324035,"118":0.08591968011210589,"119":0.099718654221783,"120":-0.120021526627508,"121":-0.0768788289919167,"122":0.20000873010824757,"123":-0.09233998098672785,"124":0.14062980768472352,"125":0.07641274497012891,"126":-0.21278287471192264,"127":0.07485806642236167,"128":-0.1422299526480868,"129":-0.17294201868501452,"130":-0.01715111510271898,"131":-0.09125351793762781,"132":-0.0628097329237591,"133":0.24177448685107875,"134":-0.11757673736942846,"135":0.00805184979365301,"136":0.11796389908448858,"137":0.09541526758943777,"138":0.14777661804600628,"139":0.006774124959444165,"140":-0.14295093685995697,"141":-0.19462573195424665,"142":0.06510776668653204,"143":-0.09794988776029716,"144":0.05343989927199781,"145":0.19262171788728252,"146":0.06337742016989731,"147":-0.08988350808994698,"148":0.04005934001127818,"149":-0.08998242894144404,"150":0.048762085091111636,"151":0.0007246557713780309,"152":0.12245739915996291,"153":0.05508895783748487,"154":0.14767824778086475,"155":-0.2147488053874711,"156":-0.1675344748333745,"157":-0.054899214415908865,"158":0.18377377349484897,"159":-0.11716733305353436,"160":-0.20606716297369218,"161":0.14853036668379763,"162":-0.019851289802370428,"163":-0.1772561648546112,"164":-0.08791451523026636,"165":0.044178445832463616,"166":0.03597683582977234,"167":0.015418836074773484,"168":-0.07020101333537215,"169":0.15336231081118962,"170":-0.02860922433510257,"171":-0.1313639898587079,"172":0.2234746283930306,"173":0.20664529554708255,"174":0.1563360799682762,"175":0.16429579030624844,"176":0.14838064755005173,"177":-0.1640154059974493,"178":0.11135039094582713,"179":-0.1504521716915245,"180":0.01368918307761026,"181":-0.07788010829412434,"182":-0.0878774995417779,"183":-0.12787686384009345,"184":0.11506771529976102,"185":-0.22096933305832778,"186":0.10826641228854428,"187":-0.22885092980564364,"188":-0.1099669822885037,"189":-0.090535771848978,"190":-0.1456245720843359,"191":-0.014903182434829059,"192":-0.09849801563299151,"193":-0.16660931000084966,"194":-0.003622437258109912,"195":0.04365038010921107,"196":-0.18714444774042258,"197":0.0007720186139097188,"198":-0.09228104996819113,"199":-0.040187755236171796,"200":-0.11277706055774993,"201":-0.05942995197353706,"202":0.20355217520691612,"203":0.08536956987354141,"204":0.04063272962559362,"205":0.01744463305654451,"206":0.0025251059159957334,"207":0.1405147833165406,"208":0.02301618093095867,"209":0.1608353017468135,"210":0.1375685588400369,"211":-0.08847729858244426,"212":0.08529646548700863,"213":-0.13018652739968714,"214":0.15253758793625047,"215":-0.1891302435205267,"216":0.08947041224932471,"217":-0.06484012423890378,"218":0.20949139818180326,"219":-0.24198935080773368,"220":0.06832237158294775,"221":-0.21171414191334048,"222":0.13510200103295847,"223":0.07731012725584697,"224":0.07536870792404886,"225":-0.2366926901197772,"226":0.05860538698772356,"227":0.03893015221698581,"228":0.1406911574685422,"229":-0.14402486442677692,"230":0.12254291151532432,"231":0.07740696604683606,"232":-0.02328862414590623,"233":-0.08036309328797789,"234":-0.11895479821327529,"235":-0.09078100091170309,"236":-0.04604615175169002,"237":0.06874728670302398,"238":-0.13218213103778798,"239":0.16263209868435827,"240":-0.02368253382625737,"241":-0.12225665590110346,"242":0.1654531069227045,"243":0.1622973032048393,"244":-0.06780847543697129,"245":0.19409034615463377,"246":-0.10713774816519543,"247":0.10871050985649017,"248":0.036622991256375775,"249":0.28075621402464473,"250":0.08689947961987032,"251":-0.041742385901062704,"252":-0.021000901579012552,"253":-0.022811427742186387,"254":0.1511760345485401,"255":-0.06537934381988673}},"6":{"bias":0.16376788398310493,"weights":{"0":0.1714349316845229,"1":-0.008799511908074644,"2":0.055137630774705675,"3":0.15009198322258258,"4":-0.08845125034845303,"5":0.032904879811286036,"6":0.01705625316781318,"7":-0.14168546189381975,"8":-0.02252432784849882,"9":0.16242323620962895,"10":0.15379094772535878,"11":-0.05738421589663559,"12":0.0003524006201234459,"13":-0.18007516082465985,"14":-0.16504474683130865,"15":-0.12529265334845538,"16":0.002534438745715069,"17":0.08409485625130252,"18":0.051017003855451964,"19":0.16053557172708458,"20":0.05553950669719387,"21":0.005359163039772825,"22":-0.018285098579585313,"23":0.06555535857535776,"24":-0.06576853689688321,"25":-0.1676149592894694,"26":-0.17270103021948366,"27":-0.06651127552891813,"28":-0.05545761021751049,"29":0.049693131575807355,"30":0.16408800714361482,"31":0.13319264365557137,"32":0.19306527180739708,"33":-0.17242856136831491,"34":-0.1073159908383294,"35":0.05303849133677474,"36":-0.0925808589040717,"37":-0.0684879914718661,"38":0.13735688803280977,"39":0.08321020074940108,"40":-0.152253580959252,"41":0.032218024349038865,"42":0.19840939282092204,"43":-0.01915850148505244,"44":-0.14289751481516083,"45":0.06967779830970489,"46":-0.1294728696128609,"47":0.15672482882561092,"48":0.17619784961907295,"49":-0.04152422448049853,"50":-0.06762113051300064,"51":-0.19279267453104923,"52":-0.0348078398264127,"53":-0.07548687249766378,"54":-0.19302915840157417,"55":-0.1012193250481634,"56":-0.07828803121447715,"57":-0.19536755626456337,"58":-0.15583924931250537,"59":-0.1534782519770995,"60":-0.17249821709745136,"61":0.10275587257204048,"62":-0.15107994614695716,"63":-0.09201426872754108,"64":0.18654907327331338,"65":-0.02179301988916783,"66":-0.14228980461138938,"67":-0.03829805181250107,"68":0.16654614218404765,"69":-0.16595809914301518,"70":-0.014291918410028349,"71":-0.019767665853802473,"72":0.15439842026971556,"73":0.12157107583402127,"74":-0.04787821849020132,"75":0.16223794722068433,"76":-0.09918250187532733,"77":0.016375494585116293,"78":-0.10412536470162694,"79":-0.09819533959761648,"80":0.06899189154135414,"81":-0.1716635237474013,"82":-0.11748751377456462,"83":-0.1057500884299691,"84":0.04994395908195548,"85":-0.12440054424186522,"86":0.19945303461416578,"87":0.009325076068005375,"88":0.036182417503330934,"89":0.0004138045968929976,"90":0.04071434674252633,"91":0.027788248028363122,"92":0.07008236208754061,"93":-0.17637714854064962,"94":0.04382253950431024,"95":0.07921348207412993,"96":-0.18027671094482478,"97":-0.01641269173748635,"98":-0.030183355820945685,"99":0.05031728891197235,"100":0.18182319975234357,"101":0.00793405957261396,"102":0.011675952356897475,"103":-0.14606253379644407,"104":-0.1047191491365357,"105":0.07669380583405266,"106":-0.08065721105499071,"107":0.0005601703211377956,"108":0.012848455955608693,"109":-0.04587490762144837,"110":0.18825548156513297,"111":-0.0841292377930491,"112":-0.1540464762433802,"113":-0.10819127527668826,"114":-0.1574665354063518,"115":-0.09059683174941631,"116":0.00983402816134905,"117":0.07999125191186714,"118":0.17228183826359283,"119":0.15792825594831736,"120":-0.08225363021589023,"121":-0.008705950183624366,"122":-0.15597369251282622,"123":0.02178788089738417,"124":0.15164558307348808,"125":0.15880865030850455,"126":0.06315978866724349,"127":0.13318597916450753,"128":-0.0532271792759156,"129":0.02695149968909407,"130":0.06318174106612598,"131":0.10144360479509328,"132":0.1028206027838678,"133":-0.15152919402019122,"134":0.0727271116214775,"135":-0.10415112779674976,"136":-0.08485906301348825,"137":-0.051646020396110257,"138":0.18854823046196345,"139":-0.2045798862532604,"140":0.08678670208057762,"141":-0.1958306208339416,"142":0.051652367655363074,"143":-0.19271526564419186,"144":-0.0012687740498238138,"145":-0.10043165544830299,"146":0.16080343794053165,"147":0.0816458932283444,"148":0.1575334944429778,"149":-0.18702784107918935,"150":-0.15236037979388228,"151":-0.2029833332289805,"152":0.10402510708481,"153":-0.07972881795738988,"154":-0.048634508769078905,"155":-0.02639293129751975,"156":-0.0932292905730686,"157":0.005285862119242816,"158":0.1857255451559511,"159":0.008210822873774584,"160":-0.09418536706846767,"161":0.10983830612169129,"162":-0.18595156765102427,"163":0.09642661945648326,"164":-0.020266577945154178,"165":-0.05661727546502646,"166":-0.16351497016459365,"167":-0.10575085474306628,"168":0.024332252097221483,"169":-0.0005773464476681523,"170":0.008667393146937137,"171":-0.10157392453455444,"172":0.14846507539832143,"173":-0.07933013477269932,"174":0.12621735121288222,"175":0.02499615042445421,"176":-0.13235078564133648,"177":-0.17175447994454332,"178":-0.13691151806440696,"179":-0.07964066905290962,"180":0.08312841891038751,"181":0.09182522968078445,"182":0.0293099004549041,"183":0.06318209960999399,"184":0.010753529156460993,"185":0.12125380701521783,"186":0.13500375520859562,"187":0.09533380798045965,"188":-0.10783224356506345,"189":-0.10962931882138398,"190":-0.06333479790101075,"191":-0.12375264823164628,"192":-0.16079484154135035,"193":-0.18600230890103647,"194":-0.08797799876654833,"195":-0.059130715579426334,"196":0.1364433106072182,"197":-0.10356582274500503,"198":-0.12193366589285766,"199":-0.038814558873518826,"200":0.08940163708720243,"201":0.18035808223127067,"202":-0.07473247811694717,"203":-0.07852773847890113,"204":0.1159332910212826,"205":-0.14204278972326584,"206":-0.12862956086103866,"207":-0.17674214539788502,"208":-0.11147095054689131,"209":0.13001607198385542,"210":0.18543291788763983,"211":-0.11827744720545781,"212":-0.017971187847833168,"213":-0.12612974029582605,"214":-0.09313935626110342,"215":0.1409595471519063,"216":0.17743553291362285,"217":-0.007629410701749153,"218":0.12646928284735345,"219":-0.011858544980200402,"220":0.09317950201921887,"221":-0.05319516656715177,"222":-0.1806437171541768,"223":0.048449640545871475,"224":-0.1012542198188172,"225":-0.005296383988762606,"226":-0.18514192711572336,"227":-0.03583433524618324,"228":0.11469180419614598,"229":-0.11920791684845666,"230":0.11479215158323343,"231":-0.1214356669248435,"232":-0.03669606635936825,"233":-0.19030675392037386,"234":0.06927764104733326,"235":0.029449151987461456,"236":-0.015817628454429335,"237":-0.20638837818031083,"238":0.09467977718073971,"239":0.03017021284428562,"240":0.10378823870404372,"241":0.1434120836474722,"242":-0.07473944619947868,"243":-0.162636405977673,"244":-0.1189497053545491,"245":-0.1179305245102433,"246":-0.05309830921803672,"247":0.0852321353480883,"248":-0.08884751486733375,"249":-0.08779350617318774,"250":-0.1450099096241703,"251":-0.1701442583829156,"252":-0.03616921556768134,"253":0.1779962024339055,"254":-0.05920010877725968,"255":-0.11301277187854342}},"7":{"bias":0.0832687332617425,"weights":{"0":-0.07268393040721369,"1":-0.16777573726639766,"2":0.18953904035252028,"3":-0.11050643457127851,"4":0.17061662397228308,"5":-0.17957102797568772,"6":-0.16918802729617147,"7":0.06890251160798551,"8":0.13879378501218595,"9":-0.16144374709567696,"10":0.1066175050473901,"11":0.0036945058461467528,"12":0.09280573855918339,"13":0.07006155351804637,"14":-0.12573331684514497,"15":-0.156034250057598,"16":0.014020204210523248,"17":-0.16919620780624672,"18":0.15376998841804732,"19":-0.09339327777274589,"20":0.039620169235482346,"21":0.13200924851372975,"22":-0.13741319841198305,"23":0.04650538370420918,"24":0.030634968623319023,"25":-0.22630318104735908,"26":-0.06500506897676087,"27":-0.013853716403873324,"28":0.10694771113911293,"29":-0.03841472081368308,"30":-0.039119829869661185,"31":-0.05462200092695399,"32":0.1692840453911837,"33":-0.04682006525129999,"34":0.16490894136301132,"35":0.16950242694288872,"36":-0.16977340598214335,"37":-0.20906218060887719,"38":0.22024891220085582,"39":0.1479410966139192,"40":0.19456927365308602,"41":-0.09033535660735574,"42":0.06681149393586695,"43":0.01223404384586956,"44":-0.010805254352200809,"45":0.03719154708887138,"46":0.19516015587570967,"47":-0.1976910439823443,"48":0.10192769627205982,"49":0.23661278393411586,"50":0.07379927764801937,"51":-0.21944022200104488,"52":0.12932709837753298,"53":0.19763335578343358,"54":0.1325849898600353,"55":-0.08510045518231198,"56":0.060388408604055255,"57":-0.1805136521983438,"58":-0.002290036908416228,"59":-0.030545480617087943,"60":-0.23807456996963777,"61":-0.2134845069652987,"62":-0.032894912147552656,"63":-0.12886864390339414,"64":-0.12196742035191693,"65":0.12082097677657785,"66":-0.050958860421476605,"67":0.04431830114549698,"68":0.023677146284693563,"69":-0.14808203115217575,"70":0.018340429269413153,"71":0.09718198988867432,"72":-0.05424643101966725,"73":-0.2281834286842943,"74":-0.13885726733893,"75":-0.046622967783505255,"76":0.06043598599084636,"77":0.17177027654982657,"78":-0.05156043424861544,"79":0.10871565918763984,"80":0.1749284843444453,"81":0.06595303045404698,"82":-0.01186181961610882,"83":0.09641334887796008,"84":0.07541144848907783,"85":-0.2119900671751812,"86":-0.0004971590840170665,"87":-0.16438994162905426,"88":-0.0549150636147046,"89":0.08641819349712364,"90":0.09274316654854145,"91":0.0911218110916115,"92":-0.008705057884127952,"93":0.11578242153318906,"94":0.15562424262731117,"95":0.008123750228657158,"96":0.09465668356152845,"97":0.06725034779195634,"98":-0.18937212137069517,"99":0.15951698936471165,"100":-0.05023536568626598,"101":0.04365048380680388,"102":0.12592562676954014,"103":0.06661014097646151,"104":0.017406184647100375,"105":-0.06359210286455096,"106":0.037673747432784795,"107":-0.0602630661358498,"108":-0.08860742690451626,"109":0.07051415248644638,"110":0.032677252993260734,"111":-0.07106759655660624,"112":0.10219178489231631,"113":0.16904642268697667,"114":-0.164277599372622,"115":-0.09843325083265098,"116":0.11929039746828682,"117":-0.05853604810175225,"118":0.1521721697339767,"119":-0.18923745384490015,"120":0.19782614263065434,"121":0.012071911957100149,"122":0.10790976787383533,"123":0.057433542604216584,"124":-0.007734335296744219,"125":-0.04937724273424853,"126":0.04056837772756636,"127":-0.13511458148961675,"128":-0.1939116221942534,"129":0.24570524366335988,"130":0.06603300994342913,"131":-0.12060885377909329,"132":-0.08057703085525139,"133":0.08209007402144164,"134":0.24440121465427542,"135":0.2514229433696604,"136":-0.19979588295584252,"137":0.0698105129566535,"138":0.1196050984266113,"139":-0.17832195159468345,"140":-0.06859986700447818,"141":0.04918550819012165,"142":-0.10462156406114591,"143":-0.028814602809202394,"144":0.1888611931425953,"145":-0.20524848191893466,"146":-0.09651977368633026,"147":0.12802286993519577,"148":-0.026169780735043034,"149":0.07803757030273946,"150":0.0013600488320775796,"151":0.07142324635056127,"152":0.04021162189950882,"153":-0.024201464060304302,"154":-0.12435271765037927,"155":-0.01418140113939808,"156":0.029300674507921228,"157":-0.18628528096283029,"158":-0.1912205209931968,"159":0.17056914026096054,"160":0.1405073517886047,"161":-0.12220266448071157,"162":-0.10654927155959505,"163":0.06023697075146692,"164":0.15557109317685053,"165":-0.16986232472939394,"166":-0.02695520417794216,"167":-0.003220148458116753,"168":-0.07191454996088249,"169":0.12361386270859351,"170":-0.03228979557387809,"171":0.06781567743650915,"172":-0.14194182997567353,"173":0.014241268442986343,"174":-0.011530019848862491,"175":0.018231611534156058,"176":-0.2094299047766565,"177":-0.12847729905907576,"178":-0.16567569754096062,"179":0.1573733825900886,"180":0.12832895124646454,"181":0.07727338454750006,"182":-0.06744331843827106,"183":-0.1009467657924787,"184":0.07656532472399805,"185":0.18720451276916686,"186":-0.11273517756164642,"187":0.20469522644085653,"188":0.036431501471071256,"189":-0.11466035305239985,"190":0.009528358104577514,"191":-0.11974587631110441,"192":-0.058690077053729174,"193":0.129227757241678,"194":-0.1568358827272741,"195":0.014398037640977699,"196":-0.17276457221229535,"197":-0.1398593165641389,"198":0.027563649520360903,"199":0.1296075818530904,"200":-0.13716176125971163,"201":0.0591508300254328,"202":-0.14252856955689472,"203":0.13477723090437707,"204":0.09916498851858509,"205":-0.17593348067827821,"206":-0.13997855341926985,"207":-0.175367435642553,"208":-0.07807382449033766,"209":-0.157277541754425,"210":0.17128744938701013,"211":-0.038440579082772326,"212":-0.05409198339370548,"213":-0.10954317701796094,"214":0.02994089831149476,"215":0.13305645342007338,"216":-0.09978337878265177,"217":0.1907124858474013,"218":-0.0652696984173674,"219":-0.122587110797356,"220":0.12549418741281487,"221":0.16371906342460446,"222":-0.11993589178332209,"223":0.06758350553159148,"224":-0.021647279318948796,"225":0.17851309718420108,"226":-0.08097879160066541,"227":-0.10312232219161047,"228":-0.1670471276251984,"229":0.022281551844571295,"230":-0.059417318583951675,"231":0.22521175109251287,"232":-0.15415169795039546,"233":-0.07297128120852898,"234":0.023067881053485333,"235":0.0031625434318346304,"236":0.10910341788564402,"237":-0.2743473515294403,"238":0.06786086943680346,"239":-0.14612713801732266,"240":-0.07753956777669442,"241":-0.09158609172476338,"242":-0.1677192791119184,"243":0.11326861433794294,"244":-0.13464139118452112,"245":-0.0015634649750946314,"246":-0.13724051528518955,"247":-0.21102694186338117,"248":-0.06225830653861773,"249":-0.23172531085103631,"250":-0.2170208397487661,"251":-0.22772791609291035,"252":0.13688004800784284,"253":0.10691910559794698,"254":-0.12427377352113687,"255":0.008530402466885353}},"8":{"bias":-0.2005268013610368,"weights":{"0":-0.037786825051906836,"1":-0.18365025131552315,"2":0.15488267600294503,"3":-0.005760821279981769,"4":-0.1633839043076897,"5":0.0410310101813513,"6":-0.14619032562846437,"7":-0.017420008779561912,"8":0.12536171932627646,"9":-0.08906281767172754,"10":0.1591608902402907,"11":0.07974382676853191,"12":0.03843923438239585,"13":0.16841509348271064,"14":0.0061168165876404265,"15":-0.12256690347895961,"16":0.09982501422810802,"17":-0.1889358696737284,"18":0.11893372336980286,"19":-0.09107431624057095,"20":-0.19197218153288653,"21":0.1081291791864865,"22":0.15236300031515113,"23":0.10167668133264109,"24":0.09351174419794173,"25":0.03003576682422839,"26":0.18214958144566845,"27":-0.06216870687043611,"28":-0.148692853627258,"29":-0.17564869250412682,"30":0.014146571906958703,"31":-0.003414376116282601,"32":0.0526470200343016,"33":-0.13085292988491137,"34":0.009306447234193738,"35":-0.1630234312647361,"36":-0.1932711414539365,"37":0.0938841163251598,"38":0.024797007298195162,"39":-0.18973750727508099,"40":0.17723172647383661,"41":0.09677486331860313,"42":-0.11611388314559176,"43":0.14872854726146004,"44":-0.06473956794012703,"45":-0.008526069555690057,"46":0.14081806411833608,"47":0.12445891423857257,"48":0.16535901971535802,"49":-0.007237600889117975,"50":0.15765848227003865,"51":0.08341697226266652,"52":0.1121729065239181,"53":0.02638222429535655,"54":-0.11579602901530421,"55":0.050891518724525596,"56":0.12611397248286402,"57":-0.1769452613738055,"58":0.17612547019660427,"59":0.1760077803233001,"60":0.15647757649991925,"61":-0.11654230590833349,"62":-0.19950880613496969,"63":0.16138869410778006,"64":0.03166815182996392,"65":-0.11262908787426948,"66":0.04525093014330988,"67":0.05588657350082705,"68":0.0864072824791976,"69":0.099290237978969,"70":-0.0045661964787782755,"71":-0.1934668238678439,"72":0.08622078490883622,"73":-0.15755411465841526,"74":0.10940989902262631,"75":0.07499637355082633,"76":0.18975253586113716,"77":-0.11404759746414309,"78":-0.04422694302500597,"79":-0.01942721778514951,"80":-0.08417920492646262,"81":0.05352414275426392,"82":0.16393918876573943,"83":0.05178105374937989,"84":-0.14983819150626082,"85":-0.11232848150320666,"86":0.08958676846825948,"87":0.030698142886806983,"88":0.1406582759422051,"89":-0.10148297159515708,"90":0.16775127615866514,"91":0.17217274686016382,"92":0.09091487848116134,"93":0.09210121462960044,"94":0.11776128404248228,"95":-0.14703788385809607,"96":-0.041039005905670334,"97":-0.05549166447858952,"98":-0.1464011523733723,"99":0.17162357993370297,"100":0.12678151195567036,"101":-0.12690578364303007,"102":-0.1540106604507026,"103":-0.130623510723427,"104":0.04632068499919049,"105":-0.09477980620044825,"106":0.13576344888741332,"107":0.04085834392763842,"108":-0.06256231398628699,"109":-0.09157708894031291,"110":-0.1749505256812196,"111":0.15788766605740454,"112":-0.07337368591713202,"113":-0.008768920422515942,"114":0.05000186347923585,"115":-0.10685108106562421,"116":-0.19383942977440732,"117":-0.1283805215445427,"118":-0.1157088578789343,"119":-0.03388191811054839,"120":0.11663159219480926,"121":-0.07880998337532899,"122":0.07604251409880719,"123":-0.047377224171084725,"124":0.14820680034222658,"125":-0.06500235086899508,"126":-0.08055040868531615,"127":0.16099390417964385,"128":-0.07600971855664403,"129":0.04536192847617516,"130":-0.18772558167433956,"131":-0.018111593776007903,"132":-0.06394656353353019,"133":-0.19785871593917542,"134":0.15854443926454911,"135":0.018579663609085178,"136":0.12532163823755085,"137":0.12242034675797692,"138":-0.08768741025103217,"139":0.09090413430173067,"140":-0.19790508439707125,"141":-0.12177017058354986,"142":0.05180543604819676,"143":-0.04884837395428413,"144":-0.1663902618084297,"145":0.10551955209893692,"146":-0.0068531464043111116,"147":0.004691100214705337,"148":-0.20452428913907322,"149":0.05989676901513326,"150":-0.19237209896159418,"151":-0.04381605867273136,"152":0.18733273513830112,"153":0.09987993055475848,"154":0.18505352964520003,"155":-0.0685073858203903,"156":0.09109525813951623,"157":-0.021350155185890684,"158":-0.01813924936233545,"159":-0.0093689414103195,"160":0.05553111557800214,"161":-0.16267806592985629,"162":0.13598599675649872,"163":-0.09768308896397437,"164":0.01515285760935056,"165":0.13726754174320632,"166":-0.18202353512645114,"167":-0.20563589799350807,"168":-0.16681760548208535,"169":0.1645625322472733,"170":0.07717260460579443,"171":-0.021547416764736708,"172":-0.12182175857102098,"173":0.1544602439062093,"174":-0.10740298529976944,"175":-0.08448476481722833,"176":-0.151947696393527,"177":-0.19173026252746073,"178":-0.03792442653087815,"179":-0.0820035874313254,"180":-0.03822302431338209,"181":-0.01981669122290846,"182":-0.17362112257851398,"183":-0.07531815010395555,"184":-0.03568383231213682,"185":0.06598918624006415,"186":0.18566399311317763,"187":-0.06064534091684371,"188":0.013616912572695627,"189":0.18263508038437523,"190":0.011983359299699464,"191":0.03543563542649254,"192":0.10092042125033844,"193":-0.05460086011657884,"194":-0.12274047737991209,"195":0.006818448064577936,"196":0.004116880994778785,"197":0.0921480383489663,"198":-0.07797116184827695,"199":-0.09203257298841154,"200":0.1816260451138206,"201":-0.06770140275089354,"202":0.022021477806187937,"203":0.08624823583146185,"204":0.16063789139252735,"205":0.14038903393659122,"206":0.03172026760149487,"207":0.06362240135281313,"208":-0.05205776465231982,"209":-0.041894457177344364,"210":0.06738532855032665,"211":0.07955783367371236,"212":-0.20452092716615639,"213":-0.1591552434434802,"214":-0.0336980604447764,"215":0.17024642380428673,"216":-0.10990767275679958,"217":0.18381480721011728,"218":-0.11306553333307892,"219":0.01563483853711846,"220":-0.04038786965327865,"221":0.024065288183263454,"222":-0.021524765969997577,"223":0.17625183233833988,"224":-0.045822852363840406,"225":-0.050342016745184,"226":0.02340901188849045,"227":0.13053251463283666,"228":0.05912145498291124,"229":-0.12202041324372458,"230":0.13308771255235247,"231":-0.022956645258392517,"232":0.0017722122553205952,"233":0.1658577560158155,"234":-0.08945930601311337,"235":-0.16739434611287557,"236":0.1402478163236273,"237":-0.0918002401902008,"238":-0.09624687415306556,"239":-0.10602023128559909,"240":-0.03485102457635334,"241":-0.1503469317465488,"242":-0.009431777028193306,"243":-0.08675173209531077,"244":0.03484400330871681,"245":0.16165892992780873,"246":0.08524051737905274,"247":-0.05363217956733304,"248":0.1573152146895763,"249":-0.04967284372118991,"250":-0.059053671580850155,"251":-0.1773872550568893,"252":0.10423269041914816,"253":-0.0069153930237737605,"254":0.07892499762232122,"255":-0.18609168636687476}},"9":{"bias":-0.05963116696176758,"weights":{"0":-0.043489762677121666,"1":0.18526549273148385,"2":-0.03799301071979031,"3":-0.01049411787001801,"4":-0.16358537070539775,"5":0.1492383888879596,"6":0.05676057950122993,"7":0.11789969007994155,"8":-0.12651100235912613,"9":-0.10098274831164085,"10":0.15149038697868386,"11":0.09433114155133358,"12":-0.16423149112584673,"13":-0.18160874694392248,"14":0.00921267709292548,"15":-0.11471462878003291,"16":-0.1680710379948839,"17":-0.10852907986628195,"18":-0.12058375522833467,"19":-0.0057256617921389,"20":-0.13671493230839876,"21":-0.05865380526281078,"22":-0.17053159782900387,"23":-0.003664157156052105,"24":0.1819438119004656,"25":-0.1969423947732871,"26":-0.10511758660494949,"27":-0.15430142016396872,"28":-0.1931292999347324,"29":-0.023813711936133488,"30":-0.16435970009065998,"31":-0.17618766179711498,"32":0.1743264631816532,"33":-0.022952481741707123,"34":0.018765725685553812,"35":-0.07714855026521593,"36":0.12495212881781803,"37":-0.013446312535124169,"38":0.08333641278955693,"39":-0.08417548941819923,"40":0.10540533259068835,"41":0.1481631791221143,"42":-0.04971032305650546,"43":0.030722662106457285,"44":-0.03260719067498481,"45":-0.08876303613478874,"46":-0.14547842561816987,"47":0.06005816341850033,"48":0.1275500445801907,"49":-0.08742503612127268,"50":0.13229171769290965,"51":-0.06761536399260626,"52":0.09451923685786986,"53":-0.08649070954065763,"54":-0.03643230288084007,"55":-0.16147016832574196,"56":0.0759590062752241,"57":-0.1521494842657567,"58":-0.13680870631926675,"59":0.12928334255302878,"60":0.1560894334873023,"61":0.046343882513143975,"62":0.19245964692308726,"63":-0.14996093481429615,"64":0.10868998565218495,"65":0.16180731983493693,"66":-0.08738407608694414,"67":-0.10932361643655618,"68":0.027151625965210372,"69":-0.07565898117978297,"70":0.028540595963153625,"71":0.10735847612380503,"72":-0.19175932464557538,"73":-0.02498695958468851,"74":-0.10140113913227071,"75":-0.1584934314525847,"76":0.0647111484118787,"77":-0.1349634336929704,"78":0.07924681709309414,"79":0.015148493109569195,"80":-0.18637643754969993,"81":-0.10718314980268231,"82":0.10060184689508736,"83":0.04092999413072548,"84":0.13023761934477848,"85":-0.17407821280917135,"86":-0.008712803003917547,"87":0.03992030887693739,"88":0.022708298250925553,"89":-0.1270254279040877,"90":0.1947501190262013,"91":-0.14877084472755062,"92":0.060997315459854616,"93":-0.06311263208032775,"94":0.036277969238374265,"95":0.05948628993954314,"96":-0.0007356970974484199,"97":-0.11775281112573731,"98":-0.1594304743535243,"99":0.057021904716341616,"100":-0.1508181526537639,"101":-0.10465412816968944,"102":-0.07503887739768603,"103":-0.12795730748850118,"104":-0.13973667408585877,"105":0.1142441164750745,"106":-0.047335860795929385,"107":-0.1470471296014193,"108":0.16008972376061711,"109":0.1774768924597153,"110":0.09385865589060055,"111":0.08860589659363834,"112":-0.12955759776989145,"113":-0.16664457104332453,"114":0.0457244410814578,"115":-0.15627867119362604,"116":-0.09205462535670607,"117":-0.16725551599782326,"118":-0.15809403551113113,"119":-0.0007056421588629363,"120":0.07194714965495252,"121":0.1949110147240204,"122":0.02691225143267345,"123":-0.1700454962598917,"124":-0.14458614187204827,"125":-0.2016624169761988,"126":0.013470112747575454,"127":0.05883366095038444,"128":-0.18104500064170603,"129":0.16600628739289428,"130":-0.08225923438748833,"131":-0.006263535643852546,"132":-0.18640023534220695,"133":-0.07103539559619788,"134":-0.1693424463536059,"135":-0.044982200108560425,"136":0.015677536189103707,"137":0.04514500944366003,"138":0.02177683027793621,"139":-0.13654966861088988,"140":-0.1897913756737238,"141":0.07423908137156177,"142":0.1514120764983416,"143":0.07280090764789944,"144":-0.09353543528255605,"145":0.021303948257166402,"146":0.06967211927149383,"147":-0.14866639486938643,"148":-0.10470478476043128,"149":0.09967497644060837,"150":0.14311078766039922,"151":0.17587721591424663,"152":0.16580534357048754,"153":0.10266515157198795,"154":-0.19640452226577892,"155":0.18915872923946456,"156":0.14449013187324034,"157":0.1940295612052629,"158":-0.08827742318708942,"159":-0.15445983700586804,"160":-0.028623045671820946,"161":-0.10350619589912265,"162":0.07037576228715192,"163":-0.003093912832377012,"164":-0.04530870545922871,"165":-0.128295477945588,"166":0.019492143082592523,"167":0.17848337247694482,"168":-0.16685264199914568,"169":-0.014409357186204678,"170":-0.10342991484063385,"171":-0.09275268739009894,"172":0.1535622010514652,"173":-0.08042952467177916,"174":0.05897336444112308,"175":0.13625819094200795,"176":0.16642617108745483,"177":0.17520169976597014,"178":-0.1747720548519806,"179":-0.1021752420289237,"180":-0.07837468906773723,"181":-0.15147320309329182,"182":-0.03558883214549251,"183":0.0565384918532939,"184":-0.01982289280813873,"185":0.0016181196702029631,"186":0.06711689061350908,"187":-0.06300923512812638,"188":-0.009267644656506334,"189":0.06979802613521394,"190":0.04897582073797704,"191":0.013748471773642778,"192":-0.12381578259424532,"193":-0.07096668978983374,"194":-0.15924284654223256,"195":0.12298648800944358,"196":0.1997435519081904,"197":-0.1248104911899333,"198":0.14591698284988888,"199":-0.045930531140548625,"200":0.0624979198381541,"201":-0.14677742833661273,"202":-0.0014717256059172256,"203":-0.10854060723828438,"204":-0.07651184318269795,"205":0.16931996982678515,"206":-0.1408307030164704,"207":-0.18991814791847866,"208":0.10256614531348449,"209":0.13737890293652086,"210":0.044217726668395636,"211":0.07524841903740556,"212":0.15487317538424225,"213":-0.07007827185438069,"214":0.16168439965236137,"215":-0.14656735907255086,"216":0.09465515039615678,"217":0.16075330655870745,"218":0.03918969077827816,"219":-0.035166686459824965,"220":0.15080808976436771,"221":0.051889727161896826,"222":0.15455087531891493,"223":-0.10695350466836089,"224":0.1806546433834246,"225":-0.08627131351879444,"226":0.18954800694508794,"227":-0.02712740441616615,"228":-0.15993601701525292,"229":-0.12856385192312625,"230":-0.149901725735219,"231":0.13181664993362271,"232":-0.12857075911567215,"233":0.06972598415205929,"234":0.05501892509088868,"235":0.005013123459268711,"236":0.10129774319619672,"237":0.0029290104716425003,"238":0.06550614102375271,"239":0.06996246934787405,"240":-0.012325546527316215,"241":0.14567226220469584,"242":0.19255943889197574,"243":0.1846188515227452,"244":-0.18587470579088627,"245":0.1861784661169829,"246":0.1949858241599512,"247":-0.20296268093572964,"248":0.09478023400067985,"249":-0.14509119921729582,"250":-0.17097673184504522,"251":-0.12346225545765889,"252":0.03336466067346866,"253":0.13947130538546668,"254":-0.05374571370032975,"255":-0.09619001817464669}},"10":{"bias":0.08038708080689493,"weights":{"0":0.026713481781523378,"1":0.09914956547385038,"2":0.07832113919347893,"3":0.1559108129258848,"4":0.011796320630267152,"5":-0.14430148685833974,"6":-0.11375599970285996,"7":-0.14434403956496197,"8":-0.10796801440053351,"9":0.07023552315326698,"10":0.19832409248133795,"11":0.039562007177526455,"12":0.04257031862024895,"13":0.06918610624836793,"14":0.19083233910597638,"15":0.15778211229218042,"16":0.011843560182491965,"17":0.07772018016996238,"18":0.13654980468542477,"19":-0.11917005568455921,"20":0.18843069291182604,"21":0.17216828617477428,"22":0.04550572009394534,"23":0.11727541731199807,"24":-0.07704829626758665,"25":-0.1596765450895497,"26":0.16769296376806117,"27":0.032263596167529704,"28":-0.17143397410365005,"29":-0.03479934015018678,"30":0.194110823230635,"31":0.22717044920222193,"32":-0.03324216728367725,"33":-0.09979748144713509,"34":-0.19725755740055317,"35":-0.07974605895728794,"36":-0.15132894793326876,"37":-0.059192496486342706,"38":-0.11456498290890861,"39":0.07592071967497799,"40":-0.21631866003887776,"41":0.07609156794721347,"42":0.09890034756809421,"43":0.1965601543575942,"44":0.14338105627677133,"45":-0.16288649747608855,"46":0.15349176993806932,"47":0.008985436926321328,"48":0.03258073431380107,"49":-0.08696797417037205,"50":0.1923368220383285,"51":0.0935555833695317,"52":-0.1955969449498975,"53":-0.2197666662588977,"54":-0.08848037680067813,"55":0.038632150787954,"56":0.055633720101523045,"57":-0.14864403513636826,"58":-0.06286918016860735,"59":0.09412023205696626,"60":0.17759726693310782,"61":-0.1945770917827712,"62":-0.04459142422618295,"63":0.14673011229454566,"64":-0.16762198423699232,"65":-0.05450896834354099,"66":0.09184569157828582,"67":0.05014828330817086,"68":-0.0691012548241562,"69":-0.01777805376446081,"70":-0.16559885976326372,"71":0.00908792180887,"72":-0.08644290577434126,